-1.534693502186680325e+00,2.280426635665293300e-04
-1.459056117026100718e+00,4.573250970155936547e-03
-1.321220971790040055e+00,1.896572835855530638e-03
-1.633466655603730278e+00,1.146754030312242129e-03
-1.577272653184508933e+00,3.870629104476133037e-03
-1.668037822315509011e+00,-3.869996495938835684e-02
-1.736185806086974814e+00,3.667980675074851427e-03
-1.793079204519618441e+00,1.523232063950894291e-03
-1.664142601261510590e+00,2.202992125422600228e-03
-1.737048405101502935e+00,-1.870402851909762527e-03
-1.650392262213467465e+00,3.622551197629944424e-03
-1.922024282895908209e+00,3.729416536570414990e-03
-1.446811647000555423e+00,-1.247698639408338118e-03
-1.668567912085924476e+00,-2.604530331889523542e-04
-1.752689251052141683e+00,4.620725576435717741e-03
-1.518317363090225136e+00,8.412373604942421576e-03
-1.398128782033584816e+00,3.106190728284252342e-03
-1.304534298825005045e+00,1.417556320165069828e-01
-1.909364239724655299e+00,1.219891748818820176e-03
-1.671306017281490641e+00,-2.784090462085507360e-03
-1.220091173169530530e+00,5.287567680804329540e-03
-1.864257745509128705e+00,3.957916584068522405e-03
-1.906188846342866228e+00,3.593089105601211634e-03
-1.565493276969906811e+00,4.289964297899446707e-03
-1.490113844169192125e+00,2.967920713890291259e-03
-1.750469873719864289e+00,4.780083364704344924e-03
-1.459339893554930878e+00,2.362720024339962782e-03
-1.614342290977340166e+00,4.073541552873248886e-03
-1.164252072363816337e+00,2.769641352837206704e-03
-1.814877826281446671e+00,-6.390797097009980055e-03
-1.617858169905498800e+00,5.118830197241652259e-03
-1.723706506136096106e+00,5.326484029887753116e-03
-1.666240879413930731e+00,4.609668065393603652e-03
-1.169289469107630763e+00,1.668009731722733535e-01
-1.052543505172752303e+00,1.731994931262845761e-01
-1.032337239522494787e+00,9.482988994178959130e-02
-9.984879089956808507e-01,-7.880295149055476997e-03
-1.536445483048344940e+00,3.581079976846411952e-03
-1.492946639422587873e+00,3.876742882804668638e-03
-1.364979028546304374e+00,3.135077715845117560e-03
-1.348732806421589547e+00,1.924245399087068376e-02
-1.741704458067111938e+00,3.233949423801079151e-03
-1.261471702414183715e+00,1.341516998337426679e-03
-1.625137179703499246e+00,3.725105896150130921e-03
-1.859738936382447472e+00,3.324240617234784992e-03
-1.737038869561705390e+00,-2.010798803314481353e-02
-1.643803595919675065e+00,-5.778397545858141027e-04
-1.929895877987771957e+00,5.757599105414034669e-03
-1.558565554758042149e+00,5.361018581774880387e-03
-1.922042279477222060e+00,5.066033401210255291e-03
-1.702434631565746592e+00,5.896519994849053203e-03
-1.724534950013376422e+00,2.228680429078469180e-03
-1.237194495774581515e+00,1.854559417599297572e-04
-1.556215809339305922e+00,4.212557606916272901e-03
-1.418879549282450636e+00,1.929952859612191728e-03
-1.706296644619358815e+00,2.852520375742463067e-03
-1.763652722651950944e+00,6.145295928706330860e-03
-1.719029192803938288e+00,5.161916462064369306e-03
-1.927223370895987387e+00,4.373003736899104543e-04
-1.869188920033706625e+00,8.139490995268889098e-04
-1.805332060006554773e+00,-1.204460698552567433e-04
-1.449384419590904693e+00,1.307857654669114002e-03
-1.458495185877085820e+00,7.700420580247287206e-03
-1.964236609025065361e+00,3.507656514447392293e-03
-1.534486204186955360e+00,3.131076341778515210e-03
-1.524402500803695659e+00,3.299558018490549548e-03
-1.438968969316737567e+00,2.901283579122300622e-03
-1.426826681472387559e+00,1.712186571578295201e-03
-1.769409201037990043e+00,3.420431083681865075e-03
-1.663797431871724575e+00,3.323592659332667669e-03
-1.667786725284024829e+00,2.961464608864619770e-03
-1.547802941196094961e+00,5.754877726327346614e-03
-1.566434384355595899e+00,4.788336296274516013e-03
-1.273087441363765615e+00,-1.745053144704054315e-01
-1.186312414814271188e+00,1.816490178962361368e-02
-1.521493148256325201e+00,2.936845413510758181e-03
-1.389599321646683761e+00,2.995105454482404478e-03
-1.111735799388803514e+00,1.227561363509318583e-02
-1.855590017914627410e+00,4.667061582936731130e-03
-1.277975232163225838e+00,4.527113642460996006e-03
-1.626692286294462164e+00,3.148051964688341163e-03
-1.900529463950050735e+00,5.062077577349027857e-03
-1.850772227905177258e+00,2.135302560319830845e-03
-1.379333477786357065e+00,3.489037231813468809e-02
-1.353259515514875222e+00,4.735909270295666010e-03
-1.848441767772326161e+00,1.293335995749523258e-03
-1.767915112117795617e+00,3.706941166955974275e-03
-1.567015362592918848e+00,8.179962626703174422e-05
-1.766082443191108631e+00,4.651669103248731382e-03
-1.395517314590808855e+00,1.499430486638790409e-03
-1.818475013954547137e+00,2.738190712404633270e-03
-1.719893434484522032e+00,3.991207757330929827e-03
-1.916031112342868603e+00,-1.492728861213551451e-03
-1.423000110890138892e+00,3.613309952894739989e-03
-1.582889786258243836e+00,4.050716402306774912e-03
-1.841983388144298406e+00,5.392655826875256304e-03
-1.827184652820122102e+00,4.784717501877681738e-03
-1.752820584791763059e+00,4.084743036277177497e-03
-1.747126615267322602e+00,1.029177336606924668e-03
-1.835645572969062833e+00,2.255591677982290467e-03
-1.383137561478004152e+00,1.459865677372505603e-03
-1.535574802356086010e+00,7.653139465910227708e-03
-8.587466569218364931e-01,6.691243472628734257e-02
-4.611560331583362538e-01,6.853748912225690604e-02
-1.090366405805130334e+00,3.307994823940754465e-03
-1.392039180276584354e+00,2.102601925025981110e-03
-1.616613714361132104e+00,6.629740048083349220e-03
-1.448483395198059576e+00,4.023953576567358345e-03
-1.492632270800732242e+00,2.637702314133960613e-03
-1.330989883703676657e+00,-1.457651601184170066e-03
-1.565610381379612948e+00,1.622161068203590781e-03
-1.150420628256414890e+00,-1.921075244985522706e-02
-1.747089823052546453e+00,-2.559912700959003917e-01
-2.039567857849133858e+00,8.938658816071545776e-03
-1.640655309282906371e+00,-2.158964129425862064e-02
-1.498117266177719786e+00,-1.608328637472895666e-03
-1.535504184353290835e+00,3.219831039501100563e-03
-1.565434957179441033e+00,3.296599944111831999e-03
-1.469548997501792575e+00,6.186457153480237059e-01
-1.087073792455653942e+00,4.535099213910390170e-03
-1.422217387888901063e+00,6.052274186759992736e-03
-1.012628053543362494e+00,1.759642575536167399e-03
-1.397490976149215580e+00,5.652127716082024252e-03
-1.762247709329907819e+00,2.628075820293479525e-03
-1.480814114625498723e+00,3.904038969038134757e-03
-1.623500153010485336e+00,1.016958211729567831e-02
-1.916962355899627823e+00,2.713619090749484764e-03
-1.581574656002634027e+00,5.637187421853520966e-03
-1.706476844229728673e+00,4.196276882201662936e-03
-1.287216160635686224e+00,-1.525835220840785107e-02
-1.563590223107253374e+00,1.211992230800892564e-03
-1.843861013840458973e+00,4.020339522623266222e-03
-1.739864371613809135e+00,2.601782233262578924e-03
-1.901565996553238991e+00,2.707532915797385316e-03
-1.811494089492132309e+00,3.411937619054550112e-03
-1.825298540901674649e+00,3.779689356136620333e-03
-1.691542939073521934e+00,1.000108767752472261e-04
-1.061430918134121049e+00,6.643281623676099146e-02
-1.430492725444372448e+00,4.898668481897908850e-03
-1.390557755318411415e+00,6.324249723170203077e-03
-1.580829677573800662e+00,4.650864470694507889e-03
-1.537875979040111529e+00,3.744231031989558346e-03
-1.756205869118450114e+00,2.265138585536891416e-03
-1.855282748768668055e+00,4.724171365234349808e-03
-1.269651750928012079e+00,4.443919849489084278e-03
-1.058994969499436056e+00,-2.590079237847109361e-02
-1.580286432347985492e+00,3.164214439172662909e-03
-1.326266995397366255e+00,5.692194735958832318e-03
-1.468177893704333714e+00,-1.871606416004261905e-02
-1.712257641128569485e+00,1.638714979128935365e-03
-1.656153410593753650e+00,2.770403631543310111e-03
-1.585106117614571319e+00,3.786381461312333073e-03
-1.657511285321261907e+00,3.104666229693752583e-03
-1.862847436235362641e+00,2.865053600303304679e-03
-1.342735135804434377e+00,3.708853156556720515e-03
-1.708650847343103241e+00,4.899714376479431290e-03
-1.606132759754623995e+00,2.904310697459565153e-03
-1.269917535103492590e+00,4.387026557295703975e-03
-1.498839714212025331e+00,3.698631373118253275e-03
-1.636030581487890379e+00,7.993445031046110191e-03
-1.630552422521400313e+00,4.306198195348314578e-03
-1.634394129565294174e+00,-3.117085404376728625e-04
-1.660146015907614458e+00,3.796124837544372944e-03
-1.565440875078501382e+00,4.280292559213732390e-03
-1.888798390337552924e+00,1.562559876940716047e-04
-1.847130385570934008e+00,8.354924893954739779e-05
-1.328523659519071698e+00,3.896364039276129475e-03
-1.858591690304866484e+00,3.301988482609119827e-03
-1.901368938220574289e+00,5.378262075966121387e-03
-1.843086329642120935e+00,1.157894010120567169e-03
-1.872077953807226969e+00,2.723197191327568489e-03
-1.847464760826214247e+00,5.099534124606195339e-03
-1.965471516898024351e+00,6.285159970381021428e-03
-1.978714533073853810e+00,3.963527158982779741e-03
-1.844707085927765888e+00,3.228893105188907105e-03
-1.766541683015704578e+00,1.032073519308247117e-03
-1.619235730051181266e+00,3.803775447901476016e-03
-1.879477152384655625e+00,4.123936345429635338e-03
-1.651013364074516376e+00,2.743174302762258106e-03
-1.845593319415351097e+00,5.168992626361433064e-03
-1.810237783256311461e+00,5.414896830868555153e-03
-1.701510025936088688e+00,4.534246645680895492e-03
-1.789377648468849946e+00,3.404671462991072303e-03
-1.482066863109178900e+00,3.500698621647073232e-03
-1.971531044154245516e+00,4.790556223371585619e-03
-1.639112562688448405e+00,3.452030735016500818e-03
-1.907047097287769111e+00,4.644233520788158473e-03
-1.552218660886668822e+00,2.193365586444255208e-03
-1.900679763048533477e+00,2.886649626644378561e-03
-1.871787057969598322e+00,5.716544981435592136e-03
-1.774919893876427679e+00,2.503004135350033778e-03
-1.800295696485739505e+00,3.959010630236233647e-04
-1.793446558823334591e+00,4.037751571807530158e-03
-1.874035391323923161e+00,4.141717131719416245e-03
-1.759303622110267806e+00,3.078477511625685864e-03
-1.800646105828113575e+00,3.718057341955270829e-03
-1.705648759081884736e+00,1.325487074141960993e-03
-1.876193740682444266e+00,1.318444419581625733e-03
-1.969331924554445834e+00,5.556195461893577089e-03
-1.762258370350034964e+00,3.416300173142801898e-03
-1.655337553307164811e+00,-1.352184171702315758e-03
-1.597223396650718108e+00,1.297853019322941538e-03
-1.707530427724367916e+00,3.142418522696984774e-03
-1.641823878654449897e+00,3.821847501287528592e-03
-1.676908571210228960e+00,3.274400182516674744e-03
-1.664414226528816210e+00,4.046415692555957282e-03
-1.638071875337016703e+00,3.992843176745517787e-03
-1.779222713771805298e+00,4.101110965052712047e-03
-1.822208303080654845e+00,3.599926591903508666e-03
-1.754540999732028483e+00,1.656063625804884629e-03
-1.880056974612721143e+00,3.410504409070990589e-03
-1.474281382971531551e+00,3.407940178048392797e-03
-1.742852151162706198e+00,1.677220624894022044e-03
-1.502409050258482814e+00,3.428477769650947228e-03
-1.733916030999221647e+00,4.922899723733871122e-03
-1.851361478630830115e+00,6.758702607273959530e-03
-1.444699457551468447e+00,1.751237242352004890e-03
-1.704144752231447679e+00,4.489629273480095530e-03
-1.500924305398966041e+00,3.379109706863735879e-03
-1.461194952262319990e+00,3.545470154849006232e-03
-1.684620054256886323e+00,-1.625564582103832499e-03
-1.554551348353085949e+00,5.434219310431917700e-03
-1.854128565284482555e+00,4.087311339531760068e-03
-1.825130512576734088e+00,-2.680331819597040616e-03
-1.180351902450863522e+00,4.274258201979371993e-03
-1.626882504786484107e+00,6.006574897279550775e-03
-1.508360268302316509e+00,3.460776570051160399e-03
-1.820877619026481264e+00,4.152082522880149416e-03
-1.410131157993173456e+00,1.257306413313349393e-03
-1.469242578072273098e+00,1.880903411317393081e-04
-1.241472470482105628e+00,4.317188708978214259e-03
-1.456059599244906799e+00,2.640719935136284086e-03
-1.452451487009895903e+00,4.334356956376738366e-03
-1.707860422576238602e+00,1.188230896932352364e-03
-1.412199049382656613e+00,9.355508615722114146e-04
-1.549021042126119463e+00,7.954021989148990501e-05
-1.667409185771466573e+00,4.464356322344712608e-03
-1.803079226137449309e+00,2.743467624603817753e-03
-1.616306663122882847e+00,4.859253716098633526e-03
-1.044406949815687158e+00,1.412170543021284540e-03
-1.582922775135619409e+00,3.119828449535108628e-03
-1.646451635829897953e+00,-5.377627968161996161e-04
-9.756976927535001565e-01,2.527455132351829649e-03
-1.395659062515211435e+00,-2.476604385828965436e-03
-1.460193458312829318e+00,9.252152671468723971e-04
-1.736393933054284133e+00,-4.616784440145665219e-04
-2.015107621298413421e-01,2.386384197749951974e-01
-1.656097559910991501e+00,3.822466954869921905e-03
-1.346964738311077436e+00,2.713054037026879292e-03
-1.585517305995551407e+00,1.150402597949035793e-03
-1.970346794803955248e+00,7.065513176177349447e-03
-1.322014642330794132e+00,4.023156048694508449e-03
-1.664989193271784629e+00,1.414277264517759675e-02
-1.162740616512262681e+00,2.917954281846604162e-03
-1.472012020597863735e+00,7.910047384554717842e-03
-1.725855209392743506e+00,-2.099524764128972432e-02
-1.598087982401370732e+00,4.493417991348022320e-03
-1.736570466712165750e+00,7.632031382575677793e-03
-1.319386187375802599e+00,-3.576877156533371342e-04
-1.283849676473599377e+00,1.023737453075414250e-03
-1.235947906236943616e+00,2.554836905238448697e-02
-1.784470467363381774e+00,4.473236049224570826e-03
-9.221817293421832318e-01,-7.233604137345200913e-02
-1.233753003097784129e+00,-6.378551670962800610e-05
-1.706672599311065186e+00,3.754542931237620472e-03
-1.317809448010528239e+00,-2.475204495042027109e-02
-1.579804011610137060e+00,1.017887209180538960e-01
-1.628039042034205686e+00,-8.793780117641330010e-03
-1.848013472384348876e+00,-4.742135191953683604e-03
-1.646043136895051440e+00,3.594786834926138631e-03
-1.520521010408890428e+00,2.090328682784543118e-03
-2.052495208350157530e+00,8.519529492867260537e-04
-1.527484057282388230e+00,-1.033381049648827467e-03
-1.652986597484004561e+00,3.487070550852699492e-03
-1.835186950869103439e+00,9.770724711143270735e-05
-1.613780808757642182e+00,1.844463810766113279e-03
-1.611690356356181963e+00,2.213337585486630649e-03
-1.296261191472609431e+00,1.598835520122866491e-03
-1.498636032971179644e+00,-4.934134264591425768e-03
-1.407946695700076578e+00,6.930251690549988838e-03
-1.339406113458045278e+00,4.280488230059661253e-03
-1.567585725363270122e+00,3.934219943860354542e-03
-1.702519524858822519e+00,6.114691835800495009e-04
-1.381591452322719071e+00,4.335291409687429612e-04
-1.883784456009777397e+00,-1.001779268699741487e-02
-1.555603145268225518e+00,6.280226156979626211e-03
-1.664806323006420730e+00,1.990858272619460724e-03
-1.392633866195776893e+00,5.076552466466925650e-03
-1.441441687501110902e+00,7.282435644976340862e-03
-1.478146026984088923e+00,-1.246089380405044841e-03
-1.557474057245423760e+00,4.879222517300696969e-03
-1.531360591684510775e+00,7.925533946160443627e-03
-1.702043493160237064e+00,1.991477083325590529e-03
-1.428818308489320899e+00,3.235847201101127966e-03
-1.464720131165309525e+00,4.612759231156579251e-03
-1.194688044767326041e+00,-1.646460280265568121e-01
-1.712344311047676593e+00,-6.350795441469022154e-04
-1.671413154669282530e+00,4.909057667354663375e-03
-1.260015175514825891e+00,-4.457048915141410481e-05
-1.621738381497172421e+00,4.949597920383130845e-03
-1.602181215522010316e+00,5.860051031770134936e-03
-1.727972743112691445e+00,1.006179601008825447e-03
-1.660066251967941886e+00,-3.537663106156670179e-04
-1.481777436782298896e+00,2.273640306026026951e-03
-1.645330106233976020e+00,5.072889610627116276e-03
-1.833789064504161903e+00,5.257102765401494397e-03
-1.552545208891549233e+00,2.085812660194581551e-03
-1.414766891960492767e+00,-2.183392878560721367e-02
-1.299619861378577212e+00,-1.092967636450036147e-03
-1.652040919185073120e+00,1.356114105221691013e-04
-1.697966215797922507e+00,-1.765140830279304622e-03
-1.605779752882775524e+00,4.069644580368143166e-03
-2.029704943430003627e+00,-6.860236540138968733e-04
-3.927883748781637041e-01,-4.035095604991370544e-02
-1.966335595240334744e+00,1.428648600785424258e-03
-1.995302974869238577e+00,9.237705823418977669e-04
-1.732849236959284056e+00,2.080985236637228515e-03
-2.002780257899761551e+00,5.112318724568125361e-03
-1.390958884013310692e+00,4.883250982579792274e-03
-1.854589900722298790e+00,-4.569597971956067262e-02
-1.393028764778311723e+00,5.047106235451877601e-03
-1.273774376027799082e+00,1.907925897464504174e-03
-1.200861790151857234e+00,2.354331740627059119e-03
-1.721703583919474090e+00,5.366862305796170525e-03
-1.203915286453975719e+00,1.894656371411781309e-03
-1.479952565668126052e+00,1.288574992488151355e-02
-1.603316921965712405e+00,1.711321400449719414e-03
-1.503344702282980672e+00,6.403193920831975507e-03
-1.656127235765798122e+00,9.544326975737673496e-03
-1.365416393457842048e+00,-2.560084248144236727e-03
-1.492593480403904938e+00,-8.207407927737244563e-03
-1.593093761793694219e+00,4.944864026024984455e-03
-1.670954088723534792e+00,5.751984632337358606e-03
-1.653623824659903763e+00,1.027263215440004165e-02
-1.285718620319248995e+00,9.499247806365306718e-03
-1.219463389120566621e+00,-1.489868683104365009e-02
-1.435307030887817303e+00,-1.836354612055180260e-02
-1.080144091340083712e+00,-7.758664181306122211e-04
-1.280117632047058196e+00,6.446796651918247113e-03
-1.666004785599093374e+00,5.126417806995904429e-03
-1.428915204688676832e+00,-8.390346815447015383e-02
-1.319721300736069081e+00,-9.321180704175875686e-04
-1.565286799979378252e+00,4.154973250102971492e-03
-1.473777524258854221e+00,-1.135623551065377199e-02
-1.610268986276193415e+00,-3.644307157241876913e-03
-1.650597636796414802e+00,-3.314939712575519677e-03
-1.346372384370965625e+00,4.050207818984304098e-05
-1.467994289598231195e+00,-2.702155500109289232e-02
-1.433176060144648156e+00,-2.576279016340204953e-02
-1.415065761154022494e+00,3.521242653327913853e-03
-1.339187805365339212e+00,-1.159037776521652519e-01
-9.359529877377013030e-01,-4.262274787318540842e-02
-1.155844158216914552e+00,-1.078379662162655822e-01
-1.551073385085849132e+00,4.604571563588863957e-03
-1.382691947045483705e+00,4.520745170413553553e-03
-1.556925195310524090e+00,3.917460847158200574e-03
-1.845254227499661948e+00,7.742464635300217932e-04
-1.364822946696535588e+00,2.455354850451351573e-03
-1.628609921020111262e+00,5.249020354717739978e-02
-1.420636912208672165e+00,7.277548993452484516e-02
-1.653478912265814671e+00,1.814185285469287201e-01
-1.393702468933421645e+00,4.265427290592519599e-02
-1.260077417516861198e+00,5.286224282634354246e-04
-1.235619559023240832e+00,1.300901009313367926e-03
-1.534216558876227321e+00,2.657624128380530089e-03
-1.643666405530291197e+00,2.783243271734537130e-03
-1.565034907529344599e+00,2.569253666729484631e-03
-7.304334699901776640e-01,1.028796841074738552e-02
-1.327965588166028610e+00,5.728274409705349721e-04
-1.170728169141348918e+00,4.192493115416752805e-03
-1.511975348674296171e+00,1.582589146368413614e-03
-1.580205400383640768e+00,1.771345823920275446e-03
-1.325886080721189852e+00,1.036923528652779897e-02
-9.964014779880736583e-01,-3.127478987015112899e-02
-8.488492828353881858e-01,-5.283281550056721440e-03
-1.377327095058147544e+00,-3.740353325673126568e-03
-1.122839765255081668e+00,-3.492094561263235641e-02
-1.712288958034990038e+00,5.510547223021351575e-03
-1.351118626664249422e+00,-1.370187648736607110e-03
-1.419971337859378568e+00,2.756775136331893195e-03
-1.543214949429724259e+00,5.297570190828755285e-03
-1.548283637935182977e+00,3.121897543673269812e-03
-8.713767193981275527e-01,-1.843315437243234125e-03
-1.275667913504301421e+00,5.158066912345104192e-03
-1.680364735523145248e+00,4.185638420987314659e-03
-1.354587286248497335e+00,4.867273420814093726e-03
-1.492142065716980825e+00,2.497771416978632371e-03
-1.159284106980941642e+00,3.834026703648595047e-03
-1.572017507467718067e+00,1.277417889279238578e-02
-1.369432684938029166e+00,-1.443306835177445568e-01
-1.174332917480459981e+00,5.621684065443652289e-03
-1.535383649032120434e+00,2.330582576062238155e-03
-1.436623765875757908e+00,3.945652149223339428e-03
-1.552316415557366991e+00,1.992901325422784600e-02
-1.210675135758371601e+00,4.018864748561112865e-03
-1.264288803823850893e+00,1.792529876408810278e-03
-1.156054732816378383e+00,5.694217008656871082e-02
-9.137474442230314464e-01,2.270362969960940461e-02
-1.580148643516962048e+00,4.539220946439767763e-03
-1.194584821245104900e+00,-1.076329400262209246e-01
-1.133823510666311263e+00,3.009723810818047424e-03
-1.679943751671236774e+00,2.716146705948796827e-03
-1.561827531015538062e+00,4.487942861123183150e-03
-1.605776206855283439e+00,3.591019570428264501e-03
-1.448317276758082306e+00,2.125243642626653030e-03
-1.284839903569222619e+00,2.730461995033984027e-03
-1.000996889842198145e+00,1.037072658602736144e-03
-2.057135152836369496e+00,3.164281595004143736e-03
-1.275766011300010661e+00,5.960633043227299248e-03
-1.354002714407676056e+00,1.892130050927197035e-03
-1.267785459570668571e+00,3.614615861116216369e-03
-1.093988362253635271e+00,3.648025842958310411e-03
-1.192319138272460277e+00,4.370134112422834408e-03
-1.565358206118816931e+00,4.883073879695365091e-03
-1.316787714505350815e+00,-1.123022927627648562e-02
-1.501062896919860945e+00,1.352233798616323673e-03
-1.335992456753109403e+00,3.367689123390158433e-03
-1.678838751704094800e+00,4.733228421771111007e-03
-1.759477577448709917e+00,4.559992490392877039e-03
-1.652470561164795848e+00,5.792343712239730880e-04
-1.684943707627525544e+00,1.694320099635058044e-03
-1.354147637239764501e+00,1.896512356109308212e-02
-1.700970607223279085e+00,2.814242430647298857e-03
-6.319635490282680124e-01,-5.228251156886479234e-02
-1.709126946039498884e+00,2.597557093467780728e-03
-1.405429434396771038e+00,-4.990620623390113267e-03
-2.038439332739410581e+00,2.471750876522598415e-03
-1.789071476786515680e+00,-9.683625082963324970e-04
-1.759177515416946891e+00,4.314861620074008329e-03
-1.762186308070265328e+00,2.552700861441166424e-03
-1.610847497499191316e+00,4.260173264790020550e-03
-1.667079581381388564e+00,3.198864429365512810e-03
-1.586873659064333308e+00,4.866410370290918420e-03
-1.797933478438924926e+00,2.368695428860530076e-03
-1.839561812108163164e+00,2.215186510357596526e-03
-1.508287262586406552e+00,1.319092267697131830e-03
-3.938293300420603882e-01,5.889234294534239494e-02
-4.194223358639140309e-01,-9.098429594698875106e-03
-3.075944259457905616e-01,9.010009079107060559e-03
-8.288461661720025742e-01,3.635196219335936479e-02
-1.181409755126839878e+00,4.221155345099716905e-05
-3.516991028882651693e-01,-3.318802432677716435e-02
-1.729862307854671544e+00,3.644969347914250000e-03
-1.234721737318364099e+00,4.677574414896936567e-03
-1.607804151867345821e+00,1.096883068576723699e-02
-1.131773005707892521e+00,-3.078050945786117362e-02
-1.624108599257461094e+00,3.614409178240221912e-03
-1.498364731713619058e+00,3.012064031654492456e-03
-1.447785369070407224e+00,2.484504086019682922e-03
-8.969004638281439235e-01,-5.714753799135753598e-03
-1.544994634983495985e+00,2.836077151132707259e-03
-1.146689586944581896e+00,3.913115220529258045e-03
-9.233165132843269562e-01,-3.292042790948759845e-02
-1.319130559804597036e+00,2.328977073585214094e-02
-1.565740734089549058e+00,-8.651465255682310937e-04
-1.119715330235828255e+00,4.514108534608249346e-03
-8.469485043759720222e-01,-1.649184106226124491e-02
-1.372431612877712759e+00,9.237197313620342312e-04
-1.626252108528651874e+00,-5.688973901493668550e-02
-1.518161775177910178e+00,1.604577229888995774e-02
-1.617512694915474780e+00,2.748332140855756778e-03
-1.786243295980072476e+00,2.350935480529461885e-03
-1.657012844716223787e+00,-1.447176343421031734e-03
-1.773544795620334291e+00,-3.416945525890520592e-03
-1.644897268829749848e+00,4.217180731999427279e-03
-1.666386728386632265e+00,1.044892163519181572e-02
-1.610793771082901449e+00,1.678704164668211839e-03
-1.560171384891578361e+00,4.511686778957196484e-03
-1.754136337739782059e+00,8.184973321860812209e-04
-1.702341828388193035e+00,5.015430497698607562e-03
-1.457148056256459601e+00,2.549803845146326846e-03
-1.381116154901814497e+00,3.856172443594083933e-03
-1.371629281082954011e+00,4.148000232708235271e-04
-1.890999567829559469e+00,3.937194825215337667e-03
-1.779146884781351412e+00,-3.965908786699411104e-06
-1.365047305543664269e+00,2.867317068802655716e-03
-1.602305282458966085e+00,2.748430676069789184e-03
-1.857315081409630420e+00,3.886162178488483838e-03
-1.868758620620224464e+00,3.562650199776574295e-03
-1.972188492448573527e+00,6.775763723411933406e-03
-1.732922483167714134e+00,2.717033403556583758e-03
-1.722600607184936683e+00,4.014494882500826284e-03
-1.986665266652398065e+00,2.941581490500539027e-03
-1.744877041006742235e+00,3.404871098636115187e-03
-1.653638831626908612e+00,8.253195631892007098e-04
-1.758685140369880218e+00,6.884905077298377959e-03
-1.843519928999973967e+00,2.642737520704118749e-03
-1.855411593795063929e+00,4.883492972927712915e-03
-1.874644834024674411e+00,5.219092796831759258e-03
-1.683542835656202108e+00,7.156001967209649553e-03
-1.738507775149962686e+00,6.845199810919314933e-03
-1.779844092527508526e+00,4.686361669452255782e-03
-1.820744915129240082e+00,4.495859704919053304e-03
-1.774346609896963356e+00,4.435330003779594174e-03
-1.565877501335281252e+00,3.966501251334211137e-03
-1.908728787325937315e+00,6.327052499166412741e-03
-1.736636026413147293e+00,4.869265534467669132e-03
-1.785123261419572893e+00,3.023824790492696084e-03
-1.822889303242825054e+00,4.853002897931296515e-03
-1.707129299960540303e+00,5.667616571501096767e-03
-1.565523338731275471e+00,4.761233521103205857e-03
-1.754599348916372037e+00,1.221960728933237789e-03
-1.613376561716944435e+00,9.126001791528681045e-03
-1.607308352196323842e+00,1.578173288031540014e-03
-1.759083887479369279e+00,4.167928401325768188e-03
-1.762790313132497122e+00,4.375658082113592987e-03
-1.847230701476376469e+00,2.064426577958326445e-03
-1.623689770294846735e+00,3.025472411080477354e-03
-1.821108067090933424e+00,-2.751580576980288198e-03
-1.729200870587246142e+00,3.689867031459302497e-03
-1.998381191510194999e+00,2.974909483998569061e-03
-1.947053817585488122e+00,3.810443286653922117e-03
-1.965446826761235277e+00,1.545563926239013237e-03
-1.799781690222962860e+00,2.008531862555200907e-03
-1.951831955949313580e+00,1.270185329158787964e-03
-1.828961223561934801e+00,6.322221993229281203e-03
-1.563048234051869434e+00,2.589728611107261491e-03
-1.643616064938497878e+00,3.685813994821217181e-03
-1.817329527722312932e+00,3.603776305521291801e-03
-1.950982513250636430e+00,3.259974622051279962e-03
-1.649704731896355803e+00,2.331358698313828158e-03
-1.842445942667504388e+00,3.080287800808984358e-02
-1.775634651273016562e+00,5.617868222479287417e-03
-1.764073444179510286e+00,1.087855438466128755e-02
-1.919102127475970976e+00,9.703789173889747210e-04
-1.858349238189002328e+00,1.993559095009562500e-03
-1.750278796048176266e+00,2.787373252930427578e-03
-1.836714229638179763e+00,1.861586516640032982e-03
-1.812363880265834393e+00,-1.126843403365444113e-03
-1.723748115776204015e+00,2.966569029675210703e-03
-1.668581440612874278e+00,1.049545994660748549e-04
-1.423924170713794624e+00,-8.371261438926533294e-02
-1.617447162641509228e+00,-2.890466509541255238e-02
-1.459879294001969807e+00,-4.895660244148165169e-02
-1.459796020035641462e+00,3.704685429504999371e-03
-1.529184862312671811e+00,4.793071233388494085e-02
-1.592555244239413970e+00,-1.959696671739466489e-02
-1.609584819125270849e+00,-1.243823781013078146e-02
-1.335887036864775279e+00,3.596820372459870810e-03
-1.053829786077586483e+00,5.049570017097970362e-03
-1.183653160880633104e+00,3.478418293817530250e-03
-1.084085956146510599e+00,5.712275132648310036e-03
-1.478490209510187281e+00,2.658842455635440638e-02
-1.487862351336356914e+00,1.127897174955472953e-03
-7.963492106023131178e-01,-1.275886078727569116e-02
-1.299291012781587984e+00,2.803688287055053699e-03
-1.561521396230418413e+00,-1.021655002474273523e-02
-1.046493096849606230e+00,-2.168153973188278183e-01
-1.583901297260142949e+00,3.152578558437169401e-03
-1.633491895654801684e+00,4.663659181028042937e-03
-1.103778016488337288e+00,1.029993993559875747e-03
-1.278894395532900186e+00,1.816277043259921509e-03
-1.556800350994007376e+00,5.887549229195949280e-03
-1.474062318966784080e+00,5.020095526637209128e-03
-8.343048706846212248e-01,8.268391661248836177e-02
-1.180582521394468953e+00,1.214195531253713517e-01
-1.556437196109345056e+00,7.490580460545064913e-04
-1.529245659780878341e+00,6.564240999086014272e-04
-1.333392506776941433e+00,2.166358022175072714e-03
-1.138516335591317041e+00,4.060355545353096923e-02
-1.497714856415946594e+00,2.209886946121485292e-03
-1.445576684243537358e+00,5.922441064091868608e-03
-1.116607431692009822e+00,7.695063712463316025e-03
-9.760772034155186239e-01,-3.703782086391881750e-02
-1.286801614928909210e+00,2.800614354048582694e-02
-1.673801446997432274e+00,6.047114434107669217e-03
-1.303889721902194321e+00,5.558719764963977739e-03
-1.673273344393907180e+00,3.419833779616788388e-03
-1.146186318494623047e+00,2.873538451839401098e-03
-1.357194889106815738e+00,7.403909413444026595e-03
-1.065137500830484862e+00,3.091500970455442893e-02
-1.305654185227800967e+00,1.055717005749594838e-02
-1.353305550417973846e+00,-2.032117933803099380e-02
-1.116630188473167751e+00,4.370271118479540640e-02
-1.014178374899115331e+00,1.307052786005404553e-02
-1.402097483752448026e+00,5.621298399532435180e-03
-8.760930858073550098e-01,5.522842675963288844e-04
-1.518435781135863971e+00,3.319315541216607754e-03
-1.198615550575742095e+00,2.098961847681597541e-04
-1.684789041151853572e+00,2.791366181454069638e-03
-1.383775557793460287e+00,4.872323955827326594e-03
-1.615021519990187393e+00,3.196966522513596497e-03
-1.498002743671406289e+00,4.032650998500900488e-03
-1.738575697162267675e+00,2.277931313202439211e-03
-1.209495655456963803e+00,4.346218158720847879e-03
-1.309136328026681895e+00,3.447011976354325338e-04
-1.586817514441395849e+00,-8.489863443540880683e-02
-1.829221920320779793e+00,5.680744080272300683e-03
-1.777400625993831085e+00,-1.263735911558986486e-03
-9.446045692346137779e-01,-4.979021109444158044e-02
-1.624458970796320179e+00,3.821960722705066045e-03
-1.517305903774579301e+00,-1.748826504805201243e-01
-1.572968979176657678e+00,5.573940915402172264e-02
-9.443392241908287188e-01,-1.516500154376297926e-01
-1.399359554386758520e+00,6.371757771332046440e-03
-1.582501886108508726e+00,5.586433458538077323e-03
-1.518467390086625457e+00,5.307492226150773915e-03
-5.959719389040184501e-01,-1.283205249829625083e-01
-6.331835413433964388e-02,-3.280685647902965574e-01
-7.478399185345818712e-01,-5.707209788921281390e-01
-1.730472123740673940e+00,2.918166993626815017e-02
-1.686382168220099009e+00,7.776187285570201543e-03
-1.940871493107042767e+00,5.175032869394051958e-03
-1.805763997403539323e+00,3.208608736495419285e-03
-1.469586963678223501e+00,-1.033028098201662845e-02
-1.927324738687236305e+00,2.218752391288301290e-03
-1.877256434012291475e+00,4.856614993678409070e-03
-1.709700510272713192e+00,1.342865121501586601e-02
-1.474076885035109585e+00,3.204265919327374187e-03
-1.701746483451205938e+00,4.118125739434281424e-03
-1.787600821377109961e+00,1.398862072331056618e-02
-1.675188278892315141e+00,1.914331460078521827e-02
-1.755932601036158225e+00,1.450528548070513166e-02
-1.693526646841324368e+00,1.214732908268036787e-03
-1.917596897691486113e+00,3.956377952867422623e-03
-1.541514947922770107e+00,2.952669550653186023e-03
-1.734380325620034302e+00,5.154372893034749048e-02
-1.607373502565255796e+00,-9.427735546518854065e-03
-1.432052763832702968e+00,5.379833357279170322e-03
-1.463053104144298011e+00,5.994918522985102395e-03
-1.366628814419187599e+00,-4.713773122777081825e-02
-1.546374877429645300e+00,9.499494724476692867e-03
-1.275217436144066907e+00,1.195814399081750537e-02
-1.448674782522364701e+00,3.717266751409246256e-02
-1.532966415097128055e+00,4.302685639190379115e-03
-1.331105004646637280e+00,-2.660722100970752124e-01
-1.324651079103966511e+00,4.326857233236401472e-03
-1.746891210078572287e+00,4.475422609023890080e-03
-1.380871290320589528e+00,1.670497671308123627e-03
-1.533118728422981691e+00,-2.489751201022761748e-02
-1.605057734344164100e+00,4.910901118695578174e-03
-1.755437927658978658e+00,4.027248106690749750e-03
-1.799347482943756127e+00,4.291871084915094108e-03
-1.616968793042027119e+00,5.433500598888219707e-02
-1.258151177278033384e+00,-4.999524951237224041e-02
-1.363562288132345257e+00,3.640616100603785016e-03
-1.302169452754141199e+00,1.058402864170269152e-02
-1.717382125821091066e+00,-2.386340125887629997e-03
-1.716128465310996276e+00,-2.476299558176998580e-02
-1.355066925713735770e+00,-4.000004563023511206e-03
-1.910899612197007436e+00,1.901055713901744770e-02
-1.767089349736910453e+00,3.430413458515606771e-03
-8.133189585792540699e-01,3.254963549407624002e-01
-1.850691273934704784e+00,1.366447791230060438e-03
-1.715179902941433188e+00,-5.076258297069404651e-02
-1.753553977730945013e+00,1.764732404023039089e-02
-1.905033317852791619e+00,3.371516100781042982e-03
-1.813702443232835471e+00,5.704317310296904038e-03
-1.552220489715013585e+00,4.260870383403267403e-03
-1.782235019582268709e+00,5.614642833421373130e-04
-1.875185925614988092e+00,3.153414709757363342e-03
-1.541136545674164138e+00,8.875669146912517835e-04
-1.800857984587318050e+00,3.607129768421006230e-03
-1.859481642310038429e+00,4.102925157053752270e-03
-1.832120528398428094e+00,2.810104168837557551e-03
-1.844673927815552172e+00,2.489488642628633237e-03
-1.987405604949902260e+00,2.109116359250986887e-03
-1.614671958449353184e+00,4.111955175128266526e-03
-1.816801648555091964e+00,6.551600533817043825e-03
-1.744722076647331699e+00,1.020957327193098424e-03
-1.775860419760189934e+00,1.636155748687390110e-03
-1.408137268348224724e+00,1.805882706296869922e-03
-1.793757764169943814e+00,5.929318937776597957e-03
-1.768332056162711163e+00,4.084835532439359297e-03
-1.320406995427825247e+00,3.361385736716009966e-03
-9.637031617815187134e-01,3.271689222852103285e-02
-1.069037029234455538e+00,-8.540120866415067125e-02
-9.292744543112307909e-01,2.736276807618094331e-01
-8.406848435614114878e-01,-4.863083821310763138e-02
-1.393584597375617351e+00,5.802621559132976892e-04
-1.729531711470733146e+00,7.772342494442894406e-03
-1.132875908175903668e+00,9.353740412763791173e-04
-1.729083182042597810e+00,4.048026922251292403e-03
-1.335252160292947021e+00,-2.299856729482364567e-04
-1.448312674729327565e+00,5.764652858199154420e-03
-1.420514118561727379e+00,6.657803611908475611e-04
-4.702075442380686532e-01,-2.642903216305445002e-01
-1.331253745753032458e+00,3.904064467242210693e-03
-1.415734710766459958e+00,5.889644069890135648e-03
-1.387715071577100057e+00,-3.614117272652231372e-02
-1.077859053470995976e+00,-1.900758680342735235e-02
-1.526932967969252486e+00,1.297656419831165475e-02
-1.177543964001209753e+00,1.070746054548662052e-03
-1.647395150924560570e+00,4.600438406398798391e-03
-1.479293094298271827e+00,5.259440155317570212e-03
-1.727503128992745607e+00,3.225878459975266808e-03
-1.018246305785686312e+00,4.834365981631815086e-03
-6.707525798368020320e-01,5.538533568188203082e-03
-1.432852493593015808e+00,5.026975471492252726e-03
-1.596657191776649221e+00,1.239760994200926787e-03
-1.628398010696678666e+00,-4.890473160418321724e-02
-1.637929795668786603e+00,3.991396406384658917e-03
-1.618132243371795287e+00,3.756598452386210839e-03
-1.863027674811636114e+00,-2.909327884004593232e-04
-1.334472053642061118e+00,2.594482839253228409e-02
-1.485695594493313454e+00,2.488284790007495514e-03
-1.653347291511595651e+00,5.063990655130882687e-04
-1.404546437915549451e+00,3.248451402473884198e-02
-1.669185913716728642e+00,3.952970282514838007e-03
-1.176908170766519213e+00,-9.482808581319726593e-02
-1.678260636575255482e+00,-1.760410744403593034e-02
-1.427563256256106472e+00,1.147317973617664917e-03
-1.600555013890720302e+00,8.256264020600465048e-03
-1.307258908367674888e+00,3.679284718875802315e-03
-1.833696131008794694e+00,1.272785462649634117e-03
-9.772242305660052697e-01,6.567718612983426685e-02
-1.726131090663943102e+00,1.277794224517058222e-03
-1.589313353099295556e+00,2.534582384634026520e-03
-1.742653353475202449e+00,3.214057499497782744e-03
-1.561396998121098667e+00,4.001762964115591903e-03
-9.521816058027030572e-01,4.912079606616226446e-01
-1.410875484275220693e+00,8.822850467223555121e-03
-1.665547743309619300e+00,-1.481822992689401861e-03
-1.446924743011095638e+00,-1.289804236108239854e-02
-1.550357679162914337e+00,2.667034880596614276e-03
-1.597334977988690952e+00,3.821116965163579536e-03
-1.303221826070116496e+00,6.966389380849944378e-03
-1.700676211129197757e+00,-3.678553349549082419e-02
-1.208778785607934614e+00,1.486301549033690675e-04
-1.288739113691034888e+00,4.441151960871024193e-03
-1.529727190690060912e+00,1.355762752127444466e-03
-1.360117149000819703e+00,5.651611950726651012e-03
-1.465842264640859760e+00,3.202782592332761337e-03
-1.496287246364220724e+00,3.734781543348160253e-03
-1.307549058888975324e+00,7.746024524466979533e-02
-1.068130768751047066e+00,-7.007878238175306584e-02
-1.655009839083606993e+00,2.999663888637085427e-03
-1.397651624650016577e+00,1.132351386988423442e-02
-1.612663594456603233e+00,4.371606762491911727e-03
-1.548708420004539565e+00,2.190708977950016345e-02
-1.428500003465296375e+00,9.772698244955553906e-03
-1.538197146151996320e+00,5.259572124537281214e-03
-1.480051157276646379e+00,5.303277067839955172e-02
-1.221284290440850517e+00,7.220651850453987421e-03
-1.664465990734070200e+00,3.187411103683064975e-03
-1.757407406357360369e+00,3.766795349385839570e-03
-1.452061799468206793e+00,7.691827164883584256e-05
-1.378850311698555320e+00,8.209728878694278267e-04
-1.653819187717264105e+00,2.150229298322003414e-03
-1.571014110530625674e+00,-7.606887403403591458e-04
-1.642160203208118396e+00,5.717513305049178214e-03
-1.534586877418111062e+00,4.283186795753755882e-03
-9.254402789323864509e-01,2.457305259178748248e-03
-1.601810019447473588e+00,-2.532989546242507203e-03
-1.764968696670441872e+00,1.740662609310572595e-02
-1.543145889682276062e+00,3.024680163678965424e-03
-1.680525033209698149e+00,1.712631113883682048e-03
-1.278313937804904654e+00,4.772713470935814259e-03
-1.481646680734316046e+00,6.521627063359766545e-03
-1.740644206512012904e+00,-6.071728864375089060e-04
-1.549144391880186600e+00,2.273831532572641832e-03
-1.600727436419862260e+00,-2.195041950538116973e-02
-1.847652050131979973e+00,2.431500927332259226e-02
-1.563804209445837978e+00,-2.443335471105180512e-03
-1.479760633999347874e+00,2.751964269390164662e-03
-1.425961633908501280e+00,4.678317052036535216e-03
-1.039138474685913804e+00,4.729013088245267449e-01
-7.830699794756373899e-01,-3.551578270879200694e-02
-9.623058045685265460e-01,1.371184304600312487e-01
-1.222553197268894776e+00,-3.645324063063279559e-03
-1.273541277919131076e+00,1.064345309938843909e-02
-1.456213376136858750e+00,4.144047229924991901e-03
-1.699683427201152730e+00,2.079835484249505442e-03
-1.237407879836460056e+00,-2.427306744031399593e-03
-1.309777258500505859e+00,1.419116490767361252e-02
-1.411281625829924335e+00,-1.324431099493098563e-01
-1.011188972384538642e+00,7.186114634645227386e-03
-1.387430288816194013e+00,6.196375858945051864e-03
-1.289782493065691815e+00,-1.219245798101669699e-03
-1.546438966521020086e+00,8.250718060878507731e-03
-1.129109364628812617e+00,-2.136472491579320589e-03
-1.493967642534275830e+00,5.528543930922446246e-03
-1.363851997607719690e+00,-1.803453224261933330e-02
-1.307378901379824265e+00,4.141465411735928762e-03
-1.310690347883890494e+00,-1.425944340356124704e-02
-1.462659251371532187e+00,-2.546968488957171428e-02
-2.123811384819550563e-01,-1.840838063616818260e-02
-1.523019414452760012e+00,5.983911188987729723e-03
-1.065001873287071188e+00,1.860134085392596906e-03
-1.414475900925159069e+00,3.851075281282391287e-03
-1.500162078096777707e+00,8.663813250553303175e-03
-1.153879648581689343e+00,-1.716494806011920893e-01
-1.195358189727236953e+00,-7.309945916261625584e-04
-3.151856181860930584e-02,-7.855114358682062370e-02
-1.507223158485819559e+00,7.164175562662309163e-03
-1.183562478141846119e+00,-1.205990374048995784e-02
-1.509603691193870389e+00,4.370937403671369681e-02
-5.211049957617578388e-01,1.715215588583564044e-01
-1.673825152236558589e+00,5.697458688425294931e-03
-1.426342175446142502e+00,4.753082648911174414e-03
-1.126765415056918407e+00,1.691637631983965717e-01
-1.607203818162019626e+00,9.527510061920780454e-04
-1.561674784355660872e+00,2.481686177593213707e-02
-1.693976359710112511e+00,4.953547851230413399e-03
-9.695130506193478936e-01,-2.307697538667283915e-02
-1.359524428406290619e+00,-4.038019395684952148e-03
-1.320205304777975153e+00,9.498183212077447937e-03
-1.000527226527446301e+00,-1.065580213602528373e-02
-1.168177389137421196e+00,-4.471383104748675730e-01
-1.380887410524615388e+00,3.829023775480638186e-02
-1.281896748972836564e+00,4.193342677216396058e-02
-1.213254258967896293e+00,4.938774978070530758e-03
-1.137458020969811301e+00,-1.061246859380933216e-01
-1.370295830165886741e+00,-1.671710475980586474e-01
-1.637138244730993675e+00,1.362081371387909544e-02
-1.666394072680197791e+00,1.891679056019247678e-03
-1.332039305568520238e+00,1.709245620046870862e-01
-1.382284648610145661e+00,1.001824022892918928e-02
-1.251924650998501587e+00,9.366659660804139975e-03
-1.329976192328343521e+00,6.308046149745895684e-03
-1.745479649458778315e+00,2.108546354568633773e-03
-1.487373200346883362e+00,-4.224615045120061474e-02
-1.719926340238083773e+00,4.958557497170642918e-03
-7.944570265338123383e-01,-1.119443725473025647e-01
-1.535878536144992701e+00,4.180110295061348520e-03
-1.065690741834485200e+00,-6.666822081682366799e-03
-6.460393166547625521e-01,-3.982137755420992464e-01
-1.254104715013475202e+00,-8.849507019184988180e-03
-1.248871462098068763e+00,3.540644148039013249e-03
-1.376437841426485731e+00,3.368131543210601403e-03
-1.427372950597223911e+00,8.354005264587668900e-03
-1.093345534852342205e+00,-2.058772731957721203e-02
-1.229526039059810616e+00,2.563766105652753782e-03
-1.296593990072326452e+00,3.976623146098402783e-03
-1.513846047634680225e+00,5.978954680465559633e-03
-1.152543264140847290e+00,3.109040214807913191e-03
-1.248503946056309211e+00,4.047452489154061001e-03
-1.268151619490275328e+00,-1.200266484549333407e-01
-1.219235404275863965e+00,-2.658705360880510293e-03
-3.178683762133116542e-01,-6.781152472398205289e-02
-1.121804249094845440e+00,4.774238217917971955e-03
-1.155356382687358741e+00,-9.026226192359643880e-03
-1.535100545145712925e+00,1.108833341438168404e-02
-1.141078330163029841e+00,3.056855509037491661e-02
-1.748286989651583356e+00,3.108030621515952066e-02
-1.621965658541610011e+00,2.062630156283571173e-02
-1.795975370794851589e+00,2.177732404187320697e-03
-9.681097424315249222e-01,-1.218581074005793685e-01
-9.373134730402953307e-01,-2.288837493394386621e-02
-1.311128202117706421e+00,7.664677512404508529e-03
-1.207808174911589427e+00,-3.744961857896169678e-04
-1.458083644605770113e+00,3.028084062381392397e-02
-1.241739492663375133e+00,4.633111799172567186e-03
-1.658431555197112495e+00,1.490039650937026450e-02
-1.638745370526471401e+00,3.098209739565144574e-03
-1.529538301327898253e+00,7.909596218564672945e-04
-1.653381122278039017e+00,-1.259741275461543318e-03
-1.563743536274619483e+00,3.083791970334058899e-02
-1.170823252899088951e+00,4.275462007741310036e-03
-1.474472570403208671e+00,1.472820091299370526e-01
-1.363609584446203504e+00,-1.624474145038168338e-01
1.664125441091801050e-01,2.732188126645431758e-01
-1.868736990870474957e+00,9.241308515464277673e-02
-1.662987533947317909e+00,1.218824023701277695e-02
-1.610565661540701798e+00,3.920150324680171487e-03
-1.728108035629586592e+00,7.437064297203327227e-03
-4.427403599028103542e-01,4.685443123122247089e-01
-1.615995951612171980e-02,-1.015806383365953081e-01
-1.303160444857107692e+00,6.418169983180032657e-03
-1.047975877794766308e+00,1.320537904201279922e-03
-4.879812007965367293e-01,8.302318762950021414e-02
-1.093560151194947094e+00,8.421881821925850109e-02
-1.773085949041879994e+00,1.580908584375774820e-02
-1.418838609558240815e+00,3.683537600104479746e-03
-1.663905329398633004e+00,1.097932047192674496e-02
-1.666284908714534385e+00,4.386615310415845764e-03
-1.673277227526329680e+00,9.569265135177101866e-02
-1.412344564580584327e+00,3.025290301188489628e-01
-1.390640621449088066e+00,1.573507831174965343e-02
-1.206938550669260257e+00,6.734508151663619324e-02
-1.073365040120347169e+00,4.533178630662475055e-03
-1.463214457426770698e+00,1.052954995466348284e-02
-1.467798901001309497e+00,5.063391794492644836e-03
-1.582045119376168651e+00,-4.280099494998916738e-03
-1.346655221680886472e+00,3.331194083608611349e-03
-1.221113524442519305e+00,9.458114307390321635e-03
-1.419786862039020603e+00,8.381652411349532414e-04
-1.250872647795117309e+00,-1.670480040824476320e-02
-1.462122203422569378e+00,-7.208014709962715788e-05
-1.517764503949672772e+00,6.164127981422538871e-03
-1.320747546261363592e+00,1.170549569455536440e-02
-1.666400049258371929e+00,4.609307465876535947e-02
-1.534254690374215579e+00,1.108574109968162580e-01
-1.454054752217108337e+00,-2.130282438385111832e-01
-1.058756349874293123e+00,-5.327161909744625862e-02
-1.417320646830096953e+00,1.100910645214741440e-02
-1.739419951643428552e+00,-4.787891865879677702e-03
-1.653940870050645273e+00,1.008553110299579419e-01
-1.541552342619128657e+00,-6.402678961057121920e-02
-1.023484371682260807e+00,5.422829711655592633e-04
-1.019551873090027483e+00,2.727192154106479194e-01
-1.149081630699294365e+00,7.491915018390596370e-04
-1.031553494912970770e+00,2.098819820767234418e-02
-9.304998102285145789e-01,-1.827774919865699302e-02
-1.495783534648407853e+00,8.315744774092855701e-04
-1.594174627048492887e+00,-1.868288304873799016e-02
-4.177853442286130758e-01,-2.025650089361686890e-01
-1.531382080487001085e+00,4.587917893802183691e-04
-1.437461172333891257e+00,-8.646603032502762909e-02
-1.773247203546668649e+00,2.727099277381525924e-03
-8.903445322422164354e-01,-1.354910786720303073e-01
-1.655811911313305185e+00,-1.156760124753812569e-02
-1.479599832318917674e+00,-3.378235867450014862e-02
-1.537798560731248987e+00,1.185271669786314985e-01
-1.480930616628474805e+00,-1.913212636745775103e-02
-1.506178277170621582e+00,-3.403518800632595286e-03
-5.214751819888930884e-01,3.770836871726714334e-01
-1.122562255487620897e+00,-3.547369348151414165e-02
-1.652693928654034972e+00,-1.560445575021889844e-03
-4.844248406911497717e-01,-3.611965994119273882e-01
-8.126533441663261748e-01,-1.252801609904367064e-01
-1.290577664457304152e+00,-1.993614078415165136e-02
-6.139691338621601213e-01,-2.657693223469020372e-01
-1.209633728733569669e+00,-7.346732013688808682e-02
-1.745619230952750955e+00,-1.243464349195974733e-01
-1.503141425516135277e+00,8.381265784171483546e-03
-1.426343557520369787e+00,1.702201980933011893e-01
-1.282267009136584646e+00,-6.378518818291090131e-02
-1.738071472901466796e+00,3.782382313579756711e-03
-9.303962945800340334e-01,-7.058406903527682068e-03
-1.856945544395376624e+00,4.390938907379208708e-03
-1.831162683961824689e+00,1.078687425564728297e-02
-1.852152479087310510e+00,-2.095649542339767489e-03
-1.486164658882227707e+00,4.920762770779933334e-03
-1.605594669409978081e+00,2.045927241894171175e-02
-1.151076635625184030e+00,3.613113515837198305e-03
-1.363095098424375928e+00,-8.976315969840778508e-02
-1.325115178566583118e+00,3.111324340174281486e-03
-1.361170911652605842e+00,7.184505974450890523e-03
-1.256013282661660124e+00,4.131555849472667852e-03
-9.473783357556839757e-01,2.201564289839980613e-03
-1.332927793057419041e+00,1.124319355207383832e-02
-1.196134598634248869e+00,4.624319846548504039e-04
-1.359948579792106038e+00,-1.024176692961412116e-02
-1.413305894443320776e+00,1.916321197723227510e-01
-1.831457678776988063e+00,9.612585507565128695e-03
-1.610854675750456488e+00,1.181182756499534262e-02
-1.296830776512752026e+00,-1.515290791799120060e-02
-1.691788194291819813e+00,3.611771192878391809e-03
-1.058423898498468851e+00,-5.257309704772110404e-03
-1.397454481057265996e+00,4.403207834268838168e-03
-1.664712182361260506e+00,9.046399106045124178e-04
-1.736179845054320658e+00,-8.582516038264757785e-04
-1.523998979564427758e+00,8.857775875449214881e-03
-1.854082768324128550e+00,-1.223139497579691856e-02
-1.592409305264909092e+00,7.086273094306958648e-03
-1.491798167060154778e+00,9.652987760997348843e-02
-9.118747223499301668e-01,9.829646833565800629e-03
-1.459118189820547418e+00,3.108199609790371701e-03
-1.310786309495711732e+00,-1.222644724918733536e-02
-1.324742535888134176e+00,7.018893585662272158e-03
-1.435561971681838411e+00,1.118747957784214583e-03
-1.624033349742314281e+00,-1.292624433248571771e-02
-1.662108558077993958e+00,-8.320159515597606859e-02
-1.544547011306483641e+00,3.865880841425656939e-03
-1.637839135691063763e+00,-5.247253636785640177e-04
-5.743693378342221711e-01,2.052054507971195207e-01
-1.725575013313546791e+00,-1.138240680137916905e-01
-1.644735606590597143e+00,4.160047319999495702e-05
-1.583263209794679938e+00,-3.180542774094465789e-03
-1.677923168239618512e+00,5.086825553264277822e-03
-1.399658585823087220e+00,-5.900576308796799674e-02
-1.883491678991025653e+00,4.414960523982236831e-03
-1.486433191582001934e+00,1.277378878002125295e-01
-1.631756384440552932e+00,-3.674721975119690093e-02
-1.868970634125196817e+00,7.268554100076178581e-02
-1.366510967588688397e+00,8.159831795171236524e-02
-1.598623714594665790e+00,-1.799142161105083543e-02
-1.786468413371971042e+00,4.352649676416965943e-03
-1.408767259215959911e+00,-2.753920553902375334e-01
-1.658084125602758974e+00,-4.326559481251269525e-03
-1.437236493256053294e+00,7.449958016275843101e-03
-1.178253619382864770e+00,3.099168199355770703e-01
-1.295866517864398215e+00,4.933420115625244962e-02
-1.422695116698158513e+00,2.941173450960937914e-03
-8.284477187154605238e-01,1.109492873423810061e-01
-1.465099068832966367e+00,6.620284097908431947e-03
-1.082925232798139792e+00,-1.947063420628335553e-02
-1.374072199960910901e+00,2.048089523971246065e-04
-1.490353597216252490e+00,-2.738984060639640394e-02
-7.551366968083378373e-01,1.841505651482959749e-01
-1.183628746535495102e+00,-3.837866065830985995e-02
-1.169769563456115602e+00,8.790570032152243696e-03
-1.136498854558686933e+00,7.026484148126515769e-03
-1.340031276573250052e+00,-3.791114545566012795e-02
-1.144966172171834273e+00,9.452124183245844830e-03
-1.026009938376234887e+00,2.079552884108848976e-01
-1.018564381885832537e+00,4.011216479282632419e-03
-1.365614468666075387e+00,1.735696134091313514e-02
-1.625159670407251733e+00,1.914318895454960971e-03
-9.758175500707516603e-01,-2.154510841703112523e-02
-1.038082350765185069e+00,3.501776349093339846e-02
-1.446255162792220217e+00,4.561503213063337545e-03
-1.002911979996986336e+00,-1.199789229341563096e-01
-1.541144359049490875e+00,1.686288250234384278e-02
-1.247146114408665962e+00,1.669525236813334396e-02
-8.921563375706829113e-01,7.448787217237810843e-02
-1.322479798468607637e+00,-9.617932205089902570e-03
-1.300462784581495113e+00,1.099509213062901530e-01
-1.291911353128805118e+00,1.987203214018400943e-01
-8.922635369400253591e-01,2.148041378859962686e-02
-8.868733433722959525e-01,-7.487089012098160912e-02
-1.038935532003748774e+00,-5.622200552041235061e-02
-1.387235062987865808e+00,-7.443919492296749429e-02
-1.737249330664891733e+00,-2.950314136691337824e-02
-1.376206348133301338e+00,-3.955221021983912344e-02
-1.815006798038913294e+00,-1.562876470255417441e-03
-1.446243312100382816e+00,1.910230046919236466e-03
-1.528631825743769657e+00,-5.515730421967242336e-03
-1.441518941812773846e+00,1.030734361648136949e-03
-1.495566902173008694e+00,4.386483298850259692e-03
-1.687108259036400160e+00,4.243127794278527681e-03
-1.024514954831107438e+00,-1.369300502097226587e-03
-1.325201372200839334e+00,5.183333583075581778e-03
-1.175843168387637139e+00,5.891837675984136491e-02
-1.446853740844185499e+00,2.086536830483329621e-03
-1.488669006439277354e+00,5.672118090677127564e-04
-1.516635412990360532e+00,-1.312609332190589617e-02
-1.852247977569018600e+00,6.402874382744537692e-03
-1.630407557890352077e+00,3.698944567570436846e-03
-1.826499534648230005e+00,1.173490616794599199e-02
-1.607325042164163165e+00,5.572498488950491588e-03
-1.290698186004705983e+00,4.225249585006532298e-03
-1.685533654896649969e+00,9.372282550144704627e-02
-1.437570031217598965e+00,2.535489960847731733e-02
-7.674827479450391232e-01,3.663955127785431531e-02
-9.513807219245170588e-01,9.622996856347466876e-02
-1.414740372888027675e+00,6.137996350021111651e-03
-9.401970571940959642e-01,7.664547048951099451e-02
-9.376268672283699646e-01,-3.347556059989414273e-02
-1.027542055997078485e+00,1.376189898379583942e-01
-1.307570607113498262e+00,2.650684617690317671e-02
-1.358513550315475937e+00,3.373188941684760606e-02
-1.105744971499993179e+00,-1.145034062621722026e-02
-1.414069574560111064e+00,5.253547372277181209e-03
-1.301037669089211146e+00,-1.132545641145114163e-02
-8.409515212008825680e-01,7.072411065346079911e-03
-1.344786688812519282e+00,1.104537583339918194e-01
-1.790516354598230997e+00,2.989237327753359666e-03
-1.285166404876955548e+00,2.276836625128700331e-02
-1.422350719366780147e+00,5.478928274086128890e-03
-1.518686409934866033e+00,3.413482811205411499e-02
-1.307056278489349799e+00,1.393976732478880154e-01
-1.550072750874252225e+00,1.752133033332359605e-02
-1.464928466880017321e+00,5.363476710553415419e-03
-1.486367349819164074e+00,6.983811522030139093e-03
-1.192302771755250790e+00,3.606816665359472481e-03
-1.447841522357606880e+00,4.294123038970901543e-03
-1.195000083341393182e+00,3.513209955033474996e-02
-1.688319081752493123e+00,5.104539171869360709e-03
-1.524281774873871065e+00,-1.076634617317047231e-03
-1.108881001405530586e+00,2.694787296529325971e-02
-1.602889503572463514e+00,-2.893816161851902810e-02
-9.390933109629669984e-01,-6.780975382744388116e-03
-1.380100935574732901e+00,2.322411222446885831e-02
-1.373041164179682916e+00,1.846422825919593336e-01
-1.032698465869823723e+00,-2.418300529338884494e-02
-1.391716167441031882e+00,9.423292862551563287e-02
-1.305733560180202923e+00,8.844248239543925361e-04
-1.361258815097643238e+00,-1.773107408539933982e-03
-1.393297058395827515e+00,3.070336007404305366e-03
-1.886730553003126643e+00,-8.242161309466507213e-02
-1.765235202436807649e+00,1.529012624082720997e-03
-1.507982540509678726e+00,-7.838682184045232815e-02
-1.689130649217549296e+00,5.207693978874049744e-03
-1.442368179361463554e+00,1.397658794656225431e-02
-1.552841038552663200e+00,2.330028788184233639e-03
-1.507133518228108482e+00,2.011703844967681620e-01
-1.483006050095983852e+00,4.868988086979735702e-02
-1.792492142664599886e+00,-4.818121885441055408e-02
-1.337122597054006379e+00,-4.834645277898291099e-02
-1.071267009367823597e+00,-2.678384318527863850e-01
-1.750330938157335314e+00,4.972418702525813715e-03
-1.281491887489368819e+00,3.961794524420751001e-03
-1.469708924575997333e+00,9.244164128085918808e-02
-1.047738739985665912e+00,-8.587410695762003054e-02
-1.240924676202060928e+00,1.132866782879048823e-01
-1.332860220466476564e+00,5.226446786005715939e-02
-1.097853305784465272e+00,-1.833003936083090965e-04
-4.977865136455783546e-01,4.727629884247830927e-01
-1.255129032464129768e+00,1.723131360576563020e-01
-1.119150091277263614e+00,-1.090417528158110633e-01
-9.369414944112186561e-01,3.256412360951029678e-02
-1.772182418412757032e+00,-3.439747910999355757e-02
-1.343131144368190588e+00,-1.187794910383852265e-01
-1.481541898904790378e+00,2.661958038051536607e-02
-7.267196204857628850e-01,-2.819732655361925980e-02
-1.076580748636895901e+00,-5.821131286606507846e-03
-1.074637742284377362e+00,1.465307340263410658e-03
-1.227906342122112360e+00,1.380569391841347977e-02
-1.205116807501776854e+00,3.956394065009626385e-03
-1.060631388258632457e+00,9.187850452449357330e-02
-1.403057457382701934e+00,9.105809944699751884e-03
-1.218292323037271752e+00,-5.532397154473743528e-02
-1.148195409342148698e+00,7.573302289554864966e-03
-8.281764135818794337e-01,-1.407957694552318118e-01
-1.713720684576270026e+00,4.742422259237635135e-02
-1.718992562884019470e+00,4.563845028473121831e-03
-1.654979759157677810e+00,8.148142222279745883e-02
-1.114603360679470301e+00,-4.765933364358128366e-02
-1.718987623138825027e+00,1.831971083280830963e-03
-1.063068923867138471e+00,1.872065930770919207e-02
-1.772912608732848172e+00,-5.092974346602449631e-02
-1.191093376419951166e+00,-2.385135535629397951e-01
-1.302872734059703053e+00,1.181342340008715991e-01
-1.087695017043922796e+00,9.289242741610628795e-02
-1.493711942245814051e+00,9.120721408215907294e-03
-1.062212500578365804e+00,4.464350802280066949e-02
-1.577124210924473857e+00,9.743494185032832919e-03
-1.295413329597575824e+00,6.252844757646198841e-03
-1.607313460057850030e+00,6.962167248592807806e-03
-1.279163556811492075e+00,5.642561808654609351e-03
-1.556165293152210305e+00,6.447527287420890679e-03
-1.514355662243796141e+00,-6.351272724217206858e-04
-1.651668580360892813e+00,-6.217392671046654412e-03
-1.634066861696974016e+00,-1.218866489527270086e-01
-1.393536678355753899e+00,-2.823659906353449475e-02
-1.496577308480913082e+00,-8.398457545944733663e-04
-1.662797173117197547e+00,3.911205545589598737e-03
-1.409960705476827503e+00,-3.804859687980050031e-02
-1.656624824540161356e+00,1.692901474916655782e-02
-1.282850992501877396e+00,-4.882782666498080015e-01
-1.224407203400601274e+00,1.580125869961199747e-01
-1.651659396239483435e+00,1.885210972443565960e-02
-1.545246633849560070e+00,-8.083800335383635460e-02
-1.293499220503962821e+00,1.913419066228352547e-02
-1.298338381849565071e+00,-1.171837193777855966e-02
-1.270778658520754778e+00,-9.414237031603199871e-03
-1.812113310418778767e+00,3.401902920907138445e-02
-8.268707125215214448e-01,5.093171789931737470e-01
-1.836242705668859720e+00,-7.211860916097115326e-02
-1.314406574684722884e+00,5.617535934455396632e-03
-1.327024218602707029e+00,-7.348104793550126052e-03
-1.632154175653444561e+00,3.815485720948269370e-03
-1.331674084516352163e+00,-4.308446391602747255e-04
-1.691957410016433405e+00,-8.334778872580318049e-04
-1.812698564720121475e+00,1.672429931465423819e-02
-1.329642572372542686e+00,1.450934731318987703e-01
-1.188447029885989936e+00,-2.342089538033206852e-03
-9.202768421295869361e-01,-2.761894585398752891e-02
-1.435208744941295356e+00,2.364493171547481509e-01
-1.858085188294880119e+00,3.059292556736471075e-03
-1.839730138640499169e+00,1.320482648160733671e-02
-1.042172673792964632e+00,-2.846143561756740992e-01
-1.186825330107396992e+00,-1.529323959315846693e-01
-6.822547088704090656e-01,-8.969461604487330431e-02
-1.721053877795792886e+00,5.738496990702362383e-02
-1.469661193602893379e+00,1.951385390236269959e-02
-1.798353855345939500e+00,1.219999335418025382e-02
-1.480384734454964768e+00,-1.470524685904605056e-01
-9.269279500617052525e-01,-4.323602826693476869e-03
-1.593016786312784205e+00,-8.534778824712740616e-04
-1.674927742794750429e+00,1.939253656876058912e-02
-1.530745564397539837e+00,-1.793092381452184858e-01
-1.159044852084453181e+00,-7.879507981751238122e-02
-6.225634442817185032e-01,-6.797932205362296199e-04
-1.140171551873276901e+00,-1.543810012475843770e-04
-1.240416886067192470e+00,-1.250964246257486312e-01
-1.518604444468262482e+00,-5.068549128223905076e-02
-1.512662523370872591e+00,1.841891305888133240e-02
-1.266316290916697396e+00,-1.360180348233458458e-01
-6.542503051473794740e-01,1.733926421034992227e-01
-1.159695197330472993e+00,3.259406900209968483e-03
-8.094302038687093415e-01,-1.412447463490044131e-01
-8.409693339129781231e-01,-2.725056957948268285e-02
-1.547540542704000543e+00,5.480677953562469729e-02
-1.577667699607571139e+00,-3.083189765601491994e-02
-1.516406222854364882e+00,-2.268624323470659447e-03
-1.754974283637930732e+00,2.521049166250655116e-02
-1.460375726973897281e+00,6.223962458089894560e-03
-1.421742407719879697e+00,6.184889439714116866e-02
-1.726729829761740831e+00,5.405712286091917534e-02
-1.139252147530208870e+00,-1.058495174403815547e-01
-1.450725697431387573e+00,-1.237955752309371701e-03
-1.296286514290874825e+00,-4.424881416642494070e-02
-1.640516687596785150e+00,-6.915810682262042708e-02
-7.254952839306357815e-01,-1.453246970925716475e-01
-1.144787899783114460e+00,-8.801079412909022792e-03
-9.463198849667990853e-01,-5.528254580520203243e-02
-1.089974645780065643e+00,1.457476226312853229e-01
-1.137328438161222532e+00,-8.734879157649835801e-02
-1.064064246683434467e+00,3.691584623449408603e-02
-1.179026292328486436e+00,-1.149600700731792657e-01
-9.011193823617246190e-01,2.494038566568368698e-01
-1.174623935451282408e+00,-8.113690454648907202e-02
-1.144631690309572125e+00,-4.783762890858815897e-01
-1.466881085082255565e+00,1.458323298329875506e-01
-1.289583021297510790e+00,4.799862003536766591e-03
-1.547036783853916520e+00,-4.286919132214206396e-02
-1.517534053508878378e+00,7.444528839027346467e-03
-1.085933009004550476e+00,2.840424884585086573e-01
-1.525451984060605559e+00,-7.948712650053507689e-02
-1.728121793993961708e+00,-2.764439779860732860e-01
-1.875009640042492709e+00,2.008479346961302564e-02
-1.554334491069893520e+00,-8.495999281419365501e-02
-1.693486027848558617e-01,3.467014331123681181e-01
-1.600243557855179910e+00,8.557812934216701972e-03
-1.390313564307477545e+00,-6.841468947109111132e-02
-1.358282602947121998e+00,5.096109684535488071e-02
-1.444985473958182443e+00,9.298600455438284923e-04
-4.973266765436570869e-01,2.036804244746801551e-01
-1.432660358620702734e+00,-8.972879221027954544e-02
-1.869948990129714383e+00,3.658408979649672987e-02
-1.615974691815927677e+00,5.192057461255849410e-02
-1.236662255334704641e+00,-9.398622468365408662e-04
-1.371635781284511468e+00,2.643919716368365799e-02
-1.139904918983402071e+00,8.716292882777629258e-02
-1.323488767765511387e+00,2.527162208156748940e-02
-1.252327968265044111e+00,-5.106723808099486450e-02
-1.210588773040044863e+00,1.820318987428238416e-02
-1.561701544075156489e+00,-4.899515992876710135e-02
-1.190224843405404798e+00,1.664472127662094680e-01
-8.676637416524781710e-01,9.955222489708398514e-02
-8.628855766498032542e-01,-1.727155697272034496e-01
-8.277706297718955275e-01,-1.083292178780226149e-02
-1.036226028324151338e+00,-2.744562295290537898e-02
-1.206946740417202069e+00,-6.938359536244353455e-04
-1.643728602180194898e+00,-1.048676341421696592e-02
-1.326305354594940811e+00,2.631674044279017077e-02
-1.522413820209183033e+00,-2.062500703435768065e-02
-1.637582558262735022e+00,9.510361219126956325e-03
-1.190123215608179352e+00,4.808955969769968669e-02
-1.269813058029484631e+00,3.509875795404466814e-01
-1.252311874942195313e+00,-4.766804798553810237e-03
-1.188467618640869361e+00,-2.938479611414998582e-02
-1.472492672422288873e+00,-7.805474024017725054e-03
-9.546519211922807058e-01,-7.783023807351580059e-02
-1.198203661272456477e+00,3.731338817314336712e-03
-9.396049120127485388e-01,8.092418715646024219e-02
-8.145515350868777205e-01,-8.651940580950631676e-02
-1.189224270193635302e+00,2.145129304477184570e-02
-1.175672824572889352e+00,-1.804581981695217024e-02
-1.189449651984212153e+00,-1.276286802935189778e-02
-1.112351918322810995e+00,-1.542078770898834550e-01
-8.146497315329060962e-01,4.093258776788082365e-01
-6.498717495206017825e-01,-4.344411851484878961e-01
-1.452427073744809949e+00,-2.312848487922403440e-01
-1.387727288015343063e+00,-1.642001290442551831e-01
-1.070748288516678581e+00,2.998948753908268691e-02
-1.744194877320306425e+00,-1.701326349477418412e-02
-1.197524337380902582e+00,-1.460916825542878106e-01
-1.026289772263055955e+00,-3.285935203497451496e-01
-1.398661750223961331e+00,1.327698319732776577e-01
-1.390638879643582015e+00,1.266697441622761586e-03
-1.465946279533334673e+00,-1.221921873825563762e-02
-7.231334584265649568e-01,3.464710051904771465e-02
-7.168045583701212475e-01,-6.271602429694536629e-02
-1.409397187864156908e+00,-1.728467883848665981e-02
-1.242153531630703078e+00,1.527714089235371678e-02
-3.984917173779065624e-01,-1.774786708322965978e-02
-1.705296685152461800e+00,-1.503109449323916380e-01
-1.454962489295595685e+00,6.042269212021444957e-02
-9.406155543863451429e-01,3.021455649811253391e-02
-7.276309883991125549e-01,-6.573536207303222467e-02
-8.878758280673427761e-01,-9.709865992473784568e-02
-4.191118433695859014e-01,-3.998416871485563906e-01
-6.746765712433728801e-01,6.277134188334065890e-02
-1.269954187777178056e+00,-9.976085478692806735e-03
-7.161740162784829833e-01,3.944190347058650070e-02
-9.534429593913419376e-01,1.720189354254749725e-01
-1.001097497077618081e+00,2.177582616066792986e-01
-1.548063645622228979e+00,-2.112677297401184540e-01
-1.317102615405001176e+00,-4.814574730278223941e-02
-1.445166516684668334e+00,1.203519781139475615e-02
-1.470957598950025647e+00,1.664479189819201982e-02
-1.423812936423876296e+00,-1.074341767826581112e-01
-1.386630414281902590e+00,-4.465491749173673003e-03
-1.468873634062402234e+00,1.857244766597191676e-01
-1.613147483133659188e+00,-1.355820948624510136e-02
-9.524218117263921757e-01,-1.032386571074000864e-01
-1.182230128568021454e+00,-1.169715043015961270e-01
-7.067429138150993495e-01,1.137957970536636332e-01
-1.216361506681450599e+00,3.254057875509605569e-02
-7.157156379978079075e-01,-6.950234135304476923e-02
-7.218516647749254611e-01,2.747771317062564986e-02
-1.214769697942245541e+00,-7.416945578378758563e-02
-1.645615043497041130e+00,1.842073225537458822e-02
-1.721390975867778339e+00,3.032079297254124811e-02
-1.255360606956201774e+00,1.887934819399371411e-02
-1.366304890689875151e+00,-4.244508702807407718e-02
-1.446029434764932065e+00,-9.884717676840543144e-02
-1.488136281516573289e+00,3.406057202544909845e-02
-1.346309671620436132e+00,-9.720312795806002742e-03
-1.282827595212762573e+00,2.739896726647774242e-02
-1.417965905212741795e+00,-4.561544333461838019e-02
-1.653056238564734493e+00,5.605622071932126610e-02
-5.185975001027449682e-01,3.688431863084817158e-02
-1.352930235228581912e+00,6.734996350984605307e-02
-8.767234343723541157e-01,2.229992067306667825e-01
-5.302105962705976339e-01,1.933374121562444758e-01
-1.033730232785289527e+00,8.869955806276820509e-02
-4.725051336425856729e-01,1.759573442526919385e-01
-1.575231491334681655e+00,-4.272896381539967869e-01
-1.143239500869603686e+00,1.542740635793947990e-01
-1.150583906442387949e+00,-2.565889345789961751e-01
-1.425581453683981925e+00,8.570878448749529033e-02
-1.269602434286547510e+00,1.403722997939866046e-01
-1.673814133910843438e+00,8.029592322430727236e-02
-1.313667256470971489e+00,1.557967453648833878e-01
-1.071899681836518514e+00,2.213306986488235983e-01
-1.538192169639229778e+00,-3.828806330714976669e-01
-1.143696651160752475e+00,-3.861115376167395530e-01
-1.033798582759144935e+00,-5.706550218457452639e-02
-7.002207495738593801e-01,1.774935020448769052e-01
-1.040176591451675181e+00,-9.512952875491413607e-02
-7.514241561470090813e-01,2.047571647382813720e-01
-4.133227943041714036e-01,4.833224064660491814e-01
-1.512004648570041965e-01,-2.584194050995352598e-01
-6.949924611299701516e-02,1.064939719106407223e-01
-3.417662189305029630e-01,-4.477389317059405349e-01
-1.273600614295382405e+00,5.289071424873285909e-02
-1.232462999451264363e+00,2.175961692267774916e-01
-1.486319618788256358e+00,-7.647799586870361599e-02
-1.065027612237289256e+00,1.188373288377320702e-01
-1.341404860291503631e+00,-1.434119776337265152e-02
-1.214968434492120331e+00,1.806444968459831601e-01
-7.004169622760272329e-01,-2.727133302896627212e-02
-2.150845713680790972e-01,-1.738418145066960296e-01
2.954997775869305093e-02,3.847057220599026661e-01
5.041707380916969627e-02,-8.651044434934296312e-02
-5.910694825926099405e-01,2.056936726426173978e-01
-9.577293927988510536e-01,-2.810608885038372307e-02
-6.131894430548218144e-01,3.921720201764339886e-01
-6.741379733378226602e-01,9.750218910982820508e-02
-1.280928933838973161e-01,1.668442760437508776e-01
-1.178878951657452268e+00,-1.032655360409140827e-01
-8.752398665667515676e-01,-3.232061006403163378e-02
-1.175249066975502688e+00,-4.183026886038758718e-01
-1.939622348069246494e-01,-1.566866033066482700e-01
-8.183712111631487041e-01,-4.759275227317044665e-02
-9.602105576665347364e-01,-3.516410151335815359e-01
-4.326757621501131634e-01,-3.226107965088447771e-01
-1.077071441449247047e+00,-1.018057936389479001e-01
5.477485308467752723e-02,3.095074169821920851e-01
-1.228343806661330806e+00,1.446221578234379856e-01
-7.589059809899130205e-01,-3.435909197623749495e-02
-1.025480087962802322e+00,-5.373796924179285311e-02
-5.891555816257022515e-01,-1.916263494626559982e-01
-6.910940293312596294e-01,2.126012199149502069e-01
-3.206168079984949015e-01,2.202837707975074111e-01
-1.331194149724528597e-01,3.676967978690800498e-01
-6.664188494392826456e-01,-1.081278071026798848e-01
5.161000711715818534e-02,-2.851347989128777405e-02
-1.024920629726755017e+00,1.632768418275741817e-01
-4.761051815471774584e-01,1.211880727185137008e-01
-1.026115581397839316e+00,1.232985085726393676e-03
-4.729345471546224089e-01,-2.129708717776089000e-01
-5.080733561679849908e-01,4.236341902188668351e-01
2.602226103368501242e-01,-7.729749098327890477e-01
-4.267681295480392767e-01,2.096457155715903964e-01
-8.544298225221269583e-01,-4.778966626353096069e-03
1.717315423081756942e-01,-6.266331517097640802e-01
-1.021662775499185827e+00,5.418991428804071503e-02
3.883971703140537413e-01,5.549415069345998708e-01
-9.682608414617757120e-01,9.648749018344295048e-02
-8.681049654496821866e-01,9.109493673318730389e-02
-5.702423317616502896e-01,-4.561705602407758464e-01
-1.296431360008154288e+00,-2.337213560160178449e-01
-2.531900674631616388e-01,-1.944192019588057985e-01
-2.888401251508270207e-01,2.196588481720557207e-01
-4.630249617750371582e-01,-3.171053634340276761e-01
-4.930245755724911305e-01,6.535414280234990159e-01
-8.334853607981008994e-02,4.441122334292458840e-01
-6.480022168757129664e-02,-3.243481114078872740e-01
-2.067310558481189886e-01,-1.903198687489724983e-01
2.642032349965424062e-02,-3.587083405878297993e-01
-1.505976405761915604e+00,-1.150255370434875440e-01
-1.470832603129098137e+00,-7.559503766990269269e-02
-1.062367169564225167e+00,-2.259070209240171268e-01
-1.004060457461462885e+00,-2.767753411076908088e-01
-8.008067258783607700e-02,-1.883716614701120839e-01
-1.105066461936930811e+00,-1.189573889770996068e-01
7.666956961702577761e-03,7.550565365317424282e-03
-1.823518246799138709e-01,-2.045159808217126285e-01
-1.660976623013616926e+00,-1.045311282669982716e-02
-9.679563054596799221e-01,-8.073053343926486769e-02
-1.011465927878728799e+00,-6.539730074821922812e-02
-1.018027538462967341e+00,-4.979874331900772944e-02
-1.178708033915673914e+00,-2.807135222955777637e-03
-7.774216475638043855e-01,-8.155130736208016096e-02
-1.393400242605103978e+00,-5.250541987459773630e-01
-4.738684480876376726e-01,2.757959045680832486e-02
-9.212389847895080530e-01,-1.356113911484329582e-01
-5.289539774185231247e-01,-5.136209467143024177e-02
-9.556570847605689867e-01,-1.463833828195440223e-01
-8.493217676532757165e-01,-1.231167563232069134e-01
-3.604692299094944263e-01,-7.444602027913803030e-03
-9.315776627973445523e-01,8.146913403898259354e-02
-1.130744372398331032e+00,-1.952302861936125733e-01
-3.167751291825520732e-01,2.687338094646024578e-01
-6.146483046542600137e-01,1.121328272477605387e-01
-8.878006088489903691e-01,-2.323479798705736787e-01
-9.258659369186946764e-01,-8.141601400225767504e-02
-1.112193056065867047e+00,-9.544983887746671947e-02
-9.728476538978085841e-01,1.424180437823213130e-01
-1.585254376291051148e+00,-1.398622923776107474e-01
-1.044884194938809241e+00,3.833023956798655152e-01
-1.206349839727693274e+00,1.413392570956328864e-02
-9.970835352304452393e-01,1.298061480059884421e-01
-1.434194150178643490e+00,-1.725277267646801171e-01
-1.492421997129141698e+00,4.093675702673532819e-03
-9.722887913502071822e-01,-1.932047264467149916e-01
-9.569855008227619031e-01,2.284871024115604499e-01
-1.508288691048050634e+00,5.349436851971283574e-02
-1.479195413845006968e+00,-1.020626767808969076e-01
-1.219978658167356622e+00,1.576073811062177199e-02
-9.563284386556728522e-01,-6.114129958723395208e-03
-4.885691715837205962e-01,-1.844745996218189188e-01
-1.173327716779825725e+00,2.294055609345700686e-01
-7.268725490826256630e-01,-1.067643588218743361e-01
-1.207345981988893646e+00,-1.144758986932632250e-03
-5.095477834788799676e-01,3.401162712665364296e-01
-1.129100230904377167e+00,-1.775233953985180455e-02
-5.340183671492978457e-01,2.747154699632069902e-02
-1.150621652989039401e+00,3.147375429424625198e-03
-8.037152919776978655e-01,5.240841130907495371e-01
-7.750653122031164743e-01,-3.431113890223483898e-01
-1.209106969218260996e+00,-3.652575146740511536e-01
-8.763752518047509543e-01,5.567586908072813361e-03
-4.705694304651710236e-01,5.085019560877589162e-02
-1.475803359222410460e+00,-2.286083491748970922e-03
-7.845217336534796582e-01,-2.920339515102516881e-01
-7.467133811579249603e-01,-9.430884464982521032e-02
-6.240761221958394112e-01,2.232208942818152131e-01
-1.256186277710412469e+00,1.101938919281540835e-01
-1.421216304428315480e+00,-1.330914861467517030e-01
-1.115954726959872634e+00,1.871580575504974697e-01
-1.687134729118667575e+00,7.418775760450579959e-02
-9.094849479150318716e-01,3.714944829637318313e-01
-7.560679805316030677e-01,1.598320963778738502e-01
-1.239916738675222563e+00,1.228526994942393119e-01
-4.032417947845690076e-01,-4.229598464825095605e-01
-5.753263284313572257e-01,8.878765493330402492e-02
-1.101182731426594508e+00,2.077976416133283932e-01
-1.124654516081270428e+00,-1.217322844785640734e-01
-5.015735596906282234e-01,6.057814027161008141e-01
-9.231459362517731027e-01,-1.016051854527662696e-01
-1.116489603314457568e+00,-2.202770459372562634e-02
-1.393747944941287731e+00,-2.425138065008055482e-02
-1.170562725559171957e+00,8.886676449185013094e-02
-1.132163370006861181e+00,6.316841756816314601e-02
-9.480757417521910035e-01,-3.978804395078817946e-02
-1.408051869954904944e+00,-1.488970077884571863e-01
-1.199757293808225489e+00,-1.441296232826855608e-02
-9.678327166515761082e-01,-1.169075000563857825e-01
-1.343375365999370130e+00,1.580843044436020250e-01
-1.335791737012823749e-02,2.852996549993994102e-01
-1.249730125983295581e+00,-1.215561766866654764e-01
-1.976288760313365644e+00,-1.183096565705211850e-01
-9.370894264952405184e-01,1.049947521675437534e-01
-1.660106743645084482e+00,-1.829296986322332119e-01
-9.697133338995892471e-01,2.772566735609450217e-01
2.353727125631413855e-02,-8.597618352426000810e-02
-1.206721775553075471e+00,-7.823865808463460747e-02
-5.600249715260879890e-01,-6.034896823337786154e-02
-1.552636013443027707e+00,-1.042088719358873067e-01
-6.748457178589494232e-01,2.069303695179832564e-02
-3.903376072719577650e-01,6.381978786892678057e-01
-1.460419521197380055e+00,7.262695584445118258e-02
-2.243082552100258142e-01,-9.705517633895566210e-02
-1.281313846652754607e-01,-3.403416973679886381e-01
-1.616309430710302975e+00,1.242178669728699475e-01
-1.131256914651381784e+00,-1.796069422963652018e-01
-6.937646744122755171e-01,4.367594971040635876e-01
-6.843065141000528318e-01,-5.563486395908788795e-01
-1.589238921176451713e+00,-3.264494059839103679e-01
-1.131463404012876373e+00,-3.972002721779888113e-02
-1.446383858767681163e+00,3.997012627938131279e-01
-1.509234016899478226e+00,4.592696059328338354e-02
-1.064437482676396929e+00,1.940248439836267103e-01
-1.136669530907032488e+00,7.817253652070597914e-02
-6.931909510673752717e-01,1.362094563886138698e-01
-1.403666884386717717e+00,6.594325079704393966e-02
-1.091291527423798646e+00,2.240229574244022581e-01
-1.315271577994086005e+00,1.226372220378297434e-01
-2.215190488103604138e-01,2.119168071658540653e-01
-5.194686928015248562e-01,9.331095098792251130e-02
-1.318911044145978595e+00,-7.397641004098917672e-02
-1.037062712856367419e+00,-4.377539140831886166e-02
-9.279301029997329975e-01,3.086237148692337444e-04
-6.826124327064043706e-01,-2.254175615693777834e-01
-6.148121898558167597e-01,-4.512871765520669598e-01
-1.525219282354530970e+00,1.688484426823634310e-01
-1.051606804396611139e+00,-2.254370248595275461e-01
-7.944321709932240516e-01,6.560169353606924714e-02
1.779487504062335634e-01,-2.699772349148847894e-01
-5.837476551075154729e-01,-3.425093819521552452e-01
-1.142231801649521206e+00,1.560200470553820273e-01
-8.551417808956938149e-01,-2.926870564107512673e-01
-9.192611864637005858e-01,1.308742568565761655e-01
-6.391724939058773813e-01,-5.154337048867152493e-01
-4.898711522754956027e-01,2.747132725197952707e-01
2.002903616071418647e-01,-7.555599187986124232e-02
-4.617390860529639318e-01,-7.941154364794755782e-04
-1.198372868842094929e+00,-7.102920686568887920e-02
-1.130771665363622391e+00,-5.163077443362821262e-01
-8.833110327781904525e-01,-3.869582771910952679e-01
-2.911447934967607565e-01,-4.990955470121187509e-02
-1.357202698794395035e+00,2.888879453365953975e-01
-1.074151249528916052e+00,2.752569845525917325e-01
-1.098082067118240523e+00,-3.653440931538261272e-02
-1.650652832169468565e-01,2.137934988057739738e-01
-1.412264222747254161e+00,-2.992757266376163891e-02
-1.039073108378032906e+00,-4.754245985310392442e-01
-7.387903116132230608e-01,2.567640792138714545e-01
-1.110242879215450840e+00,3.943381779162455358e-02
-1.621591558942665767e-01,-8.599845941303414787e-02
-6.434038311598403448e-01,-4.858418595369382587e-01
-6.845527633005356050e-01,3.308217914185757613e-01
-6.923691728992974470e-01,6.113118375626678258e-01
-1.050763232588742380e+00,2.539340293253726163e-02
-1.601231326735030214e+00,1.326665960734656202e-01
-3.870445729946885849e-01,2.482383319894317097e-01
-1.389263934269222567e+00,-3.964105691794764241e-01
-8.074909278911737154e-01,-1.232273450084679506e-01
-1.237675511213992996e+00,1.065292762390275538e-01
-9.560005533408013623e-01,-2.620328952655009980e-01
-1.311973862354848697e+00,1.702269928884592720e-01
-7.621724521046611134e-01,-3.287650850810317493e-01
-2.823832870587504873e-01,2.774524099655096832e-01
-1.063628081483451560e+00,2.970090599335549197e-01
-1.056149537395844495e+00,1.863010376845897209e-01
-9.239962366519115511e-01,-7.226911870895091905e-02
-1.669975697518768731e+00,1.224494441551328833e-01
-6.248009390121526119e-01,-3.943699250054476940e-02
-6.544968853551555998e-01,-6.568778476050128601e-02
-9.414663159241389856e-01,6.770429070670654081e-02
-7.617674244355480129e-01,1.032726977208118652e-01
-1.115751498267185227e+00,-3.954492858315335896e-02
-8.529635165679065878e-01,-3.746572966189973819e-01
-1.320196316953440085e+00,-1.688542429961006619e-01
-3.292453459156785556e-01,4.582977742081717487e-02
-2.698615676634332772e-01,-3.511432215590358230e-01
-9.288477311397645986e-01,2.676898769284530646e-02
-1.135835217999588087e+00,-2.958346269723516331e-01
-5.943424273883881614e-01,6.657674408321461179e-01
-1.389830658950638398e+00,9.442367912684945797e-02
-5.896411377434794820e-01,7.362538444936121695e-02
-5.836604098310731459e-01,1.568006577601837037e-01
-1.207625701059437340e+00,-1.026023119425556601e-01
6.275473745383151891e-02,3.080080374660233433e-01
-7.284682342608895800e-01,8.517871616280241198e-02
1.244465252428452774e-02,-1.037824766889817660e-02
-4.913938428514316170e-01,-1.379864420426711036e-01
-9.471450113396933101e-01,-4.871610626439454306e-04
-1.917578482059692224e-01,1.696803783786359210e-01
-6.166490426063556685e-01,-1.401476138108984637e-01
-2.497388396075226474e-02,-5.408621532873214566e-01
-4.612706349150925700e-01,-1.709954843795938872e-01
-4.375549689620106264e-01,-1.602251954216750984e-01
-3.026323428977595875e-01,-1.851718650557581669e-01
-5.467931521718651933e-01,-3.853287326576967931e-02
-9.201362101338447230e-01,-1.665245618817144391e-01
-1.707493252931367375e-02,2.624449687588318453e-02
-9.865772586851895287e-01,-9.776735798635480257e-02
-2.467970754480199036e-01,-1.758315242107279519e-01
-3.903263428456391626e-01,2.396600022772033822e-01
-1.618985408760251765e+00,1.067277339796608299e-01
-2.234030673442618381e-02,-1.887146625699414465e-02
-1.067452001435443387e+00,-6.160479341393383657e-02
3.227160144043317302e-01,4.254762433934395488e-02
-6.136148557906330459e-02,-4.145848380795588012e-02
6.360101341524224128e-02,-5.011177458337885415e-01
-5.104356958992020132e-01,5.239700296506116795e-01
-4.255715938886499572e-01,-3.262914256127306678e-01
-3.420864155907042681e-02,-2.382425522153463759e-01
1.865430215043736573e-01,-2.088819311352163588e-01
2.564233225035056907e-01,-1.145617965891150419e-01
3.082304768137885537e-02,-2.144291084784979984e-02
8.503090348828742928e-02,-1.874198622472909581e-01
-3.594179101242633845e-02,-2.360998620215758181e-01
6.846352688742150805e-02,-3.358334747968841349e-01
-7.357978720743484080e-02,-3.050159201500175499e-01
-2.547939904472850126e-01,-5.362322041500043879e-01
-7.628061347631975853e-02,1.351232838806930847e-01
4.645165685892603813e-01,4.279811794807786285e-01
-6.212475907843609813e-01,-2.126631480761984327e-01
-6.559319323381461730e-01,-4.961768603225468616e-02
5.624372381225085649e-01,-4.974436602845012656e-01
5.597691529227055013e-02,-4.162489829028497290e-01
-3.224326125080978489e-01,1.843370719514024481e-01
-4.802709315972836790e-01,8.241179832091774515e-02
4.399017172278416044e-02,9.323230097281655360e-02
-4.159171512730883147e-02,2.316672493426518709e-01
-6.086205125629372548e-01,9.829830805547293271e-02
-3.141152505927031213e-01,-8.207754523277137337e-02
1.033881627853153046e-01,7.816418952637634032e-03
-2.500281883696603979e-01,-1.324162454708090741e-01
-1.021155219813868698e+00,3.283940806063530560e-01
-5.733990285969530198e-01,-4.512659078952602210e-01
-1.498506203526348113e+00,-2.929722821208501915e-01
-1.507339756597294800e+00,-2.878261788649276731e-01
-6.800480612946797621e-01,-3.623963802455201777e-02
-9.061920720944558472e-01,2.159109961480066772e-04
-5.552973515829239259e-01,2.789481002425166223e-02
-6.523889083010991907e-01,4.378715731792386934e-01
-7.795162294658233293e-01,1.718252122223638267e-01
-1.181406046998591641e+00,4.186544323733147888e-01
-9.883013267135437596e-01,-2.521390025194555351e-01
-1.418235158145024100e+00,-1.220572033085442487e-01
-9.048200805745770792e-02,-1.470858693469452860e-01
-9.005962259126079061e-01,1.521406776014961604e-01
-2.964990973916836747e-01,2.523492704779090046e-01
-5.346731015061311210e-01,-6.564789336285369314e-01
-4.791598970656620882e-01,-1.300629924060288101e-01
4.112937384063524160e-01,-9.603087366199192232e-03
-8.756133991915192594e-01,-1.383609476352668233e-01
-8.123843759822768629e-01,1.166370151729766019e-01
-5.233853980624327829e-01,2.163544814173067599e-01
-6.008505338806644502e-01,1.136289137355089712e-01
-6.181924483672014414e-01,4.659808122616633241e-01
-1.260229571804623028e+00,-1.143952413537775437e-01
-4.492355318374111062e-01,-1.204352351205530552e-01
-4.087878193957730222e-01,-1.512379387662778074e-01
-1.437684378435438948e+00,-2.671873466182244153e-02
-6.235573838889522102e-01,-1.691407594375780588e-01
-5.304120876739880641e-01,-1.067531568229234118e+00
1.195364846480123089e-01,5.750145114670346391e-02
-3.854093585662599075e-01,3.463068900450475551e-01
-1.299465185952184854e+00,7.657123120207154354e-02
-1.306360203277688314e-01,-8.715288647964002378e-01
-7.856471702293559289e-01,-6.856132242017783929e-01
-1.150573247257889786e+00,-1.505796273949824848e-01
1.180728639950078401e-01,3.533654200926094058e-01
-3.154785395684270299e-01,2.204996568422735448e-01
-5.238554886154965784e-01,1.691825669423486778e-01
-5.325417510210019856e-01,-3.204101436496531452e-01
-1.344460347928521760e+00,-2.895387872279472363e-01
-1.045219163639491411e+00,1.264049828742108417e-01
-5.366384216091638626e-01,-1.829556954835578619e-01
-8.189813452598101451e-01,3.984400756132481791e-01
-6.508704482214957565e-01,2.230269190776444366e-01
3.599237571918216527e-02,2.931236418379401520e-01
-2.117832948190934705e-01,7.261156117475774108e-02
-6.056277237193197216e-01,-4.997891959903824621e-01
-5.230908251573438417e-01,-2.380910211504053478e-02
-6.220916646678968931e-01,5.384698890333107224e-01
-4.613943692978805799e-01,3.760562098697585176e-01
-1.286553416665996652e+00,4.211721936952428358e-01
-1.293239073479239554e-01,-2.763116262155925623e-02
-9.011085980824787289e-02,-1.552652948093897478e-01
-1.362210347010495815e+00,-3.419697073095590567e-01
-1.277607719592782853e+00,3.273539475165748724e-01
8.369230677196427826e-02,2.664442686413037165e-01
-7.178397517620687118e-01,-2.907956959235576122e-02
-7.674871323247668409e-01,1.882606762968818542e-02
-5.653832544920814884e-01,-4.005829923901382816e-01
-3.267080557694538312e-01,5.332849715673839697e-01
-5.551602612899080302e-01,1.863510701047445609e-02
-5.445045256175532478e-01,2.280127850432352998e-01
1.342905850905834753e-01,1.567355887805688477e-02
-2.205685714572669931e-01,-1.653819319973316437e-01
-5.418589759335775691e-01,-3.465805208547295124e-01
-4.528687987910129387e-01,-5.525973624220875680e-01
2.535803796865295778e-01,3.890455990363010930e-01
-9.363182777187870620e-01,5.022072555719752085e-01
-1.148475113964402133e-01,1.533256517045973877e-01
-8.203610229430819967e-01,-8.871303083147212554e-02
-1.062343970040410951e-01,-5.738592746834255687e-01
-5.751294502226436123e-01,2.570035784148427260e-01
-1.000324531641005321e-01,7.285863372025784546e-02
-4.551403625531621477e-01,-2.529675937123946339e-01
-6.208246849139017476e-01,3.952494866360825032e-01
-1.151770802490623025e+00,-5.467014442033892030e-02
-3.749473377394531570e-01,-1.385767968977360820e-01
-1.654226725140190424e-01,2.510459095648743255e-01
-1.548277639810981265e-01,-3.129867054582899377e-01
-4.806193245128253522e-01,2.515173982431030963e-01
1.025523732015972897e-02,-3.301555188879484737e-01
-3.154880467095019791e-01,-2.303398225785868170e-01
1.058866365308118729e-01,1.520465259867575525e-01
-3.692535166647227807e-01,1.868957960942082830e-01
-4.547140740483459620e-01,2.087439360294111312e-01
-4.687453417402458467e-01,1.749018141004733962e-01
-6.891924936497776377e-01,1.124502605985353149e-01
-2.090720703248414580e-01,-1.893241946986578828e-01
-6.307146251779779389e-01,-2.098746610267663570e-01
-3.269639016205121984e-01,2.125463749751336506e-01
-7.348171940649483869e-01,1.181447118248609152e-01
-5.069333167207659141e-01,-5.467830719003114598e-02
-3.464253094941124322e-01,-3.257466765863084590e-02
-4.049346470529167075e-01,-2.009489613302809508e-01
