-4.725786589899571405e-04,2.529807189622670341e-04
4.398033493576775023e-04,-4.993594587687966071e-04
-3.839330153704947381e-04,-1.012004482097601663e-05
5.073705376121522134e-04,-6.652885252702450928e-06
6.442586322312243881e-04,4.692852279407034254e-04
3.622788253738662076e-03,-3.296812587679347553e-03
1.837862038865142715e-04,1.175676647290068723e-04
-3.504853245127051084e-04,3.124166329895029207e-04
-3.286830116185682194e-04,-6.188827639847013903e-05
1.618024817093156398e-03,-4.320044710483517385e-04
-2.092875728601935575e-04,-6.434499369551987960e-04
5.008289461586430479e-05,2.309685763010426286e-04
-8.567031685054244576e-04,5.181884669621397927e-04
-9.936889881598917531e-04,-4.679901319058386248e-04
-3.393292657628580399e-04,9.908114748440599031e-05
-6.075690851795246443e-04,7.099429005683409292e-05
6.449887216292530829e-04,7.282270277318614229e-04
-5.521016857379280537e-03,5.941371776760655948e-02
-6.339046332337493119e-04,1.498097733903894517e-06
-8.870028244313179350e-04,3.804750299768926776e-04
4.900798739761024619e-04,-1.768772600053299636e-04
-1.525588189377965597e-03,1.061232154434627473e-03
2.418565139239166233e-05,1.038657678437183046e-04
-3.433348192710910076e-04,9.375764578455494469e-05
9.282246240075584160e-05,5.258696819026533647e-04
-3.049943674209335768e-04,-4.127486441736733869e-04
1.660089891452571275e-03,-2.668688531476752886e-05
1.081316178714566203e-04,2.280034714825021614e-04
2.821233931635107632e-04,7.887660778844420224e-05
2.089613213804492650e-04,5.351559734575841217e-04
-1.022927197248714595e-04,-6.718364262490284606e-05
8.130176015242608200e-04,4.196946761009318153e-05
1.514393113962965367e-04,-2.364451234825678974e-04
-1.759566533907120506e-02,2.609748762829397842e-02
-2.800775629556971971e-02,3.573738167597420579e-02
2.339952571936074893e-02,-2.600042283179971984e-03
-3.783184395950772022e-02,-1.913313377735608584e-02
-7.829918712007209649e-04,-5.701564966448146232e-04
-1.015473448435469286e-04,8.092491661363934643e-05
-2.972466821853075175e-04,-7.075770770736371370e-05
-2.681193392863674327e-04,5.995899659652733542e-04
6.806632563415166424e-05,3.221097594296036233e-04
2.706035089050665902e-04,-7.465139707059896285e-04
-5.539356696034890585e-04,5.370937994631466055e-04
-3.874254313477253856e-04,1.247472207581383085e-04
-3.150992976271338214e-04,2.679264432499228916e-03
5.482370846915703827e-05,-1.474845003897099730e-04
1.181487830444201794e-04,-7.108062744327975834e-04
-5.271961746435269202e-04,1.389637014822986578e-04
-2.522148252620638400e-05,-8.171487434429538089e-05
3.217280091839751070e-04,-4.524450461840133150e-04
-1.389866955918473736e-04,-4.544860323737794235e-04
1.333106652856006532e-04,-4.362950144036176854e-04
2.676626921455930097e-04,-1.070112071184144187e-05
-1.630444091726550066e-04,5.685432114055502051e-04
2.793066974307494899e-04,-3.630044464608707649e-04
4.218810208039923534e-04,-8.941854884018429804e-04
1.302566864746994941e-04,-3.460136152672191128e-04
-3.292644155879570706e-04,-3.052879860232065581e-04
-3.834353426197652454e-04,-9.580790446999664658e-05
-1.064754618113492902e-03,-6.338364650771371013e-04
-3.031522721058338508e-04,-2.964528001686840791e-04
6.588644140584659257e-05,3.138729168120063919e-04
-1.843752215753983515e-04,-4.193650775719659886e-05
-9.499541763862990457e-05,5.070980522252936315e-04
4.665674105342974549e-04,-1.151619597455398678e-04
6.118161195122306223e-05,-2.668750723489216351e-04
7.751876526158615421e-05,-3.449568255563446352e-04
-1.021211137439843311e-04,4.778284389792611104e-04
-1.938377024895599062e-03,1.759661264069302053e-03
-2.293252076656009195e-04,-3.252730797227137188e-09
-3.093296290937932861e-04,-4.771609581878711074e-05
5.091768640354156624e-04,-3.755766049674720292e-04
3.533462713459292748e-02,-4.358787633421283558e-02
2.006721979594700001e-02,1.377165834785220033e-01
-5.685145465225128992e-04,4.685790202905314628e-04
-9.278328010535696847e-04,5.508254265707918313e-04
1.165881409044726164e-03,3.123533294137078144e-04
-2.919722004518272179e-04,2.940519550223166531e-06
-3.029278786020565958e-04,-5.305017189904862431e-04
-1.771173007191405665e-05,-2.428151018991274064e-05
-2.667759548961881285e-04,8.869940568613411550e-04
3.071986727858520491e-04,-7.377404237769734406e-04
-9.717845518246228179e-03,-9.438186239960557819e-03
2.724960593121271511e-04,7.453267114890352622e-04
-4.804361442317650328e-04,-4.487411441563854560e-04
1.467518164865744821e-04,-4.127420822115459068e-04
-7.680418557418332032e-04,5.211560159222147819e-05
1.808062184225057122e-04,-1.488812583157859569e-04
-4.818897844684881006e-04,2.888485080850191223e-04
2.242231021348906712e-04,5.612162675534784111e-04
3.058989616949269580e-04,8.891397891396058740e-05
5.376611122596686165e-04,-2.607999188976701751e-04
-2.936969903625797880e-04,-7.505802207557713865e-06
1.657684904349996887e-04,-8.060320431696672058e-05
-5.853301466826701417e-04,-1.492988173668834519e-04
7.916951222222800213e-06,2.598727651686731275e-04
-1.574692477972171052e-04,-1.151415257619631418e-04
1.087928333147359793e-04,-8.686689422008918901e-05
-2.671752659603724074e-04,2.451831277612074840e-04
-3.830658903009345436e-05,-2.826622068660829371e-05
5.128146733446433889e-05,6.160618036549632619e-06
-2.346114778996807870e-02,-2.732260692785616445e-03
1.759947680582115148e-01,-2.457766172647345704e-01
2.345033929761212359e-04,3.061353200006613541e-04
-2.920011500392559337e-04,6.673140713196825692e-05
6.566396334115088033e-05,-2.279440347370330453e-04
4.274958623917983393e-04,4.296901237560053224e-04
6.972243982275179962e-04,-2.736731485669118046e-04
-5.787226466164695085e-04,-5.076119720028658255e-04
-2.508218234669532930e-04,-8.377028447158047474e-04
8.844898453087803513e-04,-5.761817189293662149e-03
-2.805130063446027722e-02,-2.903253875894677358e-02
2.359642776966537506e-04,2.529705895460914009e-04
-3.755304201852101547e-03,-1.714853106009982600e-02
5.652546485983591090e-04,9.485232302127068402e-06
2.837179814878745972e-04,-9.724637260630918003e-05
-3.552331346553642705e-04,8.905141259961611960e-05
4.698366776729887700e-03,3.744901425351703644e-03
6.213432628012123277e-05,-2.378756474797128525e-04
9.260747485406250297e-04,-3.739390197452193473e-04
-1.645227207435140870e-04,1.054256319357788597e-05
1.210796453203483300e-04,-3.156063078527263977e-04
-2.606965915244035007e-04,1.185738715472902885e-04
2.666660962443093814e-04,6.468153951133321820e-05
-3.082942501977574499e-04,-3.100497296658869689e-04
1.768782516128812154e-04,-1.659859478220913518e-04
9.432932151889200645e-04,-3.584650014836279763e-04
3.978755805078350609e-04,1.025510418996327311e-03
-3.336831227137701181e-03,2.078499542059953058e-03
-2.370778781940718048e-04,-1.588166540989289566e-05
4.785654937691079811e-04,-5.484620787074949433e-04
3.497771608712080737e-05,-1.021883227468112150e-04
2.858089878095989547e-04,-2.804846604519337636e-04
3.017363868194695617e-04,-5.158253160059962476e-04
-7.504686728236616242e-05,2.428449891212010634e-05
2.117098459461898632e-04,-5.667139297111352705e-06
1.506611205433876395e-02,9.643086649365788937e-03
-7.053973443117979541e-05,-1.203548246744729768e-04
1.257566513368260554e-03,2.877437258658930804e-04
1.086869552152267367e-04,1.454520507175893513e-04
-3.368874413219377227e-04,-2.242759245400944288e-04
1.312406714332177242e-04,3.352948206208443676e-04
-2.461606649818346673e-04,-1.280687779718912075e-04
-2.371669712887868931e-04,-4.545839456408353255e-04
-1.864060199859988651e-02,-2.935533001670794992e-02
-2.017435613972037923e-05,-2.030563762407398051e-04
3.440714289404979138e-04,3.103298135327326921e-04
-3.301984479814970303e-04,4.466585164360167316e-03
-2.936133202134034504e-04,-7.418630096869175230e-05
-3.759626633569710546e-04,3.824013169369586520e-04
-3.534798929071701943e-05,-1.017614979298668435e-04
-1.858005025932688589e-04,4.396876303363183994e-05
2.048118005469756894e-04,-3.091392984759807434e-04
3.208228956615464611e-04,1.037589218288754046e-03
-9.076246161844688692e-05,-1.623669965650903751e-04
-1.428564906020327019e-04,1.758479679675998446e-04
2.885446446761734548e-04,-8.448419361368535933e-05
-3.852993841350345707e-04,3.446841407136792563e-04
6.766649729762853676e-04,-3.963049288847037390e-04
-6.204239771916105536e-04,-1.308841014802309321e-04
4.372847157768162052e-05,-1.851781165214196303e-05
4.091140121423323599e-04,-5.463474388166889104e-04
3.019334127564034893e-04,-3.190780506584479058e-04
-4.097646008582798679e-04,5.620505870138618770e-05
-1.102988226026494428e-04,-8.989295306687930054e-04
-4.987236776069788437e-04,-2.527299173424289464e-04
2.359392597343812521e-04,1.099389694176881437e-03
7.242476481783388220e-04,-6.581704913471180711e-04
-5.789277871031148041e-04,7.068177707567237364e-04
-5.549230289003374448e-04,1.125052439570797379e-04
-6.500824238405010676e-04,3.050630660150313892e-04
-1.273770485258242309e-06,-5.170873730852698020e-06
-1.935440040091624433e-04,2.189089112188500209e-04
-1.472055193611909328e-04,4.506751763432392636e-04
-1.074415607657446204e-04,-2.476439501588501458e-05
-1.456238060701416257e-05,3.972392160187108632e-04
-2.549081503238855885e-04,2.104001611901607654e-04
1.930491141642155036e-04,6.386780298733255468e-04
-5.421701619837620374e-04,-1.727225010572337667e-05
-1.572444800497820852e-04,1.781224589133385299e-05
-3.782608692409304826e-04,9.483332695930276322e-05
-1.144411632683595229e-04,-3.068826932163158731e-05
1.641555753709620323e-04,-5.494296619689713248e-04
5.507516346445087523e-04,2.815426424248772611e-04
-7.518383126973368624e-05,-7.233751794727847294e-05
-5.801075447424234319e-04,3.001423035703838240e-04
-6.851407963281135743e-04,-1.541620002441706561e-04
-4.350854654101955028e-04,2.496212720465811183e-04
2.748111424162576828e-04,8.695926753822932551e-04
-5.290776491729359506e-05,5.600679745357163694e-04
-1.138965829898721117e-04,2.737611086997424276e-04
1.854127306742661609e-04,-1.789541735725194433e-04
1.636473574170381592e-04,-6.822844354741697335e-05
-2.038535341636110634e-05,-4.680711583895017891e-04
-4.294176602232896932e-04,-3.389212214127579228e-04
-1.469194006461389530e-04,-7.808153138191778356e-05
-7.864566911115178881e-04,1.147619542653926925e-04
-3.004522512180344824e-04,3.202223324115660986e-04
1.258395576351799066e-04,1.128440190166344102e-05
-1.267596833812393003e-03,2.632398615064851958e-06
-2.229775837279392929e-04,-4.602125729793806212e-04
-8.770314096457569987e-04,9.437175060386867069e-04
-4.912047955599117529e-04,-3.638400466338857038e-04
-3.212745743397653364e-04,-1.877661611496795561e-04
3.399224565298211514e-04,-6.287995072887445211e-04
6.675810055353591623e-05,-3.588621092711545102e-04
1.925326445862869673e-04,-5.776072948689125455e-04
9.674280131213963251e-04,-3.911433359638966686e-04
7.130484795124290658e-05,-2.316784077838252617e-04
-9.264024337207467071e-05,3.729779145717297808e-05
-1.153444220246622315e-04,2.562510396288738960e-04
-2.434690220671014381e-04,4.760137386754576178e-05
5.775277496096296740e-04,7.367670497459151121e-04
5.696675808320402938e-05,4.284258712002042817e-05
3.251487957944019310e-04,4.076284855154801360e-04
1.046664058082778678e-04,-2.782588304795737054e-04
4.470204177752655126e-04,5.637558766357288371e-04
-5.609985987754878220e-05,5.445837234227749856e-04
1.746899433898105054e-04,-5.173360081935329509e-04
-1.294530124874320365e-04,-1.460386147801667701e-04
4.365887443957631444e-04,-4.258782393672519624e-04
2.719070637484063448e-04,6.239146775163878717e-04
1.035228356580848415e-03,4.187164709867478331e-04
-3.985444477387039392e-04,-1.269209355364524087e-04
-3.402512648776833911e-04,-3.054988846103670217e-04
-1.973964039355123362e-04,8.265270043013184394e-05
-3.810460870449768820e-05,-1.458012328565411327e-04
-3.333617985241732256e-04,-9.619671803912824921e-05
-1.693394634694435005e-04,-1.183507960036330608e-04
-3.926008263707692330e-04,-3.906769196165921980e-04
-1.544023623561512862e-04,8.912539966267910225e-05
-1.012412919922362186e-04,-3.008254740896138739e-04
-2.180915188792488491e-04,-3.314834845329077038e-04
5.432293228389080582e-05,4.195015463232700101e-04
-1.676487495261439820e-04,2.628127267485256885e-04
3.169401600644356485e-04,-4.341829592059228316e-04
3.522063667624801228e-04,-1.682411522075849325e-04
2.160308727007413470e-04,-3.819380589971308176e-04
1.273948846612839737e-04,-1.786690803302782703e-04
-1.333265904665643374e-06,2.214999831588749515e-04
2.809356647911245538e-04,3.071873679689313109e-04
-4.730700241769616706e-04,3.412157495405740762e-05
-5.185115891376419197e-04,-1.542892809035674418e-04
-1.011785070220219901e-03,-1.389698997417923457e-04
-2.737469913774382086e-04,-1.474661833325829072e-04
-2.549948274991835628e-01,-1.843028345000868595e-01
-1.757942622263617772e-04,3.894169610879758730e-04
-1.938222306791847810e-04,2.657770178994538104e-04
1.503523563826991759e-04,-1.083611904103184954e-04
2.052189233011829177e-04,-2.542897084153535503e-04
-3.768258994779779517e-04,-3.005299388280113193e-05
-7.282051188107551559e-03,8.598597261780801387e-03
-2.314980121339543892e-04,3.072632009185079075e-04
1.891177281002410810e-04,-1.316955114279264624e-04
-5.357254465978873725e-02,1.734424673769801098e-02
-8.504613198136127140e-04,2.722038117225545110e-04
2.963315436203066400e-04,-4.020105161284744945e-04
-5.079620330570266658e-04,-5.255369034879601780e-04
1.528468335703216205e-04,9.046025534122969017e-04
1.475794224644203304e-03,-1.395413000193119904e-03
6.524174711659847794e-04,-7.277034204737659756e-05
1.155556432884011567e-02,7.241764538506838440e-03
1.509684535068152906e-05,-2.850367886419289559e-04
-1.659356614884476791e-04,-1.708187625890520084e-04
-4.073331129713964093e-04,-7.119688593677026478e-04
-5.235844716041227614e-02,8.970966110370635904e-02
-1.091365928186808837e-04,-1.215477295575583917e-05
-2.264980066891079523e-04,-3.640180871396993972e-04
1.379681370002960568e-03,4.075996630959044910e-04
-4.410398677240445309e-04,5.508609534139240031e-04
-6.274638424686399679e-04,-2.885918092113849546e-04
-7.048973526480499865e-04,3.416353114645353877e-04
5.179060063750798781e-04,-2.294283395453946487e-04
-2.256489627429326896e-04,2.284341616491237625e-04
-3.647282140421935102e-04,-1.519622199700732066e-03
1.485960720425959052e-03,-7.160570044971350644e-04
4.436811309001902331e-04,-5.187022216447142011e-04
-2.355661439445774254e-03,-3.311145088509146774e-03
-3.059351562180429138e-04,1.745348955341291183e-04
-2.079197856144645001e-04,1.452996683088852753e-04
-1.159028492868544280e-04,4.942601764989819346e-04
-4.002293991322203770e-04,-9.070382481323588830e-05
-8.881383110052684269e-04,1.858720084700075850e-04
-2.863309423289283262e-04,-4.354773149256975311e-04
2.602751480469636019e-04,-1.076663535749891338e-04
3.163805059514348313e-04,2.398324461670319667e-04
-3.474303490726458692e-04,3.893657625343181013e-04
2.323322805568265746e-04,-4.235768542202280251e-04
2.461489441933156574e-05,-3.647719640109808046e-04
-1.576432883928883871e-03,4.789092426110659129e-04
6.227102381502151035e-04,7.561499346352809669e-04
-3.663586201274074644e-05,3.009587329959047914e-04
-1.144967793513460659e-03,7.003927802672100947e-04
1.126908118346407929e-04,-8.195680583398437904e-05
-5.330983096771901852e-02,2.206223441845338307e-02
3.293738238300459356e-05,-2.364534812838261276e-04
-4.311285967895313906e-04,1.065360495082165752e-04
-5.888604208273112272e-04,1.350647124451497027e-03
-5.955757701293050432e-05,-5.427425705081573466e-04
6.137705170653419591e-04,-3.987160292157348345e-04
6.995416307667976560e-04,1.408188741556678201e-04
-1.525549781490689177e-03,-4.779965786633328089e-04
-9.322903187969079327e-04,4.396523142810739959e-04
2.449828465695499014e-04,2.667643121754753122e-04
-9.137640033945992055e-05,9.386206762876705403e-04
8.812018643918928832e-04,6.684114571384238432e-04
-1.780715194704523109e-03,-2.584890784735671253e-03
-1.019128059100278061e-03,-1.056176506714815973e-03
6.152614104837660948e-04,-1.433185420986995333e-04
1.806115202569183930e-03,-5.237036477863199566e-04
-3.331740437428735730e-04,-4.665019647577689239e-04
7.069410197502560026e-04,-3.408339869323553060e-04
-7.089666914698035394e-02,5.641313919945318937e-03
3.846348105144063679e-04,-6.757083470290171923e-05
-5.680579983054865213e-04,8.064244178744762624e-05
-1.748860997740621056e-05,7.801659833733553563e-05
-9.412000810444785836e-05,5.466892047102857744e-04
1.912499996196418068e-04,5.193369693182026516e-04
-1.321305618248287510e-02,-2.449689044656237595e-03
4.968867661262624594e-04,-1.854613305862844402e-04
4.707468824065897685e-04,-3.993480546591139039e-05
7.677044798811492703e-04,-4.693219404407891824e-04
-8.409787799537099453e-04,-1.076795550678811327e-03
4.757659667764359344e-04,-1.907400194648055879e-04
-5.926686537492966388e-04,9.989823896673551704e-05
-4.970670565893520361e-04,2.920946901812145470e-04
5.416169782141290294e-04,-8.608611406178399666e-06
6.241101051063813751e-04,-2.836857199422126085e-04
-7.665618999928765784e-04,1.172467383347228264e-03
-9.173604962096191693e-04,6.485970244101651842e-04
-1.486771722407525035e-04,5.095727719186110549e-05
6.119184563667115972e-04,-3.624998488158978995e-04
9.825641383381053008e-04,2.046722866584573420e-04
-7.061450925023694076e-04,-9.868248607152300261e-03
-6.519419770120556340e-04,1.923097841962722113e-03
-7.561148176445848558e-04,-4.027785124343678997e-04
-2.068653518852614406e-04,-1.085964515353007474e-03
-3.097146219818139225e-04,-2.132419017281409791e-03
2.860605314715806481e-04,6.640398562824592751e-04
-1.659746875928211698e-02,-5.912896844440390653e-02
1.214888949483779483e-03,-1.496064457648739075e-03
-2.160858597548723052e-04,5.923057711919534925e-05
4.114923082907010290e-04,1.219738167984000783e-03
3.402675982804179372e-04,-5.621143661904340469e-04
1.173489625310668045e-03,-2.544779228911735539e-04
-9.529627396922118749e-05,-1.390611460008157622e-05
-5.088446302844097831e-03,-1.080767517745065409e-03
-7.060769151773457785e-05,5.929532621058798735e-04
-2.830227534545101697e-05,1.057680210284911307e-03
1.487897916740194004e-02,-4.363289403873015990e-03
6.352155945185287630e-03,2.650501649060159337e-03
-3.938363632184810337e-02,-4.877309005682090026e-02
1.647537881966709651e-03,7.763789758418001197e-05
-4.807274608562916800e-04,-8.533739833919157941e-04
9.503215816657482927e-05,3.212282460598107187e-04
5.022454625736164687e-04,3.448200587520889503e-05
6.565708102925413812e-04,6.424089529675590512e-04
4.195743408425526080e-03,-7.936750243747285605e-03
-4.783235696676051835e-02,-3.672521497509113973e-03
-7.981852396986932607e-02,-3.548493937916254171e-02
5.541999825667327621e-03,-2.930317760810326622e-03
-4.896406319399908497e-04,8.634149222246789582e-05
-4.560187786268697771e-04,-4.535481391171322230e-07
3.104993557970474739e-04,-1.079845217296699798e-04
-2.114471328714057964e-04,1.294061522014562357e-05
4.496618745373425711e-04,3.927056124845192402e-04
-1.387416695325844034e-03,1.154621187593965525e-03
3.720464359118002629e-04,6.897969880759858381e-04
3.412376540111437839e-04,7.999867781154429902e-04
1.332621311423267145e-03,6.451893383327914489e-05
-4.176321319562653340e-04,3.402329104593130758e-04
-4.779099933026743192e-04,1.491626474525096753e-05
-4.221179784524616008e-02,6.657439807883464358e-03
5.448390794820724865e-04,1.461771726625306096e-03
4.494789440262640483e-03,-1.614274872461059739e-03
-1.158068085726704326e-02,-1.645139637281657283e-02
-5.139406444083532326e-04,-1.698173920330809509e-06
-1.201845236985444774e-04,1.334681647197316732e-04
5.550943072466227649e-05,-6.213033552754094850e-05
-2.644399252960684377e-04,-5.723035844300230655e-04
-9.223764579455454504e-04,-3.026640473312351915e-04
-1.448154418069817154e-03,-8.252800741603632476e-04
-9.377420960860677806e-06,-1.424911014542388241e-04
-4.964078077561407624e-04,2.421736257916932186e-04
-2.805340015392623508e-04,-1.202880056378765700e-04
-9.513387337459652772e-04,3.577152043384265907e-04
-5.142674097458109581e-04,4.653025622763811201e-04
1.074057274095717700e-03,-3.616441166064332584e-05
-6.275372839286481874e-02,-4.666745702111877586e-02
5.942532286253036835e-04,-2.947620910191505578e-04
-3.663005540514876449e-04,7.034221309554510070e-05
-9.001264647710538989e-04,5.689803666398710280e-05
3.036271797292879049e-02,2.557788585160411174e-02
4.224569731092875895e-05,1.669420018799572106e-04
-1.294349556542518807e-04,1.729464759004966301e-04
-4.765689832672018872e-02,-3.871405535915278806e-02
2.170423628161492324e-03,-7.393210428138654406e-04
-5.206729160359390020e-05,-1.551602960020227772e-04
1.234568724137405718e-02,-2.233838840864234287e-03
-6.114248922686519282e-04,-8.621369922808570915e-04
1.581270406058174786e-03,8.656408256761360638e-04
-1.755165317977365079e-04,1.581859582454026546e-04
-5.212929468888880539e-05,-5.961555976543395384e-05
-8.282118828806989868e-07,5.275157072874653514e-04
2.275814666444951417e-05,-3.770868180647124349e-04
2.585480947098463484e-04,-2.047946390121029481e-04
1.528132131605216388e-04,-6.378341856004789070e-05
1.236372007681422935e-05,2.016417228351738400e-04
-1.288334865836234823e-04,3.358570914504059026e-04
-2.991247590797970705e-04,6.213879514415445197e-04
-4.567258629108712320e-04,1.073341583551521783e-04
7.121938486667575726e-05,-6.281131040160578332e-04
-2.739362346769658087e-04,1.683781371578194509e-04
2.408815479409055771e-03,-2.896071820064612633e-03
-1.584252087077338636e-04,6.718944354939817253e-04
2.682652912094751611e-04,1.328090143990698933e-05
-3.789427118434530436e-05,-8.477953748407940208e-05
1.681969297547477335e-04,-3.813897908296039684e-05
-3.352112340834154927e-05,-1.476716323410972253e-04
2.725066007696152581e-04,1.046315807280093359e-05
-1.612786735258205006e-05,1.534264196248508140e-03
1.573286303006616617e-04,-1.407599740421882001e-04
9.071500051868474496e-03,4.797347558861731615e-03
-2.074487850873998722e-04,-6.959356905716182105e-05
-3.498089249036758462e-04,1.086800959790140122e-03
-2.506978663426375980e-05,-4.887817253968262330e-05
2.583050373104696157e-04,-6.869384991733232834e-05
1.233155575743041181e-04,3.717946604661768648e-04
-5.452365247421264282e-04,-2.433939046645172948e-04
-2.037195424145967913e-04,2.336399897982908860e-04
1.112000159305021085e-04,6.577550355118213414e-04
-8.928192710700385854e-04,5.389869153539512524e-04
-1.933130091025910739e-04,3.204418143838328077e-04
-2.546723240940491141e-05,-6.758294461525844645e-04
5.156865863189973633e-05,-2.277317979273686612e-04
1.379068234742802934e-01,-1.558014969358976695e-02
7.191542608060712272e-02,1.324940669388202097e-01
2.747843621001005987e-01,1.705860663231670848e-01
-1.087053129735453781e-02,2.463263609718630703e-02
3.812428695865873688e-04,5.316091974536617639e-04
2.709002977693793501e-01,-2.552739575951035872e-02
-1.569450488703806384e-05,4.377711041993041942e-05
-8.621271517909432800e-04,-2.893694063678283918e-05
2.582355142027329287e-03,1.361283576118822378e-03
8.831533056899763465e-03,1.704580374169666415e-02
-2.092733610143371586e-04,9.372301104395722247e-05
-8.811097843419486318e-04,1.455022612530174845e-03
9.865863309585297703e-06,-8.431095170001502996e-05
-1.304807214907193879e-03,-1.301229282641578862e-03
-1.435133118599628711e-03,2.030070829779437140e-03
8.651358531986420841e-05,-4.352708100066967787e-04
-9.919843341105582385e-04,3.026195855951615329e-03
2.981164528894564986e-02,1.594001003521986967e-02
1.933499902210113566e-04,-2.165778539276667740e-04
3.434165447510227533e-04,1.744796704858316580e-04
1.739397024537553144e-03,1.016227711284991192e-04
4.812898781378370018e-04,-2.392590651817967488e-04
-3.007346661398707221e-03,1.999147518957338637e-04
-7.458205724296018864e-04,9.956077758217221022e-04
9.524061798757829580e-05,4.639962601396768158e-05
-2.391152248513751257e-04,2.634084639435131875e-04
-2.678965502012625646e-03,2.611594743482896627e-04
-3.113046379406732549e-03,-9.410537287273231313e-04
7.435808788406208342e-05,2.232541597565313146e-04
-2.682882683536930981e-04,-2.632876429683313701e-04
-2.847964879478219881e-04,-6.166570470545960881e-05
7.859283866694303892e-04,1.882906397293754319e-04
6.431298192305777150e-06,-5.318964973217041271e-04
-3.591883421548331973e-04,1.505417168309889297e-04
-3.532367582139733949e-05,-2.746512864269658009e-04
-4.150208298231734946e-04,-1.057816749738149545e-04
-1.253176380808117187e-04,4.247074490359872378e-04
-2.525378049365646727e-05,-2.502740550445742415e-04
1.591603978503179173e-04,-5.158470054647745403e-06
-5.859100431005163532e-04,-1.979853179373339538e-04
-1.923428090497731897e-04,3.775253923614219184e-04
-2.661407438458646742e-04,-4.170441518375836714e-04
4.711340752275236521e-04,-2.399273843093949578e-04
8.309317421645435022e-04,1.186861089818837473e-04
-3.240458835240026762e-04,3.663685797624210137e-04
-4.016495462975469837e-04,1.900491816747911736e-04
-3.171966217677685143e-04,1.061756194092120512e-04
-4.390251891217624150e-06,-3.048068896687600713e-04
2.460908730157852840e-04,6.150319222219398059e-04
-2.163451215577350992e-05,-1.987582569882302805e-04
-2.418283781128299217e-04,6.640429690907781880e-05
8.549332222258097976e-04,2.067528438455145843e-04
-1.843758050689937519e-04,6.625778642120073178e-04
-8.831530784468638519e-05,-1.685346945648519724e-04
1.392393000744592175e-04,-1.032914023917607380e-04
9.433415131448002989e-04,-3.489046164871038034e-04
-1.523690486877000890e-05,3.155274508686123185e-04
5.412348183027637817e-05,2.087448273805337610e-04
6.372156596891672016e-05,9.635419358007839188e-05
1.784896770482749659e-04,7.766411270138985374e-05
7.081846903073817263e-04,-3.344362021395750110e-04
-2.020250107908501923e-04,-2.951986504703204986e-04
-1.447721179818530019e-05,9.466368771457542991e-05
-1.912436211910294431e-03,1.581064986438085592e-03
5.563803686013542554e-05,-1.989476179374146075e-04
9.024215718730544842e-04,-4.885480792127217756e-04
2.512559242171516819e-04,-6.387009182793553809e-05
-5.200694715765960888e-04,-2.283389560888845712e-04
-2.717730384429194223e-04,2.797096670005166149e-04
-1.696657694797987497e-04,4.236030014079602722e-04
5.017757582405379425e-04,-4.197599578818597319e-04
-1.205915570256241374e-04,3.228689570234272751e-04
6.982739111769207402e-05,-1.685960597653301868e-04
-8.888891367379662392e-04,-2.341013508792365685e-05
-2.853731572628260865e-04,-1.541135985537104951e-04
3.529645240108212701e-04,1.837431227033864249e-04
3.145240490148247504e-04,-5.833574622431943017e-04
1.544021729086072895e-04,-1.993740332558538531e-05
-3.988611616324249753e-04,5.280211351591716611e-04
7.451669517406955725e-05,-3.369485465730468051e-04
9.589487276244339795e-05,-4.686093058873251117e-04
2.230146214612160416e-04,4.270823684566362019e-04
-2.410108744209844573e-04,-7.203559844116010872e-05
-2.686518319285400138e-04,-4.220728157661839672e-05
4.807509123466845050e-06,3.152133039449193691e-04
1.903187865224884555e-03,-1.541494987949214648e-03
-2.411730227289711470e-05,1.908283300215132808e-05
5.120215350059274546e-04,-3.520294100722363268e-05
-1.259460476332566930e-03,2.449689020126164852e-04
9.119208404048232710e-05,-3.699886222404202905e-04
-5.285534504767991663e-04,2.094638866496648859e-04
4.442049570820356041e-04,-1.814664196717446218e-04
1.060419127590210992e-04,-1.894988631183590593e-04
-9.650677768370560621e-04,4.321908633819550078e-04
-7.622014277429184533e-04,9.702193593165351325e-05
-4.524527692832577309e-03,3.793051597395893579e-03
1.524848314518101539e-03,-2.664646292126481020e-02
-3.948649699586136153e-02,1.341762372747974663e-02
6.731899608842631432e-04,-1.508767599189288189e-04
-5.950022575279427517e-02,9.275475557197120080e-03
-1.096109193416841196e-03,-5.774064431463642568e-04
-5.639953591245807371e-04,-3.650139570654134893e-04
-4.802583842057412322e-04,-9.918918046539578924e-05
-3.122177922058125559e-04,3.822023628828128804e-04
5.159707960183484944e-04,2.985629376017981135e-04
4.682306218431469972e-04,5.122044359143882895e-04
-4.048431327573090086e-03,3.627134179289901242e-03
-2.314567951179199220e-03,6.028885422148059234e-04
9.241977185486215107e-03,-2.755579636687344874e-02
2.219822633386750205e-04,-2.977457497766807743e-05
8.890044434908705344e-04,3.420555962131446165e-03
4.354513725563283894e-02,3.174639621554613267e-02
4.857184475030853560e-05,-2.813035016170917224e-04
-8.549528428486178537e-06,-3.239301365308655490e-04
-2.813955655954485970e-03,-1.582963172223093590e-03
1.717551877751639325e-04,8.722413151849351710e-04
-3.576753578444322613e-04,-2.647682493225054275e-04
-2.278182398326277901e-04,-2.207385972753875139e-04
1.272196330802611609e-03,1.432190044021067199e-02
-3.925779005738844196e-02,-2.741112402165674783e-02
-1.742541314356180898e-02,-1.023331682444557876e-02
6.952779189762396195e-04,-7.944869321969017656e-05
2.182933023006870517e-04,-3.520544954921521512e-05
5.900634539328853366e-03,-3.191472948103185039e-04
5.535217778310726785e-05,-1.613033072231097288e-04
-4.994392956972033089e-05,5.120288138966333415e-04
-1.843396339074113697e-04,5.654852588808511205e-04
-4.494949751865195248e-04,4.964361393393053844e-03
1.584958784219680974e-03,7.073712619687271344e-03
-2.701375934681768290e-04,-2.307854017328522865e-04
-8.878196242154723665e-04,6.950540250727526475e-04
-5.171517052174710177e-05,2.587829300080073894e-04
3.615725332002354020e-05,-3.450619570994055570e-04
3.665644531856451479e-04,-5.164219740302504252e-04
-2.087340934463656603e-04,-2.198181053707317680e-03
-1.482152854307448820e-03,-2.096955603927630680e-04
1.445913063766531394e-03,2.458219653361281079e-04
6.117336800226282339e-05,3.098667788419700447e-02
-2.622746254323181890e-04,-1.081991927510461042e-03
2.867643740929871183e-04,-3.162872892029014297e-04
-3.403798620498122048e-04,3.121228112116379203e-04
-2.972932400551116542e-04,2.516241887928279846e-04
-1.619945119614285296e-03,6.579077693059159557e-03
-8.261741783273944583e-04,-3.014227126393780932e-04
-5.478302267633710114e-04,3.228993617633134513e-04
5.795473383481420651e-04,-4.323600736547797180e-04
-8.874357622386710564e-04,8.488313571680252225e-05
-1.005766209459049883e-03,1.963259175995930579e-04
-3.674551391807391837e-04,-6.061990621926528029e-04
2.013387499825579959e-03,5.845044277722901511e-04
-1.910385055871308135e-02,-4.643121333485124985e-02
-1.495479527270845716e-04,-2.680985135791150880e-04
6.305313338692268999e-05,-1.437195900427836728e-04
-1.400716831907052040e-02,-1.465364171843643384e-02
1.245773777375310974e-04,1.094853380220174534e-04
-4.067797836759350083e-02,-2.210064206338897483e-02
-4.840117571111169758e-04,-5.728047721174288689e-03
-9.345258063712660879e-02,3.335860067198013340e-02
5.188835561483291434e-04,1.044333367186022138e-04
-1.574689267804196781e-04,-1.999805289987833016e-04
-5.505782879721474203e-07,-2.343682739344923210e-04
4.835735092895128429e-02,1.446981113346036407e-01
-4.826521522359301652e-01,1.507487706839671579e-02
-5.623395076288783406e-02,-2.932716612128019595e-01
-6.429712645454013125e-04,5.831738099952277730e-03
1.996733259900395252e-04,-3.571966921096209166e-04
1.217620722634612509e-04,-1.797255872590850477e-04
4.589093193479063209e-04,-4.054250977452780735e-04
-2.440528921126855315e-03,-1.807962262622242564e-04
-2.632877827944798597e-04,-6.623400897202688707e-05
2.113371930503684152e-04,6.039393028366039440e-04
-5.296796790599482682e-04,3.640220020383366003e-04
-1.551944209102228459e-04,3.600810059187631979e-04
8.164608437085466843e-04,-1.612986443256384840e-04
5.628545221637316345e-04,-4.399088236110873474e-04
-1.952406145710187035e-04,-1.589587734118498791e-03
-1.845586904191433720e-03,2.569669067805287980e-03
2.672537184168999281e-04,5.785755988707548216e-05
2.266731960259869090e-04,3.490372227686877864e-04
4.944271001076954363e-04,-5.719977970684643779e-04
2.261673091123226481e-02,-3.210016398536774760e-03
8.514253663984889696e-04,1.796021534536760764e-02
3.590626064146996720e-06,3.395506237672416753e-04
1.404322554462345181e-04,-2.522128046694272581e-04
-1.167297803744345684e-02,3.190198890472031867e-02
8.261329300476707516e-04,3.491644718466539862e-04
7.431493211751548540e-04,1.623822706567686153e-05
-4.587252057633331263e-03,-6.584335838834031503e-04
1.847972764439929677e-04,-2.604850361341078829e-04
2.549084420674862517e-01,-1.630513794059708366e-01
5.915658208667040288e-05,-3.375972717012584701e-04
-2.521382656340789732e-04,2.621552574350045065e-05
-4.171362353759376250e-05,3.250099970107470917e-04
9.367910003644427117e-04,3.110715906923618352e-04
-2.155270495234024264e-05,2.182529760234354365e-04
6.267725579049164878e-05,-2.138511313660431887e-04
5.406341739110867589e-05,-2.827809900431510308e-04
-8.228507161985990949e-04,3.162372401271096745e-03
5.520984028641757850e-03,-5.945894680398874140e-04
2.897750710310758606e-04,-2.704720162516797521e-04
-5.184436481419590990e-04,1.125467095542320370e-03
-5.736684874432233143e-04,-2.670504168600125591e-04
-2.437887433024827331e-04,-1.882137339142858255e-04
3.261593201509319345e-04,3.814143583547457300e-04
6.678499074447213435e-04,-4.329086308615954083e-04
-2.422937732404429538e-04,-2.519454677530235439e-04
1.940649332709709907e-01,2.882319724712590139e-02
2.115962914090093860e-03,6.274661714554181403e-04
5.102806554964198389e-03,9.321284516831644532e-04
1.407142629873466434e-04,3.882651297393181896e-04
1.127896115029311031e-04,5.168443479503340729e-05
2.014355870149597241e-04,1.051492609904869591e-04
-1.922653123157889836e-04,1.824226540434744726e-04
-4.041999832952614547e-04,-1.329548364991663090e-04
1.793451607238579946e-04,8.223524312551384961e-05
1.712905711262410215e-04,3.119826670236796533e-04
1.055630068600538120e-03,-7.588233164197306360e-04
5.142943539118307152e-04,-1.247855288703537664e-04
-2.100360115880566924e-04,5.513870714493614671e-05
5.161358484383991039e-04,-3.698533363073724239e-04
4.067395115491122433e-04,-1.772122128758746868e-05
4.542843411483548212e-05,5.843330794328150659e-04
8.998539242094116028e-05,2.544510844275391179e-04
2.974250679651262901e-04,3.463179102111897971e-04
2.181902509129965667e-04,1.920318632204649146e-05
-1.867921165572557869e-04,1.502999884055333422e-04
-1.314851732018269641e-04,1.221501338372146003e-04
2.852066748407890780e-04,-5.250480082377313165e-04
5.878820987054616306e-04,2.524875222108974326e-04
2.370016716913359023e-02,-2.614516159988254304e-03
1.414899737716811788e-02,4.053413176976831261e-02
7.118636323587906878e-02,1.224845533370305106e-01
6.504358687075952050e-02,3.513850004005381750e-02
-4.525657314182120628e-04,5.052075257233021614e-04
4.403086393305313188e-04,6.523191642793121046e-04
2.219523264385415273e-05,-1.706112226680007202e-04
-1.266778532202524868e-04,1.072779448782949059e-04
9.518164587833759769e-05,2.875719680376873110e-04
2.125311088548080497e-04,3.905200292535014714e-04
-5.094176948805190838e-04,7.880115863566183713e-05
-2.691732434616246894e-01,1.772754395405494732e-01
-3.494938671475968745e-04,-2.764326690514562306e-04
8.155420788584853535e-05,-5.160324716299113761e-05
4.844413672626097611e-04,-1.220821524410694962e-03
1.757314011044195778e-04,-1.814588763188178461e-03
2.398257821416984554e-04,1.169773081965455293e-03
-4.129161106973309558e-04,6.735629162796623868e-05
-2.685984563290940786e-05,4.796182875403667487e-04
5.614274234513177151e-04,-2.128507102193233716e-04
-3.674656569468211405e-04,1.507386407690958024e-04
3.400713014531543129e-06,8.265424264146351984e-05
-8.779038721769101485e-05,2.407267669370864824e-04
-1.833589222360725859e-04,-9.154930006480138400e-04
5.117276105761818603e-04,6.696955304713041353e-04
-2.392262748035660358e-02,1.844075811644721105e-02
-2.103274190448896970e-04,-8.130672531195184006e-04
4.377839517498413249e-05,1.490862482827829934e-04
4.736395990535194193e-05,-6.903741913074026458e-04
-3.750602776768202640e-02,4.217331029249973828e-02
-3.769782600337168708e-05,2.411119528306809425e-05
2.292744195961724917e-04,-1.646156479405801914e-03
3.180511048246808387e-02,-5.778627623894803250e-02
-2.055180860129780915e-04,3.048583980501548768e-04
3.055366122891413350e-02,3.093864506527441507e-03
-5.065226750689055812e-02,-2.983810857186448492e-02
-2.216136626198337656e-04,4.914498261654433797e-04
-1.398384618090424240e-02,-7.328252191766691445e-03
-1.397736810610577477e-03,-1.118371472555743399e-03
-2.921595531908301722e-04,-3.133383016647242072e-04
1.752826183394893544e-01,-1.490631686464978858e-02
6.540488366208034338e-05,-3.256587389375175030e-04
2.579083832029374651e-05,-2.134780138498192049e-04
5.006509979395129799e-04,8.410651578480146326e-05
1.348825413082887885e-04,3.329999229697498371e-04
-6.873015755767097890e-02,-1.065437793831748164e-01
1.036290686620043388e-04,-4.038261561092780982e-04
-2.511246997476544902e-04,2.034275316953923604e-04
-2.105944114940538209e-02,1.053131204507400456e-02
4.800400709652429508e-04,-2.147557166506723853e-04
-2.884458224049650044e-04,-1.674659857879725970e-04
3.716540345720313978e-04,8.770675131398505541e-05
-7.509868816640863712e-03,-5.858016949962027188e-03
1.752548877863155906e-03,-1.930279041294176868e-03
2.755564044589023398e-04,-2.348807256880029628e-05
-2.419996639337122465e-04,-6.793814872509024464e-04
-2.178602110242043545e-04,-3.108365315836650431e-05
-1.007103466933291589e-03,7.071133897737529777e-04
-2.930241699130956023e-04,-2.216130182377128882e-04
-1.376936343784292832e-02,3.351798960512833783e-03
-2.897058091501955590e-02,1.330659242919027437e-02
-4.252558836065679936e-04,1.220974660015308408e-04
3.870068308589748969e-04,-2.259484278440477732e-04
3.988268618062320832e-04,-4.634064754210661503e-04
-2.765172057392358863e-03,4.381135659587075473e-03
-1.521270973993062061e-04,-2.196527101554522494e-05
1.110828093412275050e-04,-4.192400901635170377e-04
5.582291110184408982e-03,1.196826297379829105e-03
7.856971380437201410e-04,-5.851394744272846041e-04
-2.534237479834774726e-04,7.423103447591728019e-05
-1.388534655704764652e-04,-1.349931321928781784e-05
-1.960539332645148101e-04,-5.233579172856198678e-04
-5.860413905063704401e-04,1.397749208992587772e-03
-1.861648656729090415e-03,1.579561115260209089e-03
-9.468158483913268570e-04,2.771734363825089286e-04
9.964561079199639286e-04,-1.183698094932564206e-04
5.842596560974221370e-05,-1.434559765508398822e-04
1.755878924235945205e-04,-1.319184522585907862e-04
-6.461356200862904131e-04,5.325591426629337072e-04
-6.159652264623084565e-03,1.043149618235124712e-02
4.535876425792548130e-04,-1.155469287627785391e-04
4.336942440326511678e-04,6.334156170022526948e-04
-1.780714363966143167e-04,-2.896781350999723609e-04
-6.498262570979784812e-04,-6.677913426457880892e-04
8.182585946645548874e-04,3.432777583421183355e-04
-1.624709469119556195e-04,-3.714984979130982841e-04
-1.733972714232779114e-03,-2.261502782322457553e-03
-1.126307760356383544e-03,1.605774677266098372e-03
5.178580790525999164e-04,4.379096666915444167e-04
-2.800221027382792521e-04,-1.323256285583800183e-04
4.898673654854061854e-05,-4.318658598607624121e-05
-5.498223725763264069e-02,-1.803140292048051596e-01
4.805762110360230384e-03,6.254086072360542752e-03
-4.238333009314165095e-02,-4.515301816183054512e-02
5.267742978659257537e-04,-3.521145429810911302e-04
6.297878168536604837e-04,1.338537130350393126e-03
1.234351631790399145e-04,-3.866875820605637890e-04
1.045446653224920124e-04,3.001718349797450778e-04
-2.406407351334889297e-03,-1.738433456516417716e-04
-9.267693636104725992e-04,4.623702618481126706e-04
-2.943619395978705131e-02,-1.205731356034340368e-01
4.128916274819122850e-02,-5.466034649699617887e-02
-7.134531620307416489e-04,2.170454567418179438e-04
-4.813080527781283781e-05,-1.550863686436825277e-04
5.370747061511167621e-04,4.505663704536326227e-05
-9.073126660085320593e-05,-5.616223160643474483e-04
-8.880477919411793996e-04,-8.424729935785308993e-04
-3.744146093425511097e-03,-1.754939108042911228e-02
-2.492077835563507801e-03,-1.003869935631161638e-03
2.200145422228742993e-03,-2.392756286842328758e-03
6.610861821831842677e-02,-5.066395241626408391e-02
-2.308547030050208393e-01,-1.039727639394326109e-01
1.613533293340119234e-04,5.023154095858364159e-04
-2.585063176578930805e-04,-5.882825784572115772e-04
5.240557176409629814e-04,5.295974226848737879e-04
-2.395574068538497067e-05,3.136249668286908692e-04
-1.686582598548033718e-02,1.051736865878575601e-02
-9.017169987370764097e-05,3.825402122787577839e-04
-1.745758683448326298e-01,-1.834916102392017689e-01
-2.513703763539674682e-04,-4.116721682290981035e-04
3.624149079440535520e-02,4.191445204522097762e-02
3.655472629807692692e-02,-7.173530740958378648e-04
5.158830223135594251e-01,3.150968052728043700e-01
-1.043657922474843257e-04,-4.571874209770237065e-04
-9.490912153974598482e-04,9.421386492958762858e-05
4.736525597481979627e-02,2.046792120638804557e-02
-2.259982080931877146e-04,3.133884288168970324e-04
7.368310076524599468e-03,-5.244958466096668465e-02
8.258625974663563523e-04,8.829252330413141182e-04
5.601739034124345387e-03,3.644297682001714986e-03
4.800692132304439362e-05,-4.364847590460590294e-04
2.743108332885510568e-04,-8.488105600813762152e-04
-1.008909013074949790e-01,1.240641506481580643e-03
1.051471125340240481e-01,-4.192499040445839265e-02
2.126062439033124269e-03,5.818799081919482849e-04
-4.658000177134588062e-03,4.834768846977159987e-03
-9.453737527807996670e-05,-1.423049660212495908e-04
1.507242493363677473e-02,3.977340618940260197e-02
-2.944125887008508524e-02,-1.113950084838821325e-01
-1.403094499046540875e-04,1.444866953543702277e-03
-1.367268145106799665e-03,-1.445578882341162958e-04
-7.991640397170122687e-03,6.511755070615520002e-02
9.479777648832379312e-04,6.642894173611502877e-04
-1.434963017388090516e-04,-8.466807585903525670e-06
-8.155147150354796499e-04,-3.134603585525139028e-04
9.008244048516460267e-03,-8.625501739926240766e-03
1.782204681815171762e-02,5.067588005541657017e-03
-2.852745646009072905e-03,1.792823173262672902e-03
3.085749285092583838e-01,4.068019302692286033e-04
-1.229929369119318641e-05,-8.436304021131686617e-05
2.534053878036382403e-03,-2.514759820800922113e-03
1.815126132601189435e-01,4.270629998213896772e-01
-1.597947031688453680e-03,-2.440564122310843846e-03
4.609695169635489925e-04,3.792862038876140948e-04
-1.888814521087369596e-04,-1.919566539580030008e-04
-7.887817084494175637e-03,-2.657509400841017669e-03
-2.070455477659080001e-01,-2.860900547488346227e-02
-1.014063415412197559e-04,4.114787750372150767e-04
-2.756695910928926019e-04,1.390045537688917713e-04
8.747458165402741581e-05,7.871127469096333398e-05
-1.343117128113468627e-04,-9.098338301281397593e-05
-4.524420648243090634e-04,-9.712888417161054269e-05
-3.313094337869198353e-02,-7.119144417288793270e-02
-2.254099841021823224e-04,7.574939960697290101e-04
-4.274805570434103141e-01,2.804498858081558299e-01
-8.771166618110176594e-05,-3.849594395404297540e-04
-1.232337118937571439e-02,-5.701638081404932466e-03
3.663171090707936393e-04,-4.515106847334900879e-04
7.437185878571048181e-03,-1.210592351096143569e-02
-2.204710769600129114e-02,1.194298014446470600e-03
4.041973900642057381e-03,6.101645139411524882e-05
-1.094300625899290169e-03,1.141621669869170332e-04
-4.896869287630484235e-02,-1.310634028915571569e-01
-1.584218929021605216e-01,1.082198957120811683e-01
5.093482323005364080e-04,7.091069448106316242e-05
7.024417480359505025e-04,-2.224251058057922408e-04
9.378208658733661876e-04,3.212482185015162490e-03
1.317244205882597829e-03,-5.676616400763643188e-04
-6.358308936893458229e-04,7.668245525352842791e-04
-2.476510615399779656e-04,2.385792178695697436e-05
7.593738092992345699e-05,-1.316911338919359736e-04
-9.142498081963984849e-04,2.769219971334683649e-04
-2.317309193878666195e-03,2.180847847767216144e-02
3.493233762328703141e-05,-2.855023234346198849e-04
-5.666951065528803150e-02,-1.885900032727439238e-02
2.992170471975993395e-01,-1.709680595562406424e-01
4.563490563056138427e-01,-4.392871017068981088e-01
5.649486738950613984e-02,1.203035709002588972e-02
1.917334595158497190e-02,-1.258309417403798798e-03
1.280772250290041631e-03,-6.029938510406546333e-04
-4.829425537490586364e-04,-7.186874080081090410e-04
-5.142797074563935089e-01,-1.146788823602042373e-01
-1.048363840094835714e-01,1.638382303848770483e-01
-2.704846924839906380e-02,2.172123033713724716e-03
3.426719250140752154e-02,6.949273466964639868e-04
5.816290723508895644e-01,1.322427315260425174e-01
7.124396550617821157e-03,-5.763522373361721837e-03
-8.485127069637107139e-03,1.348627843881590503e-03
-6.251934372252668584e-04,-4.405101888744744057e-04
-4.187136674424797415e-03,1.766873817848354979e-03
7.956430203902226442e-05,-7.765696271876777268e-04
-8.443731276638970218e-02,-3.846983802385513240e-02
-6.306338640677599389e-03,-2.846736462430014131e-02
-1.252667983417018452e-03,-2.434877369987590700e-03
-7.404977391050486524e-02,-1.759214613634251315e-02
1.956023672182878028e-05,1.298740992060453260e-04
-1.161583629897977197e-03,2.691623542000622405e-05
-2.746379968897892437e-04,2.838789392824393114e-04
1.923532503491262938e-03,-3.387512561668111076e-04
-6.042267964844387989e-05,-2.353844543656292629e-03
-5.331386168626794844e-04,1.039489831727668205e-04
7.525635403942999439e-06,5.359952724906618098e-04
-9.416143158969093397e-04,-2.353497428675632719e-03
-4.764081746426808878e-05,2.153543806857988955e-04
-1.178346202188844047e-03,-7.117468154780185255e-04
6.608049844569420159e-05,-7.587366346221699100e-06
1.191002125688389200e-03,2.626781581970435400e-04
7.427021591911974092e-03,5.034182821282632940e-03
6.967054865982208467e-02,3.548088408147227757e-02
-1.379748216423656165e-02,-2.200517856652980248e-03
3.696799785062863421e-04,-6.701760790496051612e-04
4.627656730425836119e-05,-1.318950405932654130e-04
8.494539837374451632e-03,-1.070740666924607440e-02
-4.788899259686833776e-02,3.740092481162245186e-02
2.152406407804154532e-03,-1.078945058652227109e-04
1.700666856982363251e-01,7.773500364172089561e-02
-4.170986760949688794e-04,4.419781678858834611e-04
-6.465555012742717038e-03,-2.896000759665391666e-02
-1.456532176516744242e-02,1.480599940683659764e-02
-2.583702360991521185e-04,1.487373104511543630e-04
5.939674896350020722e-04,5.017974985101295591e-04
1.765049786084271211e-01,-4.633814147947121209e-01
2.636028503470858107e-04,-1.618426675983085112e-03
-7.762425429076034999e-02,2.204147065773455309e-03
-7.200226826399208939e-04,-8.064946784264114509e-04
-3.761683969717618398e-02,-4.775002124588757085e-02
9.601974187731305210e-04,7.244590359260575632e-05
-1.883876824543330789e-02,2.657404634748665104e-02
2.239990051938159799e-03,5.648875509734275005e-04
7.975674829098143527e-04,4.288303761669424292e-04
1.312741597374540888e-02,4.693021983154813115e-03
-1.272337979867149416e-01,-4.474286989804486803e-01
-3.046331437589513014e-03,7.039136543587838461e-03
-3.847851116577572688e-04,1.219656332718600106e-02
8.777572108064320491e-03,-7.443879350061914646e-02
1.143486682786712255e-01,-1.189962130236637966e-01
-4.547136698924774539e-02,-6.801675042037129415e-02
6.978501278630556970e-02,-5.646002648045260475e-02
-1.429095680555092984e-03,1.735747145755648507e-02
3.658828405912611936e-02,-5.293968589370530442e-02
-8.588485912400094582e-03,-1.647105588146592289e-02
-5.203676107125440597e-02,-5.993809622232647684e-04
-3.137246730901587649e-02,5.267388583447424333e-02
-1.612424390816925531e-04,4.098263724562295029e-04
-3.768728269126798980e-02,-3.060920194686761464e-02
5.587518801459776018e-04,-1.030946075040791105e-03
4.250779765703186397e-04,5.313658294840833138e-04
2.037814689612059340e-04,-6.225040857731759035e-05
4.668503495612192082e-04,-1.192185902210246790e-04
1.954889623062394232e-03,1.360553499386360493e-05
8.313029538018940371e-04,-7.095464320318118278e-04
-1.003787238197968029e-01,6.450301365341744309e-02
-1.384340445888843118e-04,1.816724558965306146e-04
4.902001397710112687e-04,-4.471402149889849528e-04
-2.160367422448791557e-04,2.509216328805987631e-04
2.262396822086524574e-04,1.413503572127009270e-04
4.185355510932910542e-04,4.918270137564770966e-05
-6.074356004923318203e-03,2.795680896004617763e-03
-7.584498082624061303e-04,3.577529460286662383e-04
-2.619768550686054839e-02,-2.970566844268972967e-02
2.194802163788713532e-03,1.738259354632449086e-03
-8.264264026277154613e-04,9.619546895864032783e-04
1.008194908821606096e-02,3.650828569486324910e-03
-3.824816916548743782e-04,2.155912561963529810e-04
-1.353981452125031619e-04,5.147735819586240309e-04
-3.107717939569758442e-04,5.736996525589917574e-05
-6.302314445432254499e-04,1.130942570724175915e-05
-1.383590213716456721e-04,-1.939626081323635962e-05
1.347570188931381365e-04,-2.207180492904232613e-04
8.406673417868332308e-04,-4.240056782789441633e-04
1.521533994468493003e-04,3.766012260032477002e-04
2.052146988621158380e-02,2.831823429524727223e-02
-6.847623071916096073e-04,1.250446132917309647e-03
3.615715055876875857e-04,4.899911370518308809e-04
2.020499166438831720e-03,1.244125283881866153e-03
-1.622836727205129669e-04,-3.937326700998523875e-04
1.323537399118106521e-04,3.904558547432719845e-04
-4.987852984950155591e-04,-1.871654803466306772e-04
-7.547714189135386331e-02,9.942990900664054263e-03
7.878201230238406289e-04,1.964053203359132052e-04
1.747880588219676088e-04,-4.033708337669979975e-04
-2.090224637763983817e-01,-7.134550917885127408e-01
-1.325054670778668189e-02,-2.260155318196966495e-02
1.068524009916613270e-03,1.005373393476135298e-03
-4.879988393467000118e-04,5.646718871984438004e-03
1.071559966523946954e-03,8.661912285255347465e-04
-3.091273353518151235e-03,-2.994671231519209584e-03
-1.020800464644244397e-03,-8.409254836515893893e-05
9.677632275160622617e-04,6.961285655041557496e-02
2.977546559145757225e-03,-1.561738162392637547e-03
-1.934375535510206171e-03,2.287299470258112415e-03
-8.499626957093033008e-03,-2.360894540042667022e-02
-5.014911053153913931e-03,-6.673781576015964251e-03
-1.955861953315620220e-04,3.114122337476934619e-04
-2.470426816608113554e-03,-2.156965457283972765e-02
1.496986867184884186e-04,-1.991304578814102769e-04
6.700436826515568595e-05,-1.509629666244242030e-03
5.962521793888128641e-02,2.514902497503301859e-01
2.556833971924216565e-03,-1.840879642425470586e-03
9.616799606310702476e-05,1.157366999373839357e-04
2.754222941487134355e-02,1.211761739283085705e-02
8.617492848679782517e-04,-2.721457556700221121e-04
-6.290743253038154348e-03,2.913186369782318707e-04
-1.273144846020307988e-03,-6.572882651302528888e-05
-9.529590610349567004e-03,1.976354316623992694e-03
7.966282528638368721e-02,8.333974639450248897e-03
1.691296196269678059e-02,1.367451287088894754e-02
1.044956156832369497e-02,-1.984217903021500209e-02
-1.051392248956623931e-03,-2.595879622506035590e-04
1.798322858960894194e-02,3.843004922162541765e-03
-7.086510624482565343e-03,-3.246869022312468163e-03
-2.881254000135517052e-02,9.480732686703392809e-02
1.473475456413519090e-04,-6.499904630487568112e-04
-3.611452868949561958e-04,8.018073817886874457e-04
4.906552884725405572e-04,3.479230479474181969e-03
-4.151858847071601688e-03,-2.967424128651945624e-03
1.011367600753545065e-01,-5.070310630621006898e-02
-7.690895806340168140e-04,1.295041350684822358e-04
3.472652379701268374e-03,-3.724232739949894649e-02
1.491262217535543324e-03,7.293001043711332641e-04
1.037566968232623600e-03,1.822992002743362497e-02
1.530851536494658984e-03,1.967758569207307337e-02
9.816487821741678652e-03,5.407689361071384149e-02
9.766164770958605038e-03,-3.840846430435571057e-02
-6.070770687170805313e-02,3.481168133188480840e-02
1.019811011887783751e-03,7.701999922582600765e-03
-2.618112141956550898e-02,-1.185531175053006897e-01
-3.802466677098000070e-02,-4.459343028629306899e-02
-6.812702710038023857e-02,-3.108118719212135672e-02
-8.342476315670158127e-03,-3.355249772546091153e-03
-9.833369987479361959e-03,-9.976388434831276117e-03
-3.663697097970370796e-04,8.182239576292375208e-05
1.150176957309953897e-03,-4.330998420444423058e-04
-1.740505418144173088e-04,-1.207708952495852636e-03
1.356198092715255694e-04,1.891283749281235369e-04
2.141662462279021379e-05,-3.596387715212885487e-04
-3.394296430076542618e-04,-3.599507682682763022e-04
5.633029364609944785e-04,3.458150881582194077e-04
1.142504301176967477e-04,-9.203527474259587035e-05
-2.687998252492486070e-02,3.373171516913586743e-02
-3.207988557884321580e-04,-5.975799271241423563e-05
6.963373531382280757e-04,1.275929823807097870e-04
-7.791462701772186887e-04,-5.763787580204597725e-04
2.149744220554267052e-04,1.079380764940607394e-03
4.950468267045773701e-04,-2.372629561884026462e-04
-1.339694222854273878e-03,8.443234148505660225e-04
1.119104958033642568e-04,1.780012353677327313e-03
2.117795356390426292e-03,1.470314629351541710e-03
2.419586131564474552e-02,3.345423049058268705e-02
5.955859532376728618e-04,8.151136488836939692e-04
7.506627874531747457e-02,-2.871489697105965022e-01
1.561648809103202973e-01,-1.857662428167416308e-02
3.037347252143987901e-05,3.514528445340823923e-05
1.027608816506968108e-02,-5.920013114102068083e-03
8.457420533082559214e-03,1.230336176083957934e-02
5.506449748453562387e-02,-4.585178292479561574e-02
-1.083359120014401513e-03,1.070445833747698042e-02
2.237083940771242545e-03,-8.585320171767785126e-04
6.363916264103944070e-04,-9.433530255026101883e-04
8.993462821503065145e-05,-4.586318569698338886e-05
1.631234549397962306e-03,1.125509003446994007e-03
-4.317341178001406730e-03,-6.261013890064346180e-03
-2.784014036147631696e-02,-1.699261087232136966e-03
6.943669789193956032e-04,1.093638586712762433e-03
-1.711476627989609719e-03,-9.725587965271404638e-04
-5.709376224180083949e-04,-1.440872974889375279e-04
1.326044728026510569e-03,-6.863446705311696244e-04
2.060841892435450948e-02,1.876453966842283119e-02
-8.130864091698006627e-04,1.011306942705418078e-03
1.611751192961577732e-03,-7.028553734903998000e-04
1.189614506671243072e-04,8.387562353450304822e-05
1.013304230823476192e-04,-1.579864833835787578e-04
2.492496091510128397e-05,5.455019027872733172e-04
2.156876571356654542e-03,1.916173912078584065e-03
2.929604231774155139e-04,-3.169543453303235695e-04
-1.544451236741286801e-04,4.276864751271870898e-04
6.032538883205411416e-04,-4.530341710910721145e-03
-1.038354506261829520e-02,4.895448256612118867e-03
-1.124089311134566886e-03,-8.408442472215086824e-03
-9.285607750431782229e-03,-1.800707319703451562e-02
4.886569725186884483e-02,-1.735806573065041408e-02
1.171018554236420012e-03,8.159262123641219250e-03
-3.704316522363642478e-02,-6.222260073777355176e-03
6.263728878505484378e-04,-4.173475434302231172e-04
-1.143340071459059983e-04,-2.378584687724867824e-04
-1.396621813118787379e-03,8.678527348469694189e-04
1.273878107876059151e-01,3.414453142715002942e-02
1.041526531162518567e-03,6.771793387456315639e-04
-6.488218158569628025e-02,-5.658365185693850496e-02
4.465409349661375962e-04,-4.522579811764417608e-04
-1.229645506455291984e-02,2.012806397448559971e-03
-5.475534261745921378e-04,1.565026503078986090e-04
-3.662443090214275755e-03,5.999380930118577981e-02
-2.670287800125806590e-02,3.617462383232572629e-04
5.892185907259328732e-03,-1.207427630357541404e-03
1.672623675819547365e-02,3.196623421874601658e-03
-1.333953231273212470e-01,-1.070950285127889728e-02
6.244770145465174376e-04,7.168773502017548437e-04
1.183351300510313703e-04,-1.013984255358259847e-04
7.084625384526233027e-02,-4.503217895339976969e-04
3.984176840590335916e-03,-1.271406352801360620e-02
-9.246751934946279006e-02,1.646881778243446115e-02
-3.640111164181547392e-03,-7.852866867838200838e-04
3.811126377926488465e-04,-3.312938563339864963e-04
2.386258160049810062e-01,4.293562133058947961e-01
5.480158933668134030e-02,2.518502808446457589e-02
1.292239184625217918e-01,-1.179217235427269805e-01
2.196580954961585008e-01,4.602688414602170049e-03
2.452675334335128240e-03,8.307239241325941118e-03
-5.403281676646523764e-03,1.432938071457147628e-03
-7.365078797415202175e-03,2.066876257888731246e-03
-5.100221767432149694e-02,8.475833075352892654e-02
1.460919403087748182e-02,-4.024124118338439499e-02
-8.443690441830884277e-05,-1.802666797075482734e-04
5.255359413326527113e-04,-6.590424358822467290e-04
2.587886508205252149e-04,-1.272079410045895203e-04
-5.748239188199634475e-02,1.533196380812172112e-02
2.070181248389266551e-03,-3.528611444455841237e-04
-1.384826153343962467e-02,2.380171946559712925e-03
-5.625720436785927592e-04,4.733564082012615450e-03
-5.541531507339214624e-02,1.603911606610246565e-01
4.130911510298314153e-03,-4.197440022117695894e-03
-2.214898548937003792e-04,2.430000211614035733e-04
1.018145917705921139e-02,-1.520410881548676539e-03
7.780419385978334587e-03,6.704428590951533318e-02
-5.314224160655124689e-05,5.509087374218789768e-05
1.829150946483875939e-01,-9.736530469997516091e-02
-1.392654313071210390e-02,8.320690640570513677e-03
1.381555152369926855e-02,-1.125704808255137551e-01
-1.006006478763225853e-02,7.289376664950901821e-03
-8.580577453260922194e-02,8.852085297501163796e-02
2.483969784123650493e-03,-2.714342808195892819e-03
-6.883527157874512470e-02,-5.675096414530356181e-02
1.076772421163114078e-03,-5.564322669874928115e-04
8.614719364347115044e-04,-4.289136839392960988e-04
-1.440550883150214755e-02,5.752916962703599627e-04
1.526465408692360450e-02,-1.327072997550055901e-02
-6.424234693253817220e-03,6.069315727003902865e-03
-7.153822549346512683e-02,4.414187083712631937e-02
-4.673583146705462591e-04,9.401506960113974447e-04
-3.745936798238262873e-03,9.907634535840492002e-03
-7.381778797251502960e-03,-2.886402820899970981e-03
-4.578231420769958361e-04,-1.862331266821570103e-04
-1.074702454905902577e-04,1.502623816304233270e-04
-1.399219642551576687e-02,-8.793649102598822404e-03
2.783802321310697818e-03,-2.022397955750836543e-03
-4.980221700844080224e-01,1.913331319135997133e-01
8.890145800012740421e-03,-3.074815855083676830e-01
-7.016502576120152435e-03,8.792127073354510242e-03
7.604508517042078697e-02,1.283197424064234371e-01
6.800256903708766856e-04,3.178023782649506707e-04
1.311453630047877987e-03,-5.467825319191679107e-03
3.945460383308041497e-02,2.067618992234170408e-02
1.009992064494354873e-03,5.211588576046085469e-03
3.408967971049222667e-01,1.616484588227251884e-01
1.332335293654123357e-02,-6.863617028017890767e-03
2.488846205192532198e-04,1.779770623406701224e-03
1.383008860445279775e-04,1.009391614154384574e-03
1.748211569096332074e-04,1.935979424843430616e-04
-7.257490710682087520e-04,-2.034088378967266128e-04
-4.895428687309814485e-05,-1.584394195837704813e-03
-6.321152771825452963e-04,-5.409411539295186019e-03
-1.739273216937188213e-02,-1.842868309063153132e-02
-4.040697385550366368e-05,-3.433984365866353007e-05
-1.030926496763011173e-02,1.489237985894874272e-02
-4.541474750643303797e-03,-7.210430903575207329e-02
-2.042495206678770960e-03,9.407962289856952424e-04
3.833073847971111073e-04,1.563970193368589140e-02
3.919549379058068911e-02,-1.478542917365153753e-01
-9.992616026429985976e-03,5.677952456662616054e-02
-1.891622078619690783e-01,3.587545896541852741e-01
-3.770616605464972067e-03,-1.224104467906296989e-03
-8.961762617454394758e-03,-7.901095672830787953e-03
3.446043414302090119e-04,6.319887920537542838e-04
2.826416092119449566e-02,-4.513265787828175252e-02
-4.121223072318459628e-03,4.414073546077375287e-02
-8.258898870949022081e-04,1.626097230612514287e-03
2.962470890787052120e-04,7.266861771464017128e-03
4.903651214143208564e-02,-7.548796865010036494e-02
-1.985957528978918862e-01,1.089728874952963222e-01
1.702101293796676532e-02,-1.677849361201107781e-01
-2.727465352591814133e-04,1.525906782723577193e-03
-1.148294838423581377e-01,-3.808367919083323061e-01
-5.681038796437622683e-03,3.928903240065371311e-02
-2.417689628138881396e-03,1.647979648119667030e-03
-2.806751652200002375e-02,4.182879505074769272e-02
-9.744520171690493338e-02,-7.489814744720868500e-02
-5.104723358539997417e-03,7.635643344337851319e-04
6.617314248306509217e-02,1.512058074550573228e-01
-4.383516152863800239e-03,-1.050120534822251810e-02
1.414624676580286330e-02,6.739577182464419509e-03
3.838379590642364975e-02,-8.776336787459693839e-03
1.348251302292487446e-03,5.401989263338290680e-03
1.140761432994889940e-01,-1.186005181844525941e-01
7.888221443392215686e-04,2.360465082245006771e-03
-2.982046883140759136e-02,1.193026152419831426e-02
-2.331657367553442370e-02,3.374888267470874809e-02
-1.091495394840039795e-01,8.831296445623710439e-03
-1.192573079329803908e-02,-2.271374160365390721e-02
-1.985282660293007650e-01,-1.552959574507707663e-02
3.881367179635807248e-03,3.607797638379556509e-03
8.538130212336865477e-02,5.458040863556563177e-02
-3.078952291619892114e-03,-6.880994150149259865e-03
-2.937793940617333655e-04,4.492703727073357051e-02
-2.355117873391747441e-02,-8.394281796908769841e-03
2.749887337234134185e-02,-5.932861494594960511e-02
-2.982332508443146825e-04,-1.852875172621907401e-02
-8.704124315769610695e-03,-2.225012781410632898e-02
4.240605112115993641e-02,6.977208834517641123e-02
-1.153534672227399770e-02,1.472634457738973253e-03
3.790429356468744126e-01,-3.879149479997360817e-01
8.757011639648898393e-03,7.724531073514472046e-03
1.611962174804744722e-04,-1.560888319005126427e-04
3.274352586241588980e-01,1.031250288836306830e-02
5.412790114642857670e-02,-1.694667356951926399e-02
-1.434832703979815050e-01,4.824076071062008420e-02
-4.971285099368555338e-02,-8.168611942184567445e-03
2.383519842754672907e-02,1.097786917175104932e-01
4.237238209732888984e-04,8.941591821659452535e-04
-2.846224787217100510e-02,-8.342437758622996136e-02
2.418089747837975090e-01,2.885890969323037791e-01
-5.293383085616729230e-04,2.125232054606821571e-04
-1.804574087520703987e-02,9.837447367522242705e-03
8.822242697174537823e-03,1.006813990563475668e-02
-2.993464834824936457e-02,5.491109952307209052e-02
7.892619690105473484e-02,6.302265822278784180e-01
5.370286226247422863e-03,-8.525973107483834912e-02
-3.282885883078647243e-03,5.183225286494579434e-03
7.050751391885454709e-03,-7.077403895979009207e-03
9.138821990962536779e-02,-1.286267992155401552e-01
2.667181433107326284e-03,-9.428366235651335124e-04
-4.514597592503610812e-03,-9.071285684145649966e-03
-2.082776803345745987e-03,-9.857259354456046271e-03
-2.328334042704145040e-02,1.117689423224391305e-02
1.011318573745347872e-03,-1.374141935716662467e-04
-2.474283630694311745e-02,4.305571949837395940e-02
-3.127284029218427991e-02,-1.227176843590076505e-01
-1.807093259850807987e-01,2.164143993984724706e-02
-2.781116258809941504e-03,-5.612839854505710657e-03
-7.917497660055791827e-04,-4.598057240892777201e-04
-8.644918404638955722e-02,-4.940492570279986229e-02
-8.155189602215165510e-04,-1.431103094969749542e-04
-3.586081136244292401e-03,-2.297771105372492951e-04
8.311550421709536229e-03,4.181725147289855511e-03
-1.516389260445974831e-03,-2.497652351180952319e-04
2.958098667922596180e-04,-1.133968515365416476e-04
2.594748962406411529e-03,-1.163262538637617471e-02
1.121410438057817982e-01,-4.197226668233060287e-02
3.545806586597690518e-02,1.383200217399215178e-02
-2.542486062644781428e-02,-3.763808708403056265e-03
-1.053177283301873473e-03,1.750439409863226593e-03
-2.965291254208677479e-02,-1.848063599784214445e-02
3.961643929366975674e-04,-7.287684150075128108e-04
-1.763113126834379638e-02,1.751693519658831591e-02
-1.151624860990903450e-02,3.329133098935741289e-03
3.164565149537922235e-03,-1.663974778957723116e-03
6.349872098105176221e-03,1.510975072662969557e-02
2.676784912191896779e-02,-3.443226931339388869e-02
-1.005057964972945889e-01,-3.640245726712225405e-02
-8.587194016595062207e-02,-4.608421007087227794e-01
-1.514400029353885589e-02,2.520137523481725816e-01
-2.746634300834629450e-01,-1.697323908812911342e-01
-6.969124945850375952e-02,3.480898393388497797e-02
6.318016693706587916e-03,-6.270927776039859035e-03
-1.286283509529379237e-03,2.358101391811653793e-04
1.943869399836663514e-01,-1.580812593139124811e-01
-4.918624563750909062e-02,2.579388770244431806e-01
-7.477756643756840182e-02,1.614462653872141551e-01
-4.659152781740347107e-04,7.242813259596267081e-04
1.038026509623328833e-02,1.157081552301769851e-02
3.089416073811524291e-02,2.910649404016046188e-02
-2.675989031946832686e-01,2.939799562446771333e-02
1.635921099315560540e-02,2.457146885744356662e-03
-3.246306461224543471e-02,-4.086070977552976741e-02
-1.513231904976210240e-01,1.367431956578534502e-01
7.565066154168807733e-02,2.297390207975567519e-02
-8.023599893954411200e-02,-3.687827196220808817e-02
-3.854412514962939074e-02,1.413315402823753508e-01
-3.203628207921789192e-03,6.485725012202836481e-02
9.896555674122857471e-02,1.034783834120450302e-01
-1.137725098898024201e-01,-3.261876668726973461e-01
-1.160791736328533469e-01,9.738445946611561099e-02
-4.667618250489968292e-03,6.747064194354577236e-03
-3.664222224000678041e-02,1.196536467452083280e-01
2.336607769665615952e-01,6.930086558932814500e-02
2.686763829061720316e-02,1.067260846449783751e-01
3.882867296957180636e-02,1.991167990708054419e-02
3.755693486427796532e-04,-1.510339947815889095e-02
1.496050638663835863e-02,-6.355601196168861322e-02
8.515086662555059263e-03,-1.829757626975934276e-02
7.962154094783564784e-02,-5.188274886049163565e-02
2.589850523769793690e-04,4.458058077718932838e-04
5.260596423825748130e-02,-5.686979969970097637e-02
3.642312407606853458e-02,-1.048811718221516337e-01
-6.992100038889191571e-02,6.339204090612539366e-02
-1.280641813606582524e-01,-3.675388689150508453e-02
-4.513751573912307830e-02,1.870112419207837773e-01
-1.810984257140131615e-02,-3.143852787969898116e-02
-3.362063170426822512e-02,4.144947296991280394e-02
-5.846858851932354439e-02,1.972711781191913150e-01
-1.785760572014622686e-03,-2.350376748510092997e-02
-1.267342413991772061e-02,6.949880393474469446e-03
2.541339092288360385e-02,-9.531597402276220307e-03
6.048641390384590366e-02,-2.305954589376116737e-03
5.124065854009921504e-03,-1.690709810852215195e-02
-4.125214057791701423e-03,1.928305058294674593e-02
-2.673218444533606575e-02,2.983604671697484903e-02
2.082096531432818184e-03,6.265538218204742653e-04
-3.251572855687108292e-03,-1.112886068980804138e-03
1.111837954116059492e-02,5.394657650916040437e-03
-4.279108127875272220e-03,3.235033397621053818e-05
4.743009993736554269e-02,1.833708796929776896e-02
4.052659957925040801e-02,1.359812197157996838e-01
6.043895914612833209e-02,-9.133614573527905345e-02
7.775275159478661942e-03,2.173440814251680411e-02
2.684781819521826415e-02,-1.688441558901453143e-02
-6.923192321957484519e-02,-2.321892716433406056e-01
-2.887176023801911739e-01,9.030981567106069474e-02
-3.536109559913335615e-02,-9.268462551359847590e-02
-1.097165762936443481e-02,-2.979218149171666830e-02
3.078446714951893026e-04,1.087278451107236317e-02
3.148030136151618030e-02,2.359513046438953612e-02
-3.127197521985561335e-02,6.635512306477105507e-03
-3.585631419404762543e-02,9.239921060110277418e-02
-7.097525588426803478e-02,2.400399382892093661e-02
-1.233825655198306920e-01,2.192909115016549726e-01
1.023364424807999135e-01,2.801897018479708457e-02
1.041150949782625396e-03,-6.046750218096842711e-03
2.542839997908286076e-01,-1.641497625508064623e-03
-7.096114686236670854e-02,2.123962768107764965e-02
-4.855793258427135162e-02,-7.792947256971062553e-02
1.522867321945845509e-01,4.381801135534815067e-02
-2.862589147982066429e-01,-5.841673052096840041e-02
1.451166374656701584e-02,-1.560408813419139340e-01
-3.579035966183498063e-01,-2.307809694012472879e-01
1.302453692246869840e-02,-2.305691094033025454e-02
-7.273663113462391916e-02,9.868288911243135175e-02
4.054798318176837391e-03,-1.102500758526747671e-03
-3.878802288613649590e-02,4.484949819876558191e-02
1.691857194487389254e-03,-3.297206621604790652e-03
1.049568873216159826e-01,-2.533833048810039262e-02
8.937094566397472961e-02,-1.154829537134440670e-01
-1.445456417030051011e-01,7.072290264711975603e-03
2.481441982368775556e-01,1.780315337961922706e-01
1.945361593977265602e-01,3.463146859552221346e-01
-2.601242698885027765e-02,-9.391929933625897675e-02
-1.264724743573457100e-01,-1.168245060484367388e-02
-1.636199315234386498e-01,4.852920959333007489e-01
1.834091878538576526e-01,-6.439102978038231673e-02
2.258593176869692631e-01,3.739856321049980781e-02
1.359570523855105906e-01,3.288783756005130010e-02
-1.201451846401438428e-01,1.037829665957952646e-01
-5.413927523441280226e-02,-5.210426119549080304e-02
-1.818930737278222909e-01,5.267891427457602749e-01
1.364750509143456414e-01,-1.861536820627125444e-01
2.055850128444716152e-01,-1.680821016984540908e-02
2.638219363429283870e-01,-4.030275517703410526e-02
1.788160336133366723e-01,-1.224847102125906917e-01
4.425463540315401900e-01,-3.750322466596327925e-02
4.155246322001675263e-02,1.164376641372116480e-02
-4.021645901345905633e-02,-9.440584294233229923e-03
2.044296675959448445e-02,7.341078643094013645e-02
9.476419596590437977e-02,-2.289248709447659069e-01
-2.863956772732894826e-02,5.215561972930305573e-02
2.513626816697548949e-01,3.372208860821695325e-02
1.817958684495149246e-01,2.195885351507678440e-01
5.667197590115928829e-01,-3.486971507007302074e-01
7.403716980406345460e-02,-1.108881701355239890e-01
-1.053742649752545807e-01,2.266261644476556467e-02
-1.166107506898771129e-01,-5.040466304495649225e-02
9.126821089079746596e-02,-5.396423813468100017e-02
1.771932691328935716e-01,7.214871176592380086e-02
3.289158216929312650e-01,-2.986522888111117768e-01
2.065169332007516234e-01,-2.281191052361601287e-02
-1.127204578856901285e-01,1.145495417817496558e-01
-1.325395410461823464e-01,-1.238323696722370276e-01
6.114293925315228417e-01,-3.137834946394890134e-01
-2.352389640223533085e-02,1.614021211532882805e-01
2.275071014651689968e-02,-6.024996592877388674e-02
4.944365367144890749e-02,7.694164440142632275e-03
6.399409468163781700e-02,-2.292694560553721062e-01
4.311667012750467279e-03,2.295367504194892605e-01
-2.033664259616770054e-01,-5.201154848717194357e-01
-1.079540727952722906e-01,3.466456765520124494e-01
-1.246763846312794882e-01,-9.250164724135842564e-02
2.077199759254758082e-01,2.018034473138617113e-01
2.772388987937529081e-01,3.399700256114493446e-01
-4.098600055166868456e-02,1.791804014178152715e-01
1.419761452596756957e-01,2.387433376319741118e-01
-3.993645503162082111e-01,-7.739414211657128688e-04
-4.043424980437612670e-01,-2.358647390769479102e-01
-2.991743030407274101e-02,-7.354801835333989179e-02
-7.188818181991883660e-02,2.555032151160658801e-05
1.863312355740744664e-01,-1.101027577727419493e-01
9.421176576509034117e-02,2.366817372331796732e-01
1.394447389301596008e-01,3.629001540798616476e-01
-2.283721412023161645e-01,4.737828955434672529e-02
4.700047275440471517e-01,-2.365159400554413816e-01
-3.251765927030655368e-01,1.474192406572064629e-01
-7.227866551087733238e-02,3.719652432976276735e-02
4.180416173785786449e-02,-2.865370019542812230e-02
-3.178180169292049162e-01,6.269804922592882301e-02
3.539550494837447048e-02,-6.550276749617990613e-02
-3.448808463806201513e-02,5.402225484003184142e-02
1.169748158543956612e-01,-7.620096167097160922e-02
-6.147663332383645172e-03,8.991058000619357726e-02
-6.146089110385553889e-02,1.084800342669319517e-01
7.270045526359200649e-02,-6.097201570945456894e-02
7.551725405608331054e-02,-2.089195083404537245e-01
4.116359669594965021e-01,6.713956194282294510e-02
1.917685856624861684e-01,-1.631278082642766969e-01
-1.310989602575142465e-01,3.281232573369832761e-01
-1.332374971268516228e-01,-7.878587864886087144e-02
9.144015219943715800e-02,-1.275672874923442779e-01
-2.113449007554253634e-01,-2.824816465407837818e-01
5.222270295090861159e-02,1.350720868950664941e-02
-8.932878050093329136e-02,1.938467272648680467e-03
-7.500191322153454410e-02,-2.273766080157575004e-03
-7.001553250325505406e-02,-4.209174099436004124e-03
6.473982335170666569e-02,-8.297486130840960039e-02
2.034357007504217912e-02,-5.478505011200824476e-02
8.234247749389024540e-02,-2.645923082132994875e-01
-4.371475014101650763e-02,-4.109654278293156660e-02
-4.120480907334084751e-03,-7.904970557962806912e-03
4.912332419431592045e-02,-1.854587700675617429e-02
3.807959894829765924e-03,1.455622001841324134e-03
-2.488139148278220580e-02,1.544829118619681363e-01
1.080532434065768349e-01,-1.306576044808873127e-01
7.321308284665319424e-03,3.723697633284352854e-02
-4.644150904120138840e-02,3.460181099381136605e-01
5.476262320447564808e-02,5.113536201519170571e-02
5.699892601474601701e-03,-4.489319965997307614e-03
1.713539832412320496e-01,4.043208567117741181e-02
-8.403278226330461887e-04,-3.411502231953562891e-02
1.365151096303520994e-01,-2.305741917236795238e-02
3.278979956705503022e-04,2.828977538969236743e-04
3.059128660467732436e-02,2.164481114893774261e-01
5.241884254895080170e-02,-6.075755084519950805e-02
-3.020187264304331487e-01,-3.972765779977169981e-02
6.388744908392322321e-03,-1.163535375139575266e-03
2.381129476047589566e-01,5.842969829305259821e-02
8.545346994924993278e-02,3.619191467069741153e-01
-7.317971145904274277e-02,8.047819381067553013e-02
2.286061583445080786e-02,1.724192578306731061e-02
-4.127805142149978263e-02,-1.203145063668614040e-01
-2.091704772075374252e-02,3.375706334055640634e-02
6.222944777848371523e-02,-2.411330065975509154e-02
1.001100032747630209e-02,-3.130295938912663889e-01
-2.540085485882665264e-02,-1.784878268381459299e-01
-3.975861238472480630e-02,-9.095407509142458546e-02
-6.644811693319939427e-02,-2.180822916653770566e-02
-1.314618459840126152e-01,1.876375961432537043e-01
-1.996267045002223309e-02,2.266961663958792783e-02
-8.366872684133429272e-02,-8.874425173447784976e-02
-1.490878710673006202e-01,9.625873562831691044e-02
7.862189376817678432e-02,3.822596092668183176e-03
-1.470244824680885277e-02,-1.229194130422607556e-01
3.276484187411391469e-01,-2.478675917289136985e-02
-1.868422312163534396e-02,4.838661371345605484e-04
-1.084917447850459599e-01,6.467117171818037580e-02
-1.275554589503954672e-01,-1.295564164793472639e-01
-6.277958392898312645e-02,-6.189154014672242077e-02
1.255403776229443435e-01,2.378251417914617472e-01
-9.512814560092135163e-02,-5.860007618332148394e-02
-2.131227491740891877e-01,-1.481694812668027939e-01
-8.582443562225716693e-02,-9.981495752447949732e-02
2.836296889593799622e-02,2.958981865074199538e-02
-7.650273634990191474e-02,1.786878404142500931e-01
-1.591114784653234471e-02,1.224930434056322424e-02
1.340927725001251902e-01,-7.100239411771513964e-02
-3.452158905460034344e-02,2.165305628047480002e-02
-4.866411534348678014e-01,3.548980997733844518e-03
-3.892203369897966891e-01,-8.664270201315346642e-02
1.470617252405262594e-02,5.601328126048196049e-02
1.052826500854778247e-01,8.915729555013440777e-02
1.716495568034483166e-02,-1.875124005984435535e-03
3.548006291216484476e-01,-3.564630027506054955e-01
-4.040592372725653747e-01,-7.794241938834410577e-02
-1.746106514226831302e-02,1.873651467999940812e-01
4.511170268844524878e-02,-7.051312038395936288e-02
-5.471692109599451959e-02,-2.148233675533090317e-02
-5.315274700090306670e-01,3.001978068978125025e-01
2.322511090387761323e-01,-3.386571385726057648e-01
-1.220416764662424908e-01,6.944270711096441062e-02
4.418103894058775793e-01,6.711887822325011965e-02
1.325930454266414649e-01,2.057320597803335704e-01
-9.216257487174818464e-02,1.094461500833758955e-01
2.027106439380099722e-04,-1.215966971365548821e-01
9.181136147871478415e-03,-1.729214046413863060e-01
3.955451947420760006e-02,-1.665801472043486886e-01
3.712660702149513884e-03,-1.003797824164887886e-01
-3.483836710527051239e-01,2.161947805397179401e-01
1.554086483335328506e-01,1.419590686176991079e-01
3.013965167177814694e-02,4.313158122252776228e-02
-4.138955560228969877e-02,6.373648166671364024e-02
-6.280141753582042796e-02,-8.258039396465638102e-03
-1.794636011876022397e-01,-2.175026364426973224e-01
-6.397079008028733887e-03,-4.226068907224414528e-02
1.091383767019355744e-01,-6.611828274387968052e-02
2.216074673266667239e-02,-1.135337829297247414e-01
7.290845258238888571e-02,7.116256124129942684e-01
-1.821990722544322150e-01,-9.515859010620388025e-02
-5.522004306468509052e-03,4.465758237853194833e-03
-9.246126138061659672e-02,3.609133244988136507e-02
9.061572317351303252e-02,-1.067619443052113953e-02
9.011540078240055929e-02,-2.652651827988612432e-01
3.826476588688063063e-01,4.509702435607889498e-02
1.756914484886149073e-03,4.739593784219163844e-03
-8.408944736770344180e-03,4.235284358213122630e-02
2.741816835344798239e-02,-1.714004096336013971e-01
-4.939407577170666364e-01,-2.251090637173260856e-01
4.134406803655087947e-01,3.204663005953272692e-01
-8.904074367127651213e-02,1.047990896797810906e-01
9.644691643864145014e-02,-1.740950107162380633e-01
3.399323141532549775e-01,-1.910911581400379644e-01
9.338493527106464520e-02,1.580842305255193980e-01
3.158303077555631999e-01,-3.841545383191823371e-01
-5.231440426263190835e-01,3.215653961196214272e-01
2.824577559279440875e-01,-3.312284971461226801e-01
9.259497740708363955e-02,2.200237314457950955e-01
-3.524845200640869952e-02,9.127533215160912872e-02
2.776436984449099366e-01,2.578129000044587227e-01
2.280390552014846250e-01,2.236704245967770788e-01
3.616560679916267507e-01,3.265959013770204367e-01
2.502669002528955522e-01,-8.450305440441739646e-02
9.460020016251230457e-02,7.924439775134645148e-02
3.969545885768441772e-03,-4.007585928738137127e-01
-8.407021104431647296e-02,-7.508721871127932435e-02
-2.194401710839301023e-01,-1.814609037078629694e-01
1.414845976193894461e-01,-6.354407154077924558e-01
2.755993314902379504e-02,-7.470559132638393551e-02
-4.816200696787375501e-01,5.376174144062867422e-01
-1.485145416469751400e-01,-7.042824573095748941e-02
-1.424289450086339837e-01,8.040070669909303580e-02
8.353044944762733764e-03,3.901850935831497474e-02
1.293521402864354908e-01,1.841731414262919725e-02
6.968905483746093421e-02,-2.401358355320612759e-01
1.218364204828098207e-01,-2.030368901156313632e-01
-6.959616697209485003e-02,-6.475876759527025850e-02
-3.155816074500953916e-01,-9.503302276344290089e-02
8.771184021891417770e-02,-2.944047938258605515e-02
-4.257344695564800607e-02,1.084833362909198712e-01
1.173979952366706325e-02,-2.949059737834744746e-02
2.204920177419565364e-01,2.623384210807643349e-02
5.133186245944322268e-01,2.124171147063786194e-02
7.827519190529419468e-02,-2.324855485667110672e-02
4.474198118157887011e-02,-1.090357584261618801e-01
-6.922148326454052869e-01,1.199955872101666626e-01
-1.047299324909472251e-01,1.201244512809702403e-01
-1.032614748764888735e-01,-2.031429779698030180e-01
3.216758243635753911e-01,9.389779739087629473e-02
-6.394597265017465393e-02,1.466128906311166824e-01
6.842724074541621515e-02,5.307169166734285737e-01
-2.470918419361348151e-01,8.137047732331140204e-02
-1.620522581466689593e-01,8.401438528475180245e-02
-1.408682819261824204e-01,1.111390969004551754e-01
6.764673119595324136e-02,-1.915723206517653404e-02
1.564124296482004642e-02,-1.430554829513645473e-02
-2.758620111898915303e-02,5.638530314806265709e-02
4.867532400302675144e-02,1.676986529263937431e-01
9.257183312216519244e-01,-9.619413735767734508e-02
3.268903999993469367e-02,8.653308603163894011e-03
8.697752986916944262e-02,-1.756353483663945086e-02
-2.855420696344663362e-02,5.415406981191221714e-02
-3.555232787525660493e-02,5.996720791577332677e-02
-3.381423136894589482e-02,2.174255153050226597e-01
-4.917511663286382173e-02,-9.705146835886671944e-03
1.185380199988212840e-01,-2.621835753524831003e-01
-3.723339519805052983e-02,-2.007510389310120935e-01
6.914082242632083042e-02,3.626061674956255337e-02
2.698432372043025329e-01,-1.466803762955902202e-01
2.639164849087242137e-01,2.816471594784980548e-02
-5.016815860492824797e-01,-3.602061126306848604e-01
-2.537727632950039225e-01,-2.616432081164842272e-01
1.352927536794082675e-01,1.374825480750284656e-01
-1.172670966202695036e-01,-4.750512465418698510e-03
-1.952120977749640107e-01,2.276795414196377265e-01
4.950688519314763725e-02,1.423326854586720869e-01
3.638288096104707603e-01,4.969545104297818511e-02
-1.775674388237470924e-01,-2.924750133011632357e-03
-3.773868629869659985e-01,1.045454078512378926e-01
-1.239874565581645521e-01,1.849068584065089449e-01
-4.442636564629734441e-02,-1.096607810617437721e-02
-3.706483912604406350e-01,-1.394468355713165131e-01
3.423821719033540850e-02,8.646955843287332244e-02
4.493577811170360592e-01,1.179430201206781992e-01
-4.859571725433968203e-01,-9.266871797728336302e-02
-3.965396218670023121e-01,2.016376957378544776e-01
-1.665364734184584250e-01,2.151853389940165950e-01
1.748411467779442119e-01,3.727412719212052639e-01
2.418544312120769757e-01,3.818784310247611002e-01
-1.179728014680913178e-01,-3.586098136633410899e-02
1.378329019269285138e-01,-9.790686386265357033e-02
-9.078053280229092525e-02,-8.813255856378277020e-02
6.816036795923550162e-01,-4.683345945255391538e-03
-1.030804017806702666e-01,-4.398388174195637657e-01
-1.771303093107365334e-01,2.735920170334049106e-01
1.242102525454865936e-01,-8.172659534999053565e-02
3.886261993655274471e-01,-6.609243629101632655e-02
-1.668049530193731200e-02,4.994433363883830079e-01
1.187470340161860122e-01,-9.770091000624862854e-02
9.578064062400050427e-02,6.291410320445112170e-01
-3.296368608290802804e-01,-9.690184265613628611e-02
-1.792593766904842512e-01,-3.294635725753821687e-01
2.218194707143199274e-01,-1.862683340413951449e-01
-9.263808259910547016e-02,-3.418358787144796240e-01
3.054599917433864498e-01,2.093986603571783844e-01
-6.109048571569911795e-02,3.398085979658331257e-01
9.227484205717015331e-02,-4.554643428510146697e-01
1.480978608263026075e-01,2.358098857731417419e-01
-4.192946819240615519e-01,-2.328174885565343633e-01
-2.841537433070197571e-01,-3.628224396924219497e-01
2.167726929937403568e-01,3.875400149046190346e-01
-1.207855246312233011e-01,-9.983331185147922837e-02
9.401895241314851825e-02,-1.128061089186738752e-01
-3.285016897163357125e-02,4.718552598426423855e-02
-6.077842899134287130e-02,2.744096173262363866e-02
4.364903595013542303e-01,1.603857316383923148e-01
5.242136780805844998e-01,2.410364604438575142e-01
2.470292179610988625e-01,3.577429244451483803e-01
-1.193475168159116723e-01,-1.223875922113303316e-01
-7.146255264371224880e-02,8.516437592749928620e-02
1.200605404746117252e-02,1.347536530054805649e-02
-2.067465855018963683e-01,-2.441974555567598959e-01
-8.308361485568646274e-03,1.059735354268947355e-01
-1.187139635264642945e-01,1.665014629858874717e-01
2.383097677743618026e-01,5.936404715164229212e-02
2.204693430882329400e-02,-2.640099795340843380e-01
3.150023033655741656e-01,2.571392833082428164e-01
4.118904960479388699e-02,3.083357809859289533e-01
1.431147899780183808e-01,-1.810012146372684261e-01
1.923568542918033530e-01,3.354498061798102948e-01
1.022474199423647478e-01,2.144992670487015085e-01
5.989215383489755740e-02,-1.842791134447653578e-01
-6.691572682972535269e-02,5.805709761872667601e-02
-3.154384020850778958e-01,1.830014757360777233e-01
-7.809799175621665035e-02,-3.884483317033298189e-01
7.077119134981512127e-01,2.647971051073091941e-01
3.811985756284732574e-01,-1.650574017676321725e-01
-3.850464998677568390e-02,-1.016876264558826647e-02
2.683252601610505717e-01,-7.234577307480059838e-02
4.144818535996331321e-01,2.717149344465741856e-01
-3.105509273222497452e-02,3.083006474250603035e-01
-2.546715741201907579e-01,-6.335173958273290218e-01
1.253180510264093328e-01,-2.966945832400973843e-02
1.754887765764894247e-01,-2.491986599735391550e-01
-6.385039324117282311e-02,4.685780284847835923e-03
-3.904725938308455935e-01,9.033704057611934013e-02
3.711951120081763422e-01,2.704854560338533775e-01
-5.777523190416443410e-02,3.242279480045813789e-01
1.016884612993193982e-03,4.999189285369026736e-01
3.910830165883673049e-01,-4.755740350181510978e-01
-2.190314196838195615e-01,2.594962555758305311e-02
2.813121809454592337e-01,9.933012877437209787e-02
-6.243539364577335160e-01,2.056474155801310266e-01
3.483859782643283776e-01,4.404668853116262134e-02
9.296502864202225991e-02,8.392466011600078213e-01
-2.640536271754493347e-01,-9.822837874510337297e-01
2.884335062520768100e-01,2.232734079731479859e-01
3.808522674246427320e-01,-3.456465627114873040e-01
-3.874884475568977082e-01,-1.043625509460944199e-02
4.828432541615424456e-01,2.698304829692770301e-01
-2.390096016132519652e-01,2.664061571330336164e-01
3.281571709592873698e-01,-1.112671293488356750e-01
-1.414549360192966787e-02,-3.538999224395497079e-01
3.139718812229856382e-01,-2.115087563788867198e-01
1.006012571401880690e-01,-8.529116104131728715e-02
2.689442774294348304e-01,-1.088489124100578687e-01
-1.791555456985001182e-01,-6.995610470073493348e-01
-1.752009282816825997e-01,-7.495606844024135795e-02
-3.624700054004892369e-01,-4.142844280062612378e-02
-2.349822763194095721e-01,3.533224581718193980e-01
-4.105482133963094804e-01,3.120257925747073058e-01
-1.752860665033681431e-01,4.166524652958007030e-02
4.107260311136115005e-01,-1.024274266765534819e-01
-4.327366669870458815e-01,-1.617192926750759541e-01
1.792777256561341737e-01,-2.870234095101341087e-01
-5.262752953873390815e-01,2.822405635057463891e-01
-4.126323320156299879e-01,1.958576429462750013e-01
-1.359165537900829113e-01,2.378692894129407973e-02
1.953161449720407783e-01,-2.158791887073423232e-01
1.060497658691745421e-01,3.132758199574180447e-01
2.817323292653314826e-01,3.166202293787056532e-01
2.844912634287675157e-01,2.724513344656431801e-01
4.108776763216263200e-02,-1.497582454895993176e-01
2.757404043881434563e-01,-2.614405066805390310e-01
5.714508539708860330e-02,-1.194411402919782865e-02
2.665795494133091914e-01,4.553544341292471015e-02
-1.540835119114034313e-01,1.337305925988776512e-01
-4.606348212194604774e-01,-1.006664775794131050e-01
2.409884682649397480e-01,-3.232439493417344489e-01
1.313131660492073971e-01,-9.149089688757767735e-01
-6.287664096932843449e-02,-2.090531280321017149e-01
-4.971245481819399487e-02,5.147203945678026082e-01
1.141216639698228730e-01,-1.683293840480530046e-01
3.917540178940364104e-01,4.563063463670273545e-02
-6.678984690318526263e-02,8.977033931862508920e-02
-3.154329004570253364e-02,2.332187364348224379e-01
2.124408382953031985e-02,4.360096534170639776e-02
-1.920550565132054729e-02,1.254570687809004048e-01
-2.320757414125826090e-01,1.284341192344406746e-01
-2.476514259919529448e-01,2.887692602613838866e-01
-7.906484085821664509e-01,-5.060496941651798641e-02
4.093925407004852385e-02,-2.101275962579178813e-01
8.561800932423815902e-02,-1.929935529452769249e-01
-2.188522619004115433e-01,4.468622724293845605e-03
2.946175052951685025e-01,-4.378568507619519379e-02
