-7.856662728295449490e-05,1.585619403162808556e-04
-1.681591679128323206e-04,1.164968934564680476e-04
2.826882222801741334e-05,-2.195335485420625218e-04
2.459869963117193364e-04,-2.934423387425059830e-04
3.097944144513313904e-04,7.982042487566753637e-04
-1.758194167815528650e-04,-2.369064603960095629e-03
-3.823881376990111549e-04,-2.777419181342315885e-04
1.006535356411072610e-04,-7.102197710950652930e-04
1.848304044108022676e-04,1.447144155776122505e-05
5.598208746603770207e-05,2.744751881573133964e-04
-9.058205672128603506e-06,-4.023882533080421820e-04
-3.651593340293853062e-04,4.088920828839409769e-04
1.027055901567526497e-04,-8.921249850813957934e-05
8.930319046779342863e-05,-9.279333556580150906e-05
-7.315220807848440857e-05,1.025939132141318494e-04
-6.041777358713909616e-04,8.626910681956653261e-04
1.446085303866126423e-05,1.831535676139584934e-04
-4.197434094797951494e-03,-1.082132282036764141e-02
-4.247714968849276287e-04,-3.759590623187269846e-04
-3.438920863847961330e-05,-4.216028914870908198e-05
-1.876696220199163500e-04,-1.536388531107365357e-04
-1.921065437085715669e-04,8.806379755949271960e-05
1.594510777496557417e-04,5.287008705875996268e-04
-4.577285316828921227e-05,1.893405266784076732e-04
6.556194430139566812e-05,6.358584332100179846e-05
5.487038262410739260e-04,-1.048807789981948878e-04
-4.478133388781714450e-05,2.628483292099050115e-05
-1.123792865365298845e-04,-5.687043447137862751e-06
-1.655129383550819607e-04,3.259343064004179501e-04
3.231316636072491147e-04,-2.198991422141022734e-04
-5.163340428631967092e-05,-3.691867181107817074e-05
2.281831915969656629e-05,-2.174915266559682614e-04
1.062372320088610225e-04,-1.505417483484056444e-04
-3.895162606633917335e-02,-4.559988979659477387e-02
1.298239778394679736e-03,-1.295704512913824213e-02
-1.284948147344278004e-03,-1.979625439518124200e-03
1.252843207122445596e-02,-7.497783081699353758e-02
7.609770755515616351e-06,-1.333418798151726303e-04
-6.915729904831551824e-05,-2.939828677125468125e-04
-7.980620661255284642e-05,1.850771899543716124e-04
5.456397708332985972e-05,-2.262079494002898006e-04
-9.222851350190525824e-06,1.705860775007362663e-04
-2.408668024682433993e-05,2.131714666949541487e-04
-3.117048258542625219e-04,4.252046893446413499e-05
2.526107772252008743e-04,9.751330718349931299e-05
-1.995621592069208379e-04,-6.134121481043993242e-04
-1.711434733808310190e-04,2.741442848694747395e-05
3.144478503425296597e-04,5.856718927427450282e-04
-5.571887310395806013e-05,-2.519734292033152037e-04
8.149147297349429615e-05,-1.212749930054765027e-04
9.077440545649576563e-05,-8.771743196324426799e-05
-4.410767827188959806e-05,3.573386676337540670e-04
-6.658003861626860583e-05,1.516619851938311484e-04
-3.688080977112169760e-05,-8.457186836216864362e-05
2.830182548591848694e-04,3.317120099878219418e-04
2.258082896162999875e-05,7.381819047882104716e-06
5.170565930957408182e-04,4.196450336561993125e-05
-2.733001799111607591e-07,6.353343010236229790e-05
-5.810844733947606290e-05,2.025147408671898008e-04
-1.800177425831434486e-04,-2.082037751115513172e-04
-1.592297635247340954e-04,-8.656063352846436016e-05
1.880225200299593172e-05,5.689055330889018677e-05
-8.398380838011405380e-05,-4.537822253910393691e-05
3.968773984025309517e-05,1.290852967557527547e-05
-7.631507350288601341e-04,-7.155951021006989573e-05
5.389536748196499495e-05,-5.395562864571580792e-04
1.521695611940531551e-04,2.393614915860791358e-04
3.212881584604931581e-05,-3.139884379948317179e-04
-2.228451316637330287e-04,2.099814915780423043e-04
1.106709101513494921e-04,-7.982913366612253369e-05
8.888185275359108018e-06,1.803448203273578881e-04
-1.550729467132803832e-04,-2.249174471988287102e-04
2.185800599414633168e-04,5.911705001094415095e-04
-1.226910730205637429e-02,-2.106059372820476283e-03
1.606956091914255591e-01,8.818717249356937404e-02
1.869991534215934394e-04,-1.420663763110126428e-04
1.821210268158106262e-04,1.139235652735558148e-04
-4.112026579201589972e-04,2.046909757647353894e-04
7.657084368357133623e-05,-4.362983767948563050e-05
-9.379497469744247121e-05,2.771240750005023212e-05
-3.180063103130017122e-05,1.955127589071557672e-04
4.947586098498821640e-04,2.392023816608778060e-04
4.078435687179002116e-05,3.056399094590705583e-05
-5.321591152198096655e-03,-5.080385338648455394e-03
7.956514302223938455e-05,4.675243185969627001e-04
1.007293017381520736e-04,-5.863285906799596303e-05
-4.806741889735418108e-05,-5.111836101796143157e-04
-3.382857506853098844e-04,9.022465882584051978e-04
2.409852842271399768e-05,6.915499006266956599e-05
2.446191448587849713e-04,1.281025765650463312e-04
5.682718166946504595e-04,-1.051413507789297899e-04
1.236910693265602993e-04,-1.234056945027388352e-04
5.071262289279755442e-05,-1.045264512549897015e-03
-3.807691123953127151e-04,2.538813112224647009e-04
-7.375492705837293818e-05,2.982273432717152888e-05
-1.137905364873360349e-04,-8.757611567217587459e-05
1.209615464845856210e-04,3.252406035584084619e-04
4.370791853329895091e-04,1.523165178677492767e-04
-1.729936252732483548e-04,9.859867740191247023e-05
1.624998323501931137e-04,-2.237830796234874860e-04
-9.050074909420198293e-05,-1.210606189013684373e-04
5.713932838794407972e-04,1.588407867977291454e-04
1.025263920047480778e-02,-1.102757831662947580e-02
-5.405286026728485516e-02,-2.094243594602098000e-03
6.183295373936207413e-04,4.567736109230614871e-04
-3.205122831607471389e-04,1.132617268898031623e-04
-7.655257274425079775e-05,3.185350516109325945e-04
-9.876480201245065136e-06,8.741987721241174314e-05
-3.708180995442212811e-05,3.820251421801234442e-04
-3.651550642044876699e-05,-3.722542868316056986e-04
3.176184467198743424e-04,9.672805874136310514e-05
-1.821720379818137208e-03,-5.918190975637329645e-04
4.494908623971385908e-02,-2.381455628081951409e-02
-4.248360517112182572e-05,1.634973464362428624e-04
4.272067047476174086e-03,1.108822573996126864e-03
4.331091900083279631e-04,-1.270849602378227054e-04
-2.604662088255099944e-04,2.025786606286087538e-04
4.931007556331093661e-04,-2.242130525227330868e-04
2.065865869515500983e-02,-1.017424128714562864e-01
-3.856266873343780770e-04,1.380091548178420582e-04
-2.066362424362934035e-04,-3.126815580580846439e-04
2.563794309025158643e-04,4.002910963126725250e-05
-4.929024878678443539e-04,-3.158655545503453402e-04
1.500735614813210978e-04,-7.382248011621395578e-05
2.901163375536051663e-06,-8.698817198288676838e-05
6.620225789767955008e-04,-5.646014601704269073e-04
-1.752723301849558725e-04,-7.880935784775563278e-06
6.657190777787471477e-04,2.223931032217738577e-04
1.684220346838249526e-04,1.915272461003329134e-04
2.096667706335680892e-04,-1.084987937989156546e-03
3.424323663463881657e-04,7.395555415181278951e-04
-7.465298530264476628e-04,1.158795162384356321e-04
2.304066427245116361e-04,-8.188128904475659221e-05
-2.324434967589465695e-04,-5.036284572111306059e-04
-1.424383230287216040e-04,1.348168902960421073e-04
3.521749005445466956e-05,1.672400747835042366e-04
5.960596240729873453e-05,-1.297238002264282440e-04
-1.892609678713467981e-03,1.031811018056344280e-03
-3.904640266087443766e-04,2.709681610431555481e-04
-4.590630988747426006e-04,-1.023068122621276547e-04
1.083869497010985875e-05,-2.076160867813809762e-04
-1.089572488450391322e-04,-2.389662021049329297e-04
-5.043810760388475626e-04,1.433283568029786767e-04
4.701083399144895193e-05,7.336582845203899837e-05
-1.815983018712849864e-04,2.065838955803847923e-04
1.444278080484491522e-02,-1.708871291675928550e-02
-2.478291510021726003e-04,8.913948469909417627e-06
-4.333938773479335230e-04,6.401659146758366392e-04
6.294557181199653042e-04,1.033366269660180510e-05
1.356691711150407481e-04,-2.250564545393876636e-04
-1.120254693358890537e-04,6.466138121376349039e-04
3.568841919760206587e-04,-4.554113133770203181e-04
9.863815406016164449e-06,-7.316733053781190657e-06
3.820336255911833414e-04,4.991064828163699211e-04
2.622780245693758969e-04,-1.018493806952363310e-03
1.182278388286974119e-04,3.430485122289956960e-04
1.709701113852208959e-04,-4.282361396494991832e-04
2.923829857627686609e-04,-1.632143361616370870e-05
-4.613278643343615937e-06,8.487494103799163162e-05
-2.741883466965398830e-04,-6.745989945542709646e-04
-1.303743594405538139e-04,-5.592347929023945116e-06
-4.071439622189332492e-05,-2.370365026431312579e-04
1.085350712216587554e-04,1.063669660691836659e-04
-9.936022687174352985e-05,3.026620012962112158e-05
9.125640124343613606e-05,-4.441290526189772933e-04
3.640074497303664048e-04,-1.338608320717095163e-04
-3.856566019967860881e-04,-5.876515958820584468e-04
5.788444711738942154e-05,1.287120189559912468e-04
3.558081853448356630e-04,5.588959067870842307e-04
-2.080037409888854650e-04,2.712201744347292700e-04
5.162164969617038905e-04,-4.913639306993955810e-05
-1.999809997791548836e-04,5.366683373650920448e-04
-5.259354925639462804e-05,2.718861413875754674e-05
5.364948778137184731e-05,4.849395838561229946e-04
4.184386755672547874e-04,-6.588074156917585720e-05
1.061965408347114804e-03,-3.411502402660630383e-04
-8.518903257004148573e-05,9.120807896541679094e-05
2.208953165253691391e-05,2.632201612887395160e-04
-1.751032064474673769e-06,-3.163825790916512939e-04
8.233668228078671052e-05,1.095673865819135108e-04
-1.130007952057523974e-04,4.714012815022266753e-04
1.164012158072508718e-03,-2.076150622722296602e-04
6.132161711232553009e-04,-4.157271467545905889e-04
2.463004038458709390e-04,-1.267582525815548825e-04
-6.446420927827366384e-05,6.327809817023172256e-05
1.750658224353522687e-05,1.210522980466273012e-04
7.003973705634371769e-05,1.535542842744277829e-04
-6.669590130445058598e-05,-3.653587571789112122e-05
1.428309922170721948e-03,-2.445924892057282462e-04
3.008694721946558216e-04,-8.265086426968908193e-04
1.270402370502476868e-05,1.716254721370474325e-04
-1.597788455996222387e-04,9.059748838749605369e-05
-3.368619145426930803e-04,-1.430559839327434156e-05
5.030504468033593558e-05,-1.878121595962104710e-04
-1.817437052499763631e-04,2.365958867345367169e-04
-1.824390794971061900e-05,4.329244843726494022e-05
-2.828973279794833062e-04,-4.035769118985463658e-04
6.057834344760275672e-05,5.260743716103051277e-05
-1.120690836331788876e-04,-3.116765260750399102e-04
-1.398000802215238680e-05,7.270937169014808599e-05
5.111569329841863510e-05,1.973109216225238144e-04
2.570235108269006315e-04,-1.145026751479980644e-04
1.362298702659898054e-04,2.500670695535837682e-05
-4.189277772474164074e-05,-3.203627227872070729e-04
-8.836285634477565414e-05,2.420289210991594369e-04
-1.446193868440614420e-04,-4.748520851527573495e-04
2.205626209818355805e-04,-4.583115736008170553e-04
1.595893371567784003e-04,-2.403056091450352051e-04
1.099641541288475763e-04,5.337374434873009898e-05
-7.964859006949099739e-05,9.718070941409631604e-05
-1.454141464891741345e-07,3.532940013777934236e-05
3.865949683798453117e-04,-3.106443604509381427e-04
-3.221389973870190286e-05,-2.271027315193426778e-06
-6.154918139895115565e-04,-3.254976351702193221e-04
-3.628516906875966066e-04,1.400942052710154673e-04
4.892803988805635934e-04,-1.305399745734437169e-05
8.785977068788942360e-04,-5.929315470581016101e-04
1.323544712136681017e-04,6.326912748255160814e-05
-3.359446723681085850e-04,-2.545343777328132825e-05
5.365899125637880671e-04,1.421045535966675784e-04
-3.834659495740379330e-04,4.428496154827012512e-04
1.241561921499009999e-05,-4.770140866602217474e-05
-1.688926625773352506e-03,-4.991397374698041736e-06
1.345945717576136453e-04,-9.368818591629731645e-04
-1.629693584298753570e-04,-2.854182752890877602e-04
3.654232576408958963e-05,4.143436564278899230e-04
1.458794440731105493e-04,-7.507475742267821317e-05
1.469217230960095813e-04,-1.080722375447326411e-04
-4.639925048567687346e-04,-1.580130043117198855e-05
-7.224562178714175043e-05,4.154000063231220801e-05
-3.130751053083947696e-04,-1.638058182209089630e-04
4.211603840980288001e-05,7.622077067902647586e-04
-4.462928406986583824e-05,3.085632610354612535e-06
-6.928642884417531337e-05,8.695058083393626872e-06
-2.367552910904476612e-03,-1.604457070023705472e-04
1.403600009008637930e-04,-1.314381290446629466e-04
-1.446164079878435688e-06,-5.172363090935520831e-05
-4.811719049962421895e-04,8.952682690020723883e-05
-2.398596437975340366e-04,1.098242891718640910e-04
2.022988899175833975e-04,3.935609968511617762e-04
-4.161994508004476345e-05,-4.776106622573202207e-04
-4.349063140874693980e-04,-2.428971481579493173e-04
-2.728727530597405007e-04,6.949641559621217530e-04
3.117689726333849388e-04,-9.679918148668836819e-04
2.059449826528688841e-04,-1.413511030793325408e-04
-2.012012325029070099e-04,2.769956223028578854e-04
-6.774822480537803782e-02,1.614925599811909418e-01
-1.527483796380273628e-04,2.290726273796468484e-05
-1.202839316290614123e-04,6.755019540201199655e-05
1.554643710436244016e-05,4.737370964802257127e-05
1.322659328908591886e-04,1.364773040797156593e-05
-6.327909316220607537e-06,-2.415916250999765129e-04
7.219356622985446123e-04,-2.060557719069185025e-03
-8.124345907465655239e-05,2.527467159504031657e-04
-2.633083063698423310e-04,1.256589776744296771e-04
1.682093955734141524e-03,5.375984749477699838e-03
1.155328635067090835e-05,-1.354128984939233433e-04
1.867615871097732020e-04,5.942494546618833057e-05
5.011319849051232885e-05,-1.395796483530147220e-04
-3.018558995144669972e-04,-3.618354271834875522e-04
-4.054599935217186664e-04,-3.800000404246364782e-04
-4.416274359787153610e-04,1.828823982471750802e-04
-1.361744167660328348e-03,-2.543469928561269133e-03
2.041246449266540994e-04,9.547942290531428197e-05
6.339359061840759595e-05,-1.714256306606777667e-04
1.239520481703763931e-03,-3.738891097653487719e-05
-3.185683099636092003e-02,3.575571679899808980e-02
-5.750323022152255617e-04,-1.458731040434381216e-04
1.267325246116932525e-03,2.590312377013825103e-04
-1.043620458339161451e-04,5.940261147893302705e-04
7.668014832042518720e-05,5.012285638759354930e-05
-2.860793341743954679e-04,-6.179837219994123053e-04
-4.522416879008880897e-04,-1.328296941698490694e-04
-1.407991408021007644e-04,-4.948963119714467495e-05
-3.286109190101531470e-04,-4.257544661059356440e-05
-1.757257277601851253e-04,2.482937953458299566e-04
4.052451043191303878e-05,-2.119754497937809319e-04
-3.485497626210733060e-04,5.434396117312304485e-05
4.863947715412021483e-04,2.441913718382868258e-04
-5.924017288911110376e-05,-4.780321071672299884e-06
-5.106993495350626612e-04,-6.277519461862491029e-04
9.221512601489363972e-05,1.759278440277681254e-05
4.167429544118935673e-05,5.278650846581760606e-05
8.369332691649449896e-05,4.936501241292959042e-05
5.341965158690693919e-05,-2.359088971184130907e-04
2.549303442244472729e-05,-9.472326604261502910e-05
1.412936496576186087e-05,1.005264234104005512e-04
1.536789964547859546e-04,-9.204420046177309151e-05
-3.988587004258775984e-04,4.187635835787935812e-05
-1.164173896833586136e-04,1.888795009091022610e-04
2.442919764868422281e-04,5.507684333512073314e-04
-1.463844491350234432e-04,-4.854592883339913282e-04
-1.376462755917199124e-04,-5.355259850130754656e-04
-1.263297363593313041e-03,-5.548544714468157469e-04
1.643982504351252001e-04,3.718146418965822078e-04
2.788007695035906244e-02,-1.654598945669118280e-03
-4.485410278318669656e-04,-2.000596778662613222e-04
-5.437934675893551232e-05,1.124315031325292050e-04
-4.479973127813815788e-04,2.907024569149693977e-04
-2.965532875253405233e-04,-2.011692758403497796e-05
-2.915623417247732458e-04,-8.490679601694726649e-05
2.344321273250557665e-04,-1.957875420232539380e-05
8.052604424445035857e-04,1.266365199150866082e-04
-2.852757081759513475e-04,-8.004306444347853393e-06
-4.833904989547789879e-05,1.103334589139289956e-04
1.122641767977109167e-03,2.616110223952896967e-04
-3.310468512055921107e-04,-1.159076771757820153e-04
4.295979602203473403e-04,-8.324928797660888615e-04
-7.859233306630758898e-05,-2.716194439043949005e-05
1.459570513236645383e-05,-3.100794280470225745e-04
-2.880283070096653175e-04,-1.057096498557981077e-04
-5.856301425548856091e-04,-1.210838045769562263e-04
1.793286981271052533e-04,3.863656557518800475e-04
-1.835414658393387868e-02,-3.085416010382212304e-02
2.444683833221415162e-04,-1.926448278916829707e-05
7.059391389746202689e-05,1.777300428827114818e-04
1.076185037351001094e-05,3.714668063126696650e-04
3.604599201196327066e-04,-2.122904395760158479e-04
6.753117250813805159e-04,-4.560098064589000440e-04
-2.565047704602205886e-04,-2.468403438689895698e-03
-2.950361771255229472e-04,-2.863453803591462215e-04
-6.416736980222299358e-05,1.328341370028986320e-04
8.542059870009428065e-05,1.054859654577875252e-04
5.807383974059442209e-04,-3.207569169573378626e-04
1.058144700312478511e-04,-1.355433431770471601e-05
1.367779396065556692e-05,-1.047455633944020684e-04
-2.979096239930751028e-04,-4.308523340021873588e-04
1.171425282621428457e-03,-4.817671766438780972e-04
-7.050117133631407648e-04,-5.610719744410550902e-04
-4.476467343506354796e-04,-3.623600155228688469e-06
2.574543075101752066e-04,2.542144293020451415e-04
-2.385080287928775474e-04,5.015372669377194661e-04
4.418071855339167418e-04,-4.353454771025581173e-05
6.664633494586001379e-04,1.097659434552475995e-03
-3.614297882613770954e-04,-1.212888145925502007e-03
5.807162145165924248e-04,9.009595693339086898e-04
2.168150770305796778e-03,3.718134855205795179e-03
4.670751412615446941e-05,3.497029524495604848e-04
7.036063810526487026e-04,-5.007742822824256786e-04
4.485069484182757638e-04,7.192222628269670515e-04
1.163060118632312139e-03,1.016606449460298774e-02
-9.551399816365420490e-04,-2.250022056242313446e-04
3.367622290260938921e-05,-5.990929118456394034e-05
8.097297145825661121e-06,7.160981594030418462e-05
4.021272527179490055e-04,3.354477132923886575e-05
3.669637325745502736e-04,-8.567840664258496042e-04
-3.491097106448041326e-04,6.034719191276254188e-04
-8.005854682282372492e-04,1.045476115206066302e-03
-8.674591507995664140e-04,3.503100917582709561e-04
1.922889129097261798e-04,4.394414750568225976e-04
3.025841656461354060e-03,1.751847792744433852e-03
9.091299321641151327e-05,1.107724983152534896e-03
-6.190213616472930828e-03,2.831265614265757527e-03
-8.861934599942915356e-04,-9.482609895289697546e-04
1.782895289919303461e-03,1.004025244241775429e-03
1.257590899119140956e-04,4.341471843146729693e-04
-3.191769649050870593e-05,2.317527366018796637e-05
7.229208353708950138e-04,-1.122387251038400950e-04
-5.359554644584689324e-04,5.295463300916169840e-03
-3.160295368625323092e-02,-4.127346223137210585e-02
2.219453809847506121e-02,-2.005792404467322820e-02
7.247451999126703487e-04,-3.657877882877117034e-04
-1.007891491054856083e-04,1.990789382067455497e-04
1.631584009127553310e-04,-6.688187949506455184e-04
-1.811701817990071925e-04,-2.237699570607175879e-04
-1.403381621422789569e-04,2.616717880448384865e-05
-1.187648103355223736e-04,4.273129993732280974e-05
-4.008677481765188764e-05,-5.314912810953598089e-04
-4.431388400239606403e-04,-4.605990577200433844e-04
3.346378486422245152e-04,9.438368298132284470e-05
-1.340685946714647041e-04,-1.189435043573033608e-04
1.002843203212818108e-03,1.176372203120645702e-04
-2.463454324163361639e-04,-6.289469250109013367e-05
1.032482369426974446e-02,1.278314759265788796e-02
-1.488295247442473351e-03,-4.288907351996392543e-04
-3.334117448989102781e-04,1.772360413790515041e-03
-1.662712345233956874e-03,1.099311691809832896e-02
-2.680605756139017360e-04,5.911791709122329874e-04
3.921399076302475514e-04,7.043346700738397129e-05
-9.724138809960315407e-06,-6.212120424201412669e-05
-5.712524262178062320e-04,-6.992963583482095799e-04
2.333879172624080578e-04,-1.171044680524778339e-05
1.069909102970180252e-04,4.404542710744342292e-04
1.387068447096369511e-04,4.792269716923227641e-04
2.150209036764011363e-05,-1.489281642985303957e-04
1.080292591983103220e-04,-2.360607178351009714e-04
6.761608633237690047e-05,2.269466756178101295e-04
-7.445750224077640181e-05,1.818149659747788759e-04
-1.337678602737859591e-04,-5.833407994896037604e-04
-5.232014389716982405e-02,1.399615346958064423e-02
1.079831116154764635e-05,-2.235229189245529385e-04
2.631679365975635263e-04,5.556613042474526894e-04
-9.696164243526708085e-04,2.941387028723517873e-04
1.536263186089007089e-02,5.851425434459521686e-03
-2.452399806733831177e-04,4.124897714867053989e-04
-3.577563128804280902e-04,-1.410018961443642010e-04
-1.239795983601476616e-02,2.418421851344289969e-02
1.254882270159175328e-03,5.577475886253180143e-04
6.366649658110801744e-05,2.944893842573920108e-04
1.992548181361101286e-03,-1.967884737409771739e-03
-2.321447125999622548e-03,4.832941360816051294e-04
-4.113934519492526361e-05,-2.245508495742548692e-04
-4.701122225332103523e-04,4.984343774736438868e-04
-3.559796771881763872e-06,2.825625717001831617e-04
-1.575275083213592867e-04,-5.188570913980431690e-04
3.895691598527453356e-04,2.405124194974008638e-04
-8.203190314521842993e-05,1.342401034858219783e-04
-6.204452366579906895e-05,4.820936790197590470e-05
-5.950481878453469151e-05,8.506333454351896746e-05
-1.805355261392055052e-05,2.951777300569176799e-04
-1.557712671562235993e-04,3.097660880781417600e-05
1.431632853626636727e-04,8.587546413866962340e-05
1.733357762578918075e-04,4.973997678314802948e-04
1.904269137111282931e-04,-1.063406804356787911e-04
-4.156626821409553402e-04,-5.961344875788312645e-06
-2.771605461727597247e-04,3.055858551711432725e-05
-5.465799413706751636e-05,1.476285398907943602e-04
1.217711085465560990e-04,-1.402394537785785526e-04
-7.256010199417970005e-04,1.767945629372048822e-04
1.606982621117882730e-04,-5.728605528088484349e-05
5.217822226917255600e-04,5.420887009600625951e-04
6.270598317172627846e-04,1.468369332440093487e-04
-1.074678760738671167e-04,-4.648649554651181298e-05
6.514103729164708685e-04,-5.968487485966645582e-04
1.251376107859311279e-04,-1.128930847402417992e-05
2.538820422921468688e-04,6.419416014830615848e-05
9.885041096283781671e-06,-4.575510056201298605e-05
-1.052376867128412092e-03,-1.802595070057251602e-03
1.276798764677992525e-04,3.385875750249442754e-04
4.917649824655058715e-04,1.119078876955458522e-04
2.685661690955464063e-04,2.425677404113281248e-04
1.511580187244917432e-04,-9.809827981044438145e-05
-1.449129353225027145e-05,-5.629374887185051529e-05
2.065767981208050503e-04,-7.093254131055645294e-04
-1.326876174344290360e-04,-1.969611618785424448e-04
1.477215859195147739e-04,-2.057973367420944292e-05
-1.317303130318622229e-01,-5.219304571471891641e-03
7.423380393122358534e-02,1.352218176731753707e-01
-2.147498369180518910e-03,-8.394140223714839644e-02
-1.087416387570585554e-03,-5.279085222036190850e-03
1.104338355357286765e-04,-1.581067565266689270e-04
-5.816942855140597168e-02,1.018697590416845489e-01
-7.240738476034863039e-04,4.713103515335273432e-04
1.188442537750864376e-04,1.986567063376314948e-06
-1.091117046836291229e-04,1.131714854200298196e-03
-5.156500012814370718e-03,2.053620022549995303e-02
-2.337768268919124921e-04,6.554129627790048146e-04
1.417669289586255565e-04,1.092817895108541842e-05
2.877118900027134853e-05,-1.302749737129562518e-06
7.575963110993101603e-05,3.767720033609866094e-04
-2.394976019138817208e-04,1.529051569836179457e-04
-2.625696038752353996e-05,9.318238578434441467e-06
-2.674596383056380457e-03,1.654580821020772098e-03
-6.624727243093624617e-03,-3.344617375649269319e-03
-2.253999332658032759e-04,2.910573630070442393e-04
-1.916114183317358213e-04,3.230741065812181524e-04
-1.114122264314397785e-03,1.858634019420465195e-04
2.967460352492569853e-04,-1.951649403974847676e-04
-8.689832213610568018e-05,-4.041626186078407443e-04
-6.430941273605931608e-05,-2.703397301126204554e-04
-4.952734537243156325e-05,-2.661904964086933643e-04
-5.187916129142573253e-04,1.020042884873366071e-04
3.091389868123554973e-04,-2.905694038454917317e-04
-1.416785137791160476e-04,-2.431233136811588843e-04
-2.844374762249573239e-04,-1.309633941204495135e-03
-1.557039099468675129e-04,-4.099324885054308272e-04
-6.295041384138393050e-05,3.524322275438024473e-04
1.242939908991869398e-05,1.423694527037093194e-05
7.189746881859479164e-05,-8.046582370268687875e-05
-1.189134100098918469e-04,5.220510998602939092e-04
-3.534861253879484068e-05,1.475937025283003258e-04
-2.020542999611211414e-04,1.736881476005917369e-04
3.059725936239719225e-04,-1.348756970993443798e-04
1.787198812124853140e-04,-1.826802395450658097e-04
2.416791024883321263e-04,-2.488938098723467878e-04
6.001124893607543960e-05,2.114530382370792029e-04
-1.917221587797397005e-04,-1.507698012911796378e-05
-7.501381652379904925e-05,6.367578796562172782e-06
-5.237149983651240726e-04,-2.647576884710783375e-04
-1.204774123099794581e-04,-6.042608720838724742e-05
-4.049397460905060473e-04,-2.772533318976755042e-04
-1.580869491478029056e-04,-1.834583762188381239e-04
-1.019560277380541472e-04,1.023582483129426123e-06
2.103625796797020358e-05,-2.130768832034316993e-04
1.982160299058965806e-04,6.903950398160943025e-05
5.084978335579630037e-04,1.309710391071824888e-04
-7.634391286559151924e-05,1.948697943319574900e-04
2.984673366334970792e-04,-2.696887217513438276e-04
-7.683596916345969592e-05,-6.911529012045407880e-04
-2.440355266889601357e-04,-9.022596342860768229e-05
-2.064379486128825971e-04,9.852338389757501645e-05
-1.717822730364524048e-04,1.640973549625417659e-04
-2.297640869243878852e-04,2.330593851731896273e-04
-9.481518951230754569e-05,-7.925044696294842542e-05
-2.714858904131345753e-04,4.074727622140898904e-04
-3.236482579772003137e-04,1.076897536518260171e-05
-2.146668153801386733e-04,-1.821563776783649232e-04
3.045363654179868981e-05,6.744879079768105171e-06
-2.033587967312894230e-04,4.667871082793620136e-05
1.583053250222463636e-05,-3.514901968642541031e-04
3.005461171697520082e-05,7.810742762147832334e-04
-8.300672151449249125e-05,-1.100718181753310848e-04
2.405447671396694219e-04,3.779325910165234133e-04
-4.658070353872454792e-06,4.110618068759761359e-04
2.735318322362155236e-04,-1.679481048639298348e-04
-1.065056320527292305e-04,4.151406746211352538e-04
5.681236066159841376e-04,-2.514733267069710972e-04
2.678713149404322782e-04,-1.970933895135720771e-04
3.540472293391099521e-04,3.058720100846782654e-04
7.668232644988289535e-05,-2.078056343556580429e-04
-3.882640157108260132e-04,-8.049263999170077645e-05
2.272922420650236501e-05,-1.807067847988852623e-03
5.088282927197112235e-04,4.290102844099054444e-05
-2.090082391470625945e-05,2.088735180819885687e-05
4.257259251866000278e-04,-2.674942597802092365e-04
3.434696245589847715e-04,-5.093267139231112163e-04
-3.771403923225756147e-04,1.864160884965182854e-04
8.924265576536064351e-05,-1.220887886667051990e-04
-2.606483655614097585e-05,1.111239477079537934e-04
5.258641557638294524e-05,6.808821384299702361e-05
-9.702618554359789015e-05,-3.495472091971181441e-04
-1.316214730759903610e-04,3.793444477031445008e-05
4.425591083134858142e-04,-2.963700515682316829e-04
2.060804953587558103e-04,-4.173708681780969286e-04
-1.134120945168871951e-03,-4.299706201788945181e-04
-1.647895616930534894e-04,7.701802195324114573e-05
-3.699314710036865933e-05,-6.450614394029976530e-05
8.237743150650952062e-05,8.130963805479021322e-06
2.371178789169754546e-04,7.194413506741101100e-04
-3.267874387425228765e-04,-2.619745519723860341e-04
2.145231661327929532e-04,3.803131335558148068e-04
-1.739508228498949866e-03,-3.495745228280285055e-03
-7.623964156249820809e-03,-2.449681522967427929e-04
5.372346247859921022e-03,1.394616863602746171e-04
-1.386196995454484597e-04,-2.170882482633246040e-04
-9.494315274574333455e-03,-3.007642054356599037e-02
5.965555533667786384e-04,2.028998794613683511e-04
-3.373946570646825863e-04,-2.950985656041786587e-04
-6.470999586593253637e-04,4.255726627220830869e-04
-8.678022420350501069e-05,-2.705587286186595750e-05
5.610173451848719231e-04,1.854817242261248258e-04
-3.341391158659100811e-04,5.667490666449523108e-05
-3.378732990468851644e-04,4.834871750480761871e-04
2.684024826151799122e-04,4.989238472288601680e-04
-2.698887323432715580e-04,-2.728941942451140919e-03
1.867850261499535893e-05,-1.772007909773973744e-04
1.756413933324774091e-03,6.593003199505747484e-04
-2.519138756910309709e-02,2.932983886820742306e-02
-1.896868986872540352e-05,9.057985453194553126e-05
4.638995017360470624e-05,8.779487131541605126e-05
1.257747161217986909e-03,8.523668689140486950e-04
3.790083553504757841e-04,-1.753499476806120015e-05
4.464693523882253272e-04,-1.564345070414295135e-04
2.460320115389779761e-04,2.831183586962612874e-04
2.707111772711543254e-02,-1.145769693215016594e-02
-2.097050875689114580e-03,-4.117649273745477160e-04
1.039717262645454762e-03,-9.039816488927033405e-04
3.907306659061775245e-04,8.092169770576525300e-05
-3.024557884741870678e-04,2.467455478615209982e-04
1.703432127764982571e-03,5.976036850216128295e-04
6.817390902546015350e-04,-5.339103234373729833e-04
-3.266740029505109800e-05,-2.462923644265365341e-04
2.852135396714730185e-04,-2.808561728563925119e-04
5.766699824565650265e-04,5.092247000117540359e-04
5.677256092627347081e-04,-1.940271536524825467e-04
-1.755829589794179299e-05,-2.021505203993183178e-04
4.330781722032760964e-04,5.623025984815013204e-04
1.493524753432918031e-04,5.741602648362893648e-05
1.791156801113326304e-04,4.063409813903340995e-05
-2.312118931936882479e-04,2.175683649605821154e-04
-4.850190085965523428e-04,1.511442433323982809e-03
4.805868087536052874e-04,2.511660840307703931e-04
1.757091230852770723e-04,-1.259661883622888536e-04
1.832920148515438698e-03,-4.571017050203709381e-03
-6.960362755538408415e-04,5.551531660209587694e-04
2.145853070459720281e-04,1.146879380638360595e-06
-3.900560943315471382e-04,6.958547957550037565e-04
7.749701377108741322e-05,1.184686732470156638e-04
2.145912710685350287e-04,-1.401523653218619906e-05
3.448707632804889943e-04,2.264411526434741639e-04
-2.011833797757585178e-04,8.980017526671524503e-05
2.013370231439307555e-04,-4.689748887985161082e-04
8.222078780362429258e-04,3.826184177151249559e-04
2.721647130439203274e-04,1.636619691121279257e-04
-5.468329614702248593e-04,4.458064765682271898e-04
5.403618079596408681e-04,7.308490693317491044e-04
4.594876721007026127e-03,3.685114633812801906e-03
-7.645841813468229309e-06,1.347158815458404082e-04
7.411750257938264704e-05,-2.362991780538904204e-05
5.763873980783512977e-05,1.769846044745970650e-03
-4.320537498983280096e-04,-5.574509512014697195e-04
1.079922139525345270e-02,-1.873236305440587751e-02
-1.485088227896456123e-03,1.248433618249521898e-02
1.443909326058189779e-01,-6.149289740182219827e-02
3.920580236498377502e-05,1.387049590267514236e-04
-1.366798676218378291e-04,-4.937467292175938462e-04
-2.053138178405515925e-04,-7.497142006077692862e-04
-1.099572916564081210e-01,-2.822110780187860740e-02
1.738642687162172684e-01,4.573914602242940552e-01
1.766227474887827054e-01,-3.427127355374909312e-01
3.314374520543549051e-04,-3.708896147690251242e-03
1.739101546458259235e-04,-2.596787038045814578e-04
-5.850874565750389158e-05,1.463509971591110941e-04
-6.241872772153144301e-05,-7.488773578626240618e-05
-1.327674067633292346e-04,9.533783758651331582e-05
-2.575628577021759095e-04,3.207016864942779867e-04
-3.068907572436098690e-04,-7.272536966996998823e-05
3.591005153061623250e-04,1.790164763460646929e-04
-2.016640023070758077e-04,-6.791800369694087481e-05
-1.754234655662039062e-04,2.149717010829258433e-04
-2.427264626405199895e-05,-1.986699511423932582e-04
-1.481114221395561181e-04,7.404744571395628020e-05
-1.405880304526226587e-04,-3.911664739701776420e-04
1.079511985219040009e-05,-3.465735562950365286e-05
-1.485614268708558452e-04,-5.907663565439865566e-04
-3.381291154134111968e-04,1.450400049099263139e-04
-3.744056615315273832e-04,-1.275350275194468523e-03
4.787372423065716382e-04,2.233324984470846930e-03
9.175553761166328130e-05,-4.355677521031646720e-04
-5.521644297341189977e-05,-6.508099120785701094e-05
7.002152924455249533e-03,1.794108795000691828e-02
-2.034421173228299668e-04,-4.667164130288083070e-04
1.568748577863230537e-04,-8.832993878398213896e-05
1.063743585632123982e-03,1.002656705373894700e-03
1.126030052671477807e-04,-2.796087759343875265e-04
-1.310324659746837095e-01,-1.411469264205721663e-01
-6.610723390551401268e-05,-2.943287128124313728e-04
9.687952943986970406e-05,-8.348344398591443435e-04
-2.411107477868783180e-04,1.704934231058538422e-04
7.869708076583520990e-04,1.129070977573987556e-04
1.191922497820359404e-06,4.081908824618114492e-05
2.174606548588552341e-04,1.572668134342972233e-04
1.337450387696781969e-04,-1.728567733585739978e-04
-9.503841280688104121e-04,-8.819626918336448938e-05
2.816340484701498198e-03,-2.361764519838559923e-04
5.169433035214384385e-05,1.541439920934550541e-04
2.012591652384840407e-05,-1.060837776647462725e-04
2.237445480133506048e-04,-4.123437126587946268e-04
3.587112721688714669e-05,4.291385476062021609e-04
8.828310137786223586e-05,-8.689022537385681982e-04
-1.127037654117237810e-03,6.547138187450765286e-04
7.826646736885683098e-05,-1.851446397281329531e-06
-1.275659838149281224e-02,-5.341200049877883882e-02
1.946033941150147461e-05,-7.243328027657389774e-06
1.258557780893109716e-03,-4.975298600569719567e-04
2.265412839849050345e-04,-7.691665262659224702e-05
-3.466491132460566913e-05,-1.519111117459267374e-04
1.063762506464736277e-04,-4.125715901362660035e-04
2.680440992944954203e-04,-1.333396757671385957e-04
3.373063271603340876e-04,3.071935734390177681e-06
-7.020959096151502569e-05,-1.110867386253075200e-05
-5.712307981743452224e-06,3.516498336422460482e-04
9.567648473601174331e-05,-1.544185776476955435e-04
-5.294066706264984046e-04,-1.296624772484350289e-05
-1.828679742555642672e-04,8.858422670183488043e-05
-5.005136336563125712e-05,-4.496328581362730808e-04
-4.118612837263759636e-04,2.499330097275175998e-04
1.443629030582979113e-04,1.502459870733205091e-04
-2.727283226832817080e-05,-7.018745474883774510e-05
-3.743215511301388096e-04,-1.072143822471021421e-03
-1.978995032032306001e-04,-2.824559048872229104e-04
-3.574900535713378710e-04,2.950180000914296038e-04
-2.160773512523795974e-04,-1.584887889961567704e-04
3.105463297055369382e-04,-1.518588672716969718e-04
7.199992591462574612e-05,-2.550169425395056445e-05
-1.715776691201093690e-02,-3.846495624552241643e-02
-1.135006765480687900e-02,7.106096778304232808e-03
8.676154474200591105e-02,3.785671307464771179e-02
-4.913999448398096055e-03,1.066551121162937106e-02
3.300539340982174691e-04,7.305293164202253874e-05
-1.766908734843068750e-04,8.120543865217763786e-04
2.274117100854575375e-04,6.666138954134372260e-04
-1.758210655926621842e-04,2.898062477055531549e-05
-5.998653253680801792e-05,6.801664264905876982e-04
4.274795448812674704e-04,4.836139314612454619e-04
1.004653488383810408e-04,1.262419549408034343e-04
-1.181757602405235780e-01,-3.310493594574794030e-02
4.005508536163270429e-04,-1.977508606377370842e-04
1.462240645637420222e-04,-8.693907957315029833e-04
1.048549490693255742e-03,-3.158521592316811013e-04
-6.493760461696148278e-05,2.446335641957271198e-03
4.018839070637291551e-04,9.842533445719603576e-05
-1.169789988845256184e-03,2.209303205258108225e-04
-4.453614123172904520e-05,5.190188011119033738e-05
-7.068149735198976159e-05,-3.463462608165501273e-05
-1.821505915654224978e-04,8.577924518146358510e-05
7.655647811462359563e-04,-2.826352694951237473e-04
-3.185448606364853414e-04,-5.003686266205377431e-04
7.207933386165520703e-04,-5.733247858149074767e-05
6.463457206369493577e-05,2.921672236257529757e-04
-1.874418398001052779e-03,2.311439164812610809e-03
-2.732139558010817423e-04,-1.000525850261635235e-04
5.270336260878886802e-05,1.446684057566601823e-05
3.935627813600567587e-04,2.086226507559930268e-05
9.567131529144037166e-03,1.419990034782368966e-02
-8.715041771326251599e-05,7.837141246956542249e-06
3.818770867696366178e-05,2.394113851932301248e-04
-1.589027147536862389e-02,-1.089537675790219415e-02
-1.247206389295794763e-04,7.755225319345486880e-05
5.204230473639600424e-03,6.023422382861025499e-03
-1.656091794066202058e-03,-2.740993415211074105e-02
2.992573787192980396e-04,1.850707181740494879e-04
-8.163468218835278354e-04,5.259070649260525355e-04
-4.461040035653950596e-04,-1.519971784743096195e-04
-3.603216158536985312e-04,2.961839703363207269e-04
-4.223735437283551719e-02,1.045750547487959564e-01
4.815752800531786009e-04,-1.105185640577187279e-03
-1.985840005947769757e-05,-4.091986217864836779e-04
-8.342618887124095045e-05,5.877193350574688865e-05
5.878415033656282948e-06,-3.865902711536014542e-05
-5.260168949808100569e-01,-1.620883198093399646e-01
4.511426118041295862e-05,-9.833230581595606474e-06
-2.639289778297529030e-04,3.754706684597504786e-04
-9.628164150345474388e-04,-4.328021947745728723e-03
-1.115084542416520545e-04,4.140614238270389131e-04
-2.927109322818804461e-04,-1.578791087137129559e-04
-2.093635000031850765e-04,1.051565658006567547e-04
1.045549839591077695e-02,1.305698412197924159e-02
8.743102368858238866e-04,1.075573224720917029e-03
-3.742631027266896267e-04,-8.973252596433888256e-05
1.121925528322860249e-03,-2.229323874098518244e-04
-1.001526160486471530e-04,2.615832315786757091e-05
1.409452479423154282e-04,-2.618919525900409635e-04
8.550565338827230855e-05,-4.617272319620243829e-05
-8.107120633339501281e-03,7.491346548835015051e-03
1.362547717215799965e-03,5.789764993883357753e-03
6.338451769563497066e-04,1.089052453809110537e-04
-8.643102105336865912e-04,2.184539640619412637e-05
4.400919502369356987e-05,-8.896213918049535518e-05
6.423346226084317634e-04,-4.142724587837230416e-05
8.593553033428796926e-05,-3.083055325987970252e-04
-2.451706796410293402e-04,-1.116389052945554699e-04
-3.387011852419600719e-03,-5.392744355615579181e-04
6.695612803978036581e-04,2.376924188536745771e-04
6.330259513680135449e-06,9.589302418493171121e-05
-1.339165672197859078e-04,2.275126464503271603e-04
9.280910486229949278e-05,-5.274368288116358010e-04
3.368674937208401431e-05,3.318926496387189853e-04
-1.277210162446003337e-06,2.105603026622631345e-04
6.640997379060107350e-04,-1.586071367493944496e-04
6.485296209298666709e-04,3.399137028188247952e-04
-1.901743959652933626e-04,1.015431031419010123e-04
-4.230557907287692536e-05,4.327402222813107153e-05
7.810714501856015146e-05,1.420096843265467252e-04
5.352883429156211556e-03,-2.399107309769213034e-03
-1.179068133685511467e-04,1.515698816405635284e-05
1.636339764940939151e-04,1.020785666701735613e-04
6.839348362162157120e-04,-5.721960175647400489e-05
3.138891464149991327e-04,1.831562803075564719e-03
7.928723657154910067e-04,-9.027366655017817322e-04
3.146371249843660537e-04,6.543323984103638184e-04
2.084123924149120302e-03,1.033187377242318844e-03
-1.000844903275410281e-03,-1.149711383795567901e-03
1.166232961848211061e-05,1.183988468527109763e-04
6.650405191656554146e-05,1.197735135323945257e-04
4.287406789876741550e-05,3.537842049795774193e-04
2.025014593248731787e-01,-2.466823235285566310e-02
6.095373787615090768e-06,1.743954400195539718e-03
1.438380020452563642e-02,-1.346471940194100651e-02
1.927209025799357970e-04,-4.610121577312563433e-04
-5.540933642969726562e-04,-8.285024666162802863e-04
-2.052580130175743695e-04,-1.486124115526692559e-04
6.675225849375631281e-06,-8.710231657642121289e-05
2.629749366313831433e-05,-1.644089423943534737e-04
-4.902724249133221195e-06,6.784797327274461347e-05
-2.805221283684908654e-02,3.079211477583789890e-03
1.600316740749328781e-02,2.189021912775187054e-02
-2.746930710677304298e-04,-1.503833891516849432e-04
-3.475455155867491239e-04,2.304630718423186125e-04
-1.236118879080774996e-04,-2.381200965949577578e-04
2.793682904713063020e-05,-2.411715569664651211e-04
-2.169240949031131039e-05,-3.503181915302645919e-04
-2.032481659553263178e-03,3.370796666696220922e-03
-1.464598353121351773e-04,-1.004578292901658659e-04
3.554268075789194495e-05,-1.324307797042118982e-03
-8.118173952122957962e-03,-2.491034397833022385e-02
-9.569338630316417960e-02,9.460246980395443928e-02
2.782046545062818489e-04,-9.479377700964237378e-04
-3.642922913273631135e-04,-1.755725686765205386e-04
-1.563482177001545897e-04,2.648648886933251779e-05
1.825683801643458899e-04,-4.783474750403003423e-04
-2.170961412051971781e-02,-1.354000628894646598e-02
-3.568399520058527477e-04,1.386972393426236184e-04
6.045177892963975452e-01,-1.547130208243244764e-01
-1.995165575004294528e-04,1.279752386455819136e-05
2.351985758597636544e-03,-1.183366936019821262e-03
-5.281823418232751109e-03,-3.797984487109062196e-03
1.340344840737810461e-01,2.297557451276212026e-01
5.162080287017942117e-05,-2.790844608001542457e-04
2.501044407066759217e-04,-3.412120740641696586e-05
3.842517335212048378e-03,-3.482889066949748647e-02
-1.243611354245466013e-04,1.107505261444280154e-04
1.783402142516279237e-02,1.720220523767105117e-02
5.698716921066984421e-05,-3.423479013121732322e-04
-3.289219172465877861e-03,4.193837057562331918e-04
-1.458296563460955992e-04,1.466810984890998379e-04
-2.105363099090645481e-04,-5.426825703975759118e-05
3.187157086442252152e-02,3.295912352122667976e-02
-9.784042362040856755e-02,-2.346350403878404503e-02
3.541044086056303658e-05,7.148389048267430202e-04
-5.378234155482542606e-03,1.438266110402012729e-03
1.953341815255779320e-04,2.146061290352902634e-04
4.867501897288765284e-02,-2.278924045584787214e-02
7.764544509205796585e-02,4.667638681198758854e-02
-6.695491396268615824e-04,6.435356517210580991e-05
-5.604620008400372022e-04,4.128681889949621821e-05
4.621235102862773086e-02,-6.407763680909063508e-02
3.241375765610094426e-04,-2.924715494082522223e-04
5.337266150085079661e-05,-2.104388714760137150e-04
1.607532049903108559e-04,-7.212006549688400618e-05
2.855883051553237840e-03,-1.426547742915573258e-03
-4.058626010044671766e-03,-2.434254992199443978e-03
5.628043239352700745e-04,4.843802782338969891e-04
-3.591630273069858492e-01,7.912657434228122233e-02
-4.363080145703372844e-04,5.751759925302300227e-04
2.007607387190581041e-03,9.583121953065107737e-04
5.856056804935419469e-02,2.247436241159643522e-01
1.912555553041617412e-04,2.245010654239595213e-05
1.580107264730762351e-04,4.065933727571538264e-04
2.410061973319596067e-05,-7.773027683005616860e-05
-1.541983759377688360e-03,7.870555678018329414e-04
-5.526901044141620256e-02,1.625899214085478883e-01
-1.193972084436751440e-04,-1.142299903945274097e-04
-5.210073244209565508e-05,1.451024510226995830e-04
-9.613655096694120840e-05,-3.962751277545475243e-04
-2.116078681731275134e-04,1.844693715217553482e-04
-4.519403678523127512e-04,1.631200944098147609e-04
-6.096947727816301281e-03,-8.653151867459673088e-03
-4.363987510285645118e-05,-2.983954711743915683e-04
-8.620003968182095300e-02,-1.453359951889849344e-01
-1.880345674053512017e-04,-2.826884018441253184e-04
-6.206612629186982052e-04,3.786249040784952450e-03
-2.626056632880855455e-04,1.230744875913438818e-04
5.639629859892304666e-04,-6.514011686277332161e-04
1.352666407098578787e-03,1.110909317501297374e-03
-3.084213682456599516e-04,5.169122712141007521e-05
2.776390855473820471e-04,4.773013918624257441e-05
-7.125217815183908232e-02,1.044000366877206876e-01
-1.653825268029503193e-01,8.628989906328632387e-02
-4.388633245191588894e-04,1.093287282355587638e-04
6.552858103942894603e-05,1.478224674277995730e-04
-6.268010757251913810e-04,4.312628399471670686e-04
4.436877958832813264e-04,3.549245217142599608e-04
5.030188819346151146e-04,-7.885576032005337443e-04
-4.838654457044292589e-05,3.116615712856798915e-05
3.467310539910826935e-05,-1.267268413688263818e-04
-2.069523293103902022e-04,-6.174732670661673328e-05
-1.671953690742204734e-02,-2.518428703569920712e-02
-2.947569175964475773e-04,4.010517827516973548e-05
3.231124890638908953e-02,8.255000922224829674e-02
-1.597850573351191905e-01,-9.349155878770781455e-03
3.366872476789093960e-01,-6.081546668422513346e-02
9.035953094538104122e-03,-2.036404308943451369e-02
-4.616443201807210288e-03,-2.237746915634132409e-03
-2.925303590541782008e-04,-5.283254581168931154e-04
2.844839113676948328e-04,-2.175719518741950603e-04
5.034600657262203183e-02,2.802519459903659027e-01
-2.503463568405873696e-01,-2.801836894337586190e-02
4.904492897286236511e-03,-3.142613507082548090e-03
-4.820030836935751926e-03,4.953209473666336272e-03
1.627723717723723179e-02,-1.978182270705735879e-01
2.961332222086403201e-03,-1.209154558048335885e-03
-5.877069940268126987e-04,-3.484751093172093104e-04
9.246445258798785354e-05,-2.333176800547718567e-04
1.162612677690014066e-03,-8.950966666112232083e-04
2.645747188284630600e-06,3.467906228888645569e-05
-5.543543432306319990e-02,6.978079787148977475e-02
2.320086207637578682e-02,-9.860487496788947204e-02
-1.382618078084376159e-03,-8.584229716508011204e-04
-2.808595787212235170e-02,-5.342770996001151157e-02
3.200182225889531672e-04,-2.317623987981987500e-04
-6.091764163218627362e-04,3.195473730074720187e-04
-2.009829373045256555e-04,-3.361497475987676513e-05
-2.300444946917679697e-03,-1.252930573432597169e-03
-2.135080777015310846e-04,-8.726597494397458519e-04
-6.208159192714633517e-04,2.058966004635669797e-05
2.305547865822616546e-05,3.916953774095159753e-04
1.063459339840509355e-03,-1.542891781143666038e-03
6.632717692048908627e-04,1.929129660445966655e-04
-4.113905282756851627e-04,-8.537387730833386010e-04
-2.626610361850240452e-03,5.310274445099337135e-05
1.178479950243882784e-03,2.678894632545187260e-04
-3.060358917604693620e-03,-1.622455754211770546e-02
-3.530215599329095122e-02,9.080249551898800231e-02
1.759491377181329752e-02,-9.907298035318826135e-03
3.941939333993596502e-06,-2.092781344076726792e-04
4.296969805372679988e-04,-1.591233094381855903e-03
6.962026083886232661e-03,-3.987210322559585850e-04
2.422304994597500837e-03,-1.659890795359915752e-02
2.341126625239722207e-03,-7.636822130916681283e-04
7.396758602756338397e-02,6.771649241315476353e-02
-6.592201989767492148e-04,5.330709801431594554e-05
-3.421447609810908137e-03,-1.825034238772910503e-02
-2.258804953275618706e-03,-6.418676414730037968e-04
-3.621517037952388398e-04,3.285900942388889599e-04
2.465711632182831462e-03,-1.264972256536625117e-03
1.035162791011870476e-01,2.171777843039051081e-01
6.016064820269102211e-04,3.699601383234170805e-04
-3.466987822126089969e-02,1.695020598500129524e-02
6.892694523341451329e-04,7.622041466353341333e-04
1.010462485852423910e-02,-9.671144264787791961e-03
6.124786912960202782e-04,-2.881624169519514909e-04
-4.376832211320265745e-03,-9.246609782380334382e-04
-3.362665583250345515e-03,-4.772856979388857140e-03
6.277820049335678916e-04,-8.322432198300897671e-04
-2.563860869590586008e-03,2.890775417376879961e-03
-5.306460032602707821e-01,5.261699754883578800e-02
-1.842639009828673548e-03,-2.820686870146911322e-03
-8.988134052350030614e-03,8.358168021870296394e-03
1.209240026771285781e-01,5.029114897858993904e-02
-1.160434035373887757e-01,-8.655609527574435400e-03
-4.251642010037492980e-02,2.648636835243667852e-03
-1.745427571055392646e-01,9.766591220865451783e-02
-3.611602700255014259e-02,1.446258784959714161e-02
1.903888220100139958e-02,-6.725897575546925002e-03
-2.875710312353276128e-03,8.779763538923566688e-03
1.814916602775428628e-02,-3.765639266868228696e-02
-3.367745778554497721e-02,-3.885358343783784640e-02
4.889373764653607820e-04,9.549891383802929564e-05
8.354382147709761564e-02,-1.434763274144816303e-01
-5.213415483621259248e-04,1.203232609707065450e-04
1.620832676802913303e-04,-1.971487121085845843e-03
2.446746550971615848e-04,-3.157421670708243926e-04
7.501064395237562346e-05,-2.453634923601261689e-05
2.642716268370497190e-04,1.439893264339542963e-04
-9.290927651992571896e-05,-1.470071429695102782e-04
-4.701101172262800443e-03,8.041793473119902835e-02
1.983086504938438006e-05,-9.171818377248029783e-05
4.123408706351302058e-05,-4.804753797688466834e-05
-8.311763637067215178e-05,-3.233458306563446267e-05
5.586518542445967871e-04,1.179936059341521036e-04
-1.157183965857305562e-04,-1.247546902231266516e-04
-1.773401480488741863e-03,9.309672280791178676e-04
-5.478954185514632347e-05,-2.222440865069195428e-04
3.993068772414355705e-02,-3.109488544615248568e-02
-8.015906726214211539e-04,6.070496727067712772e-04
-1.056602625969942132e-03,-3.218966191468748380e-04
2.241880925453651452e-04,2.233832767444305528e-04
-2.159366643257945844e-04,4.174968594430384945e-04
5.420878565066198761e-04,1.203323932110605780e-03
1.675852558455521166e-04,-4.419513154858510911e-04
4.030161048870440016e-04,3.801155651081755205e-04
-8.796964902084414544e-05,-2.414658140686401413e-04
-1.760496018918200839e-04,-1.359771366023957930e-05
-1.961550908528153102e-04,-9.732104589251328213e-06
-3.218600738659057269e-05,4.930917873999142719e-05
2.882260471020598163e-03,4.441946983016332832e-03
-5.893178611979405521e-04,-4.575036239007872619e-04
1.352828389520646895e-04,1.128497009766743411e-03
5.735761185140052487e-05,1.715144735532203981e-04
-3.349276065261084720e-04,4.405987069803547372e-05
3.256864868710459193e-04,-7.922055586490166495e-05
1.823840865150758454e-04,-3.449771323552154926e-04
-7.713506205387164055e-03,-1.809299492499012382e-02
4.061914448340441940e-04,-1.455668776300439752e-03
1.567414505917661652e-04,-7.420015339191462264e-05
2.519045087898236779e-01,-1.339900258155879709e-01
-1.169169142955650423e-03,-9.200984630248763060e-04
3.596938870013702077e-04,-1.843746770619109922e-04
2.453425432128866291e-04,6.046510916780505627e-04
-1.969934147327776506e-04,7.083466441104513606e-05
2.257001886713584302e-03,6.474738793717159336e-04
6.433624714666240395e-05,-6.591350549870924724e-05
3.002127518343429904e-02,-1.444807259129959193e-02
-6.734590269663607350e-04,-7.588657948155298587e-04
2.859605092981687760e-04,4.187348139052477023e-05
1.021492343211121735e-02,-7.766717311592458671e-03
2.689614874770813405e-03,5.135159806707817551e-04
5.827651910891804438e-05,-4.489348865604546150e-04
-2.242710471153633658e-03,-1.141915676706185649e-02
4.470172641167384823e-04,-6.151177432890102151e-05
1.917237496833581784e-04,-6.882963053028051973e-04
-9.032291789847257668e-02,5.316628754187228273e-02
2.223777271455905006e-05,-2.090398371042402300e-04
-1.876131232901292529e-05,3.708590635203607458e-05
5.202284932003297183e-03,1.423006993477296403e-03
-1.105681712112992909e-04,1.180512415023229667e-04
-9.482601525991068850e-04,-5.385060402443552765e-04
-1.663314867353895459e-04,1.247919555442557728e-04
9.040727601365475242e-05,-3.401582573612318451e-04
-4.351896370360087279e-03,-1.669627021155232691e-02
6.611624802232334355e-04,2.491062375278312382e-03
-1.346003834715744354e-03,-2.206877451585939100e-03
-1.606915175455092396e-04,-3.683853296932305520e-04
-8.026246802517084155e-04,-3.721363441095301011e-03
8.706777938964989274e-04,1.023089021901695114e-03
2.115874114212870638e-02,1.926423288874604955e-01
1.593717587193515357e-04,-5.013857869318375350e-04
-2.670243520656501115e-06,6.530765630944928473e-04
-1.209755332559170164e-03,1.433238461320694192e-03
-3.529012991002795116e-04,-1.917815445663912201e-04
8.714179458667559164e-02,-3.377013489043900057e-02
7.446112259461351503e-05,-3.180552341254501772e-04
2.858980529227126560e-02,-2.229126946564321393e-03
2.367795008126201113e-04,6.006752164732861868e-04
-5.969330204863590623e-03,-1.574584050624019483e-03
-4.328657260948724946e-03,1.914128253806056433e-03
1.176868575102331393e-02,-6.843338790793721330e-03
-1.032629031906324340e-03,3.842473335571692378e-02
8.433492147208829226e-03,-1.508242485256641426e-03
3.636675933603162030e-04,-4.580233316289585087e-04
1.601154127781573289e-02,-7.888418969902073058e-03
4.981587995316727469e-02,-5.891388116379245310e-02
-1.956323070303511366e-02,-1.028270394099728598e-02
-7.783380259212686588e-04,9.443712299571603574e-04
1.317244228689210602e-04,2.676782969116467577e-03
-2.552231951708035153e-04,1.001453353133063340e-04
-8.833373931936145450e-06,-4.379931969017763702e-04
-2.604167183242626156e-04,1.440217171649180096e-04
-6.894138479845756187e-04,-3.409296197297569477e-04
5.350473541261931203e-05,-2.478842770446324341e-04
4.272071086085162551e-05,2.861722595396908766e-05
6.848890153264219839e-05,4.333055332834958396e-05
-9.308057385422268556e-06,9.601280842618588633e-05
1.052149785850400865e-02,6.199752414469107686e-03
1.545058360256732898e-04,2.832255570903747122e-04
7.163591614378916905e-05,3.185268763756759331e-04
-2.919551590817651143e-04,1.084916853267808953e-04
1.770131393707198607e-04,-3.680374427334034190e-04
-2.709903986605923095e-04,-2.022826913209008334e-04
8.575567661901969951e-04,5.391468325329491600e-04
1.936910422469439444e-03,3.705894753601629067e-04
-5.321565366180072585e-07,3.703136125831630590e-04
2.407328514510589761e-03,-7.433614167085650067e-04
-1.658802063991781078e-04,-3.421614207106918760e-04
1.880201994528367671e-01,-6.130821650959687036e-02
2.215996154221655436e-03,-4.303924093500984677e-02
-3.233258040328391807e-04,5.370410768559493765e-04
-6.249397774234154504e-03,-3.955935617306086290e-03
1.768608099173723776e-03,-1.277471982203300105e-04
-1.106008433597518437e-01,-4.282977948955164760e-02
-2.694640646699117533e-04,-7.374573438904533963e-04
-6.412685336233046830e-04,1.948489917493076656e-04
1.739557367291823991e-03,1.319424811676976747e-03
6.525920264818950889e-05,-2.527340690936339816e-04
-1.751187347590306550e-03,7.906033444842353736e-04
-7.176517999835190214e-04,2.654574909874754247e-04
1.637924637731129644e-03,-5.140797902977100979e-03
-3.759758215693674056e-04,-2.667178870361707269e-04
-3.274263570045519165e-04,-5.748029642150201271e-04
-3.243932744172243728e-05,1.975531127517434859e-04
-9.522485528975463713e-05,-8.855362454682905778e-04
2.650825559884941937e-02,-1.280079733214283672e-02
-4.975869385595188977e-04,3.369060225377960003e-04
4.569184433340141445e-04,8.631547636930718718e-04
-5.113612929459647937e-05,1.767383884832573031e-05
1.404539909596346002e-04,-1.457779166202153144e-04
9.530015984992979038e-06,1.148277341025806211e-04
1.150173389885977718e-04,8.856531938315039606e-05
-2.707797827573282107e-04,-8.014098485892696036e-07
-1.742640892180657259e-04,-4.259970653814488791e-05
7.756285422947195411e-04,-6.172177970494733884e-04
-2.251793823862602035e-03,9.844045148860050640e-04
-7.682258003929241233e-04,9.313241861918631183e-04
3.463631948217302248e-02,-2.726525575473369087e-03
1.367215118886676122e-02,-2.848661167763224394e-02
-1.259977640321025818e-03,6.577886150266895951e-04
-1.083484961996726906e-02,-2.119076240152203364e-03
9.286565698750148335e-05,6.078310498438794325e-04
5.745494621889491994e-05,6.569211706241506667e-05
-1.976894863459561808e-04,-1.631549539713400099e-04
8.130172699836490588e-03,-9.552919777665567786e-04
-1.859231167567621489e-03,7.839076042386193457e-04
-7.257365213773905865e-02,1.326445080474948912e-01
5.378047153028831309e-04,-3.610994104495735056e-04
-9.148590250574565068e-04,-5.541013391616236849e-04
-2.769090280621539879e-04,2.134301141669245523e-04
3.887636730046499511e-02,2.674229288867746752e-03
8.765635603723160793e-03,-3.497173606640828405e-03
-3.383247426634332822e-04,-1.270665108188186523e-03
1.154918885630695086e-03,3.588010318759890863e-03
-1.614740565348575518e-02,2.484319543575130157e-02
3.773673759461584616e-04,-3.854758744513283285e-04
-3.073203044480177725e-04,5.185491400673269437e-05
-9.599858054656098399e-03,1.417616413879475151e-02
-3.425751832985915804e-03,-9.521087972585038023e-04
-8.902211789999324790e-03,3.961191971448048063e-03
-7.711425630330074211e-04,-7.362993873262669176e-04
-3.262147836475447140e-04,2.645609748620957264e-04
4.402402714900378045e-01,1.655435574239151053e-01
-8.492980377860790200e-03,1.101117960486587902e-02
4.887000517367696972e-02,5.774678084153007235e-02
8.558054079197992270e-02,1.602656517228108479e-01
1.005723461988561373e-03,-3.296358188682358033e-03
1.743953855633425393e-02,1.435532539553307715e-02
7.179320141558791701e-04,-2.616279306834650136e-03
-2.674884589192600554e-02,-2.446981522953066771e-02
4.759470060099611939e-03,1.151882143471914983e-02
-1.610699447995968606e-04,5.956497090019545471e-04
4.378216378247574416e-04,-3.635601349703599977e-04
-2.477552752970202626e-04,8.984213496276618062e-05
-4.634151567187315759e-03,-7.970039089492900880e-03
8.725253531315153204e-04,4.288937040918875646e-04
-2.103567967187924825e-02,2.446735584117839743e-02
-2.989646668111153090e-04,1.004505652175450924e-04
7.583480037002715557e-02,-3.581331624199698971e-02
5.496169964290149867e-03,-2.404069561100478794e-04
-3.622443136789026461e-05,-4.184196592135847677e-05
-1.875004310869552923e-02,-9.751949428865470254e-03
-2.507312801056622853e-02,3.362892038101877867e-02
3.994289121576439713e-04,4.241590093009278283e-04
2.429856220559819396e-02,-7.948879330130133314e-02
-4.429629805160315730e-04,3.521428768634645465e-04
-9.585996160031469426e-02,2.679221967503229163e-01
-2.981396964596641909e-04,-1.525112794908579841e-03
-3.363736512305688740e-03,3.502031523616797731e-02
1.721024762746916226e-03,-1.508045158437430018e-03
1.583017605853010226e-02,-9.316847388093509041e-02
4.081454115038158888e-04,-2.297013665619661888e-06
1.298088863704309384e-04,3.467584029056591831e-05
1.642712758373367915e-02,2.382427737437551023e-03
-3.467460249940461890e-03,8.891661595202048161e-04
5.303936182988275988e-04,-3.311114982900557370e-04
1.243423078729987211e-02,1.650061520114934691e-02
1.761240267433135062e-04,3.517516003354326519e-04
1.185212924896383163e-02,-8.780121494670833915e-03
-1.176852847825502445e-03,-2.566317345376833287e-03
-3.906684888123248124e-04,2.350656739880666173e-05
8.193493286969996705e-06,1.807826894188184930e-04
1.208876911974906838e-03,1.327530499985384634e-03
-4.697525563422243894e-04,3.190839778749834693e-04
2.473754638106369919e-01,1.046978251706607993e-01
-1.497870410354153192e-02,-2.819848984011803505e-01
-2.049773514782720837e-02,-1.922747812130616227e-02
1.510521786569481118e-03,-3.048154469450949089e-02
-1.791439039125157761e-05,-2.559121973355799095e-04
-1.156334588766373808e-04,6.698395747473382886e-03
6.129404013421985500e-03,1.581005083891098189e-03
5.101934255036316094e-04,-5.690342768899815922e-04
1.171532223629832975e-01,-1.431342659359556291e-01
6.889769150566269103e-03,3.197334290327080112e-03
-8.001633841443934895e-04,-7.183324068947302774e-04
7.518972499572228489e-05,-3.329706685424135728e-04
-8.528807851289966265e-04,-2.497023747522596898e-04
1.760845664186547535e-04,1.156158929540154008e-04
5.038355303308856550e-04,-6.014183219852862463e-04
4.315931144762000845e-04,-1.206126147147348199e-03
-3.728355357589325375e-02,5.163166743370651429e-02
1.835187621575354953e-05,-2.828850620167876670e-05
-1.676527806366891801e-03,6.307659060292491668e-03
2.348789000833576696e-03,-4.407696296251154000e-02
3.830563344675152614e-04,-6.132510288656266729e-04
4.095901767835046295e-03,-3.047961602054706618e-04
-5.726620242427538088e-02,5.877555895884823550e-02
7.964863862229269731e-03,-2.408604241194707909e-02
8.866485764949978698e-02,-2.931681853670179416e-01
2.638044524602180794e-04,-4.116663455705848822e-04
1.086683808071390450e-02,3.542527150162765731e-02
6.819259282582158452e-04,-4.668397398782700674e-04
-1.180194430433297590e-03,1.837544863571545506e-02
3.985751373089002451e-03,-6.104461371318836704e-02
-2.515118323722933223e-04,-8.412674146235737363e-05
-3.753243055362944121e-03,7.548356618571767365e-04
-3.352470144384302880e-02,-3.028456190236945844e-02
1.021646109895903431e-01,2.928343957750571547e-01
1.660832758712080526e-01,-1.068947963382875788e-01
-4.716435901157287405e-04,1.280367475766888479e-03
-2.388804764153251436e-01,-5.468249152974453270e-02
-5.157039342276089483e-02,1.558840812850496339e-02
-4.386754193523180315e-04,1.006189415397420019e-03
2.169396972188800815e-02,-6.138505045001150639e-04
-8.005187689675535845e-02,1.184094995069694296e-02
1.216527226363670663e-03,-3.227774762670035944e-04
-1.505696678040753002e-02,-7.099100370036312557e-02
-4.076130307390665730e-03,-1.853856224641172497e-03
-9.342859115409198056e-03,6.034069123197542857e-03
-4.132370602014203038e-03,-2.528772000027058094e-03
-3.509780351904016990e-04,4.264819756110589926e-04
6.588256259812590165e-02,-4.805471128990022184e-02
-2.274137998035472702e-04,-4.919474936475311483e-05
3.826549999299862313e-03,1.152387034135124097e-02
-2.579870590224866977e-03,-1.308828358783456318e-02
7.614434968532456105e-02,-3.660356927011601622e-03
2.479086325215439784e-02,-5.053196369767888607e-02
4.488629982879886043e-03,7.238383663688248426e-02
-2.479227214381543414e-03,-1.138857600416625932e-04
-6.871609733128504482e-02,-5.849730211344418562e-02
-2.149228300706997052e-03,2.040067647033676646e-03
1.315522497223687096e-02,-4.548121644896868654e-02
-2.168705298064236425e-02,1.028109036546833235e-02
2.954413826659028561e-02,-2.370801095945493722e-02
7.588217149361335331e-04,2.160423576650804221e-03
1.246600941207578941e-03,-9.044538344934262330e-04
1.064548289016019507e-02,1.046069755399495031e-02
-5.102088476882642165e-03,-1.664101048514737662e-03
5.536284909206365401e-02,7.509631689227093919e-03
-6.565742467938017607e-03,-1.121593127404867801e-02
-2.120903135978029284e-04,1.175214393572847409e-04
4.100067457400949356e-02,-7.421052199284097761e-02
9.513554078836317920e-04,-2.378333813549569128e-03
-1.984630147939951406e-01,8.353048545723609775e-02
1.361594829774052939e-02,2.792402641261954813e-03
-2.209257571322836844e-02,-8.728541887875105286e-04
1.578287518736822047e-05,5.146316481951110702e-04
1.191422602822097415e-02,-4.732529258320915949e-03
1.566047862356381437e-01,2.972034010783819458e-01
-6.757882109940288232e-06,-1.143389336180136029e-04
3.841416548545284471e-02,-6.485056478656790746e-02
1.089416154386146614e-03,6.599615944647315964e-04
-5.018610928507862001e-02,-2.376665089643612699e-02
-2.190993749161121995e-01,2.924911730020556822e-01
1.034006487883927343e-02,-3.285770885736213898e-02
4.102893761820402044e-04,1.888376617564991320e-03
-5.094222481676027219e-04,4.196283234535391413e-04
1.851120063492334503e-02,-2.915090519053370466e-02
6.922931963073463216e-04,2.655236113905724317e-04
-2.473517583037348165e-03,2.349905454601119558e-03
3.046571592132770096e-04,8.006419440467970553e-04
1.619951895467548536e-03,1.050004330987381815e-02
9.485455581184833878e-05,6.866973990491697408e-05
2.128932378010910381e-03,-1.799870732461146886e-02
6.293097114896051281e-02,-3.337215594666950724e-02
-1.834649642778198586e-01,5.033505880910381369e-02
3.595059031365463887e-03,2.555045257846555451e-02
8.092129817489102659e-04,-6.048691488563512483e-04
2.927405881906834650e-02,-8.013462687650034499e-02
-1.445074069991439912e-03,1.115925275426027288e-03
-5.104117930804964601e-04,2.435822246913191783e-06
-5.381494898294038451e-04,1.538973146575166187e-03
6.299901362471399850e-05,2.368821584750575393e-04
-4.310261452771543909e-04,4.156159042072714801e-06
4.303802138880075481e-05,6.545228424173656209e-04
-6.449104864697947914e-02,5.652738001064562534e-02
6.181471185300724432e-03,-7.739070325393626777e-03
-3.227627677910151899e-03,-1.013846801074426950e-03
-7.009619175991439657e-04,-9.643422568064739580e-04
-2.210121282460596800e-03,8.093525540923139638e-02
-1.167851577623715538e-04,-3.302701634302785002e-04
9.407248177311613091e-04,1.610327840817259853e-02
2.877416710661232380e-03,-6.829644213370597398e-03
-2.550936114805441154e-04,-7.069566443415400969e-04
1.413241414294846669e-03,2.060504897494637964e-03
-1.175069907560829796e-01,1.415060095736506707e-01
-5.590213579180382253e-02,1.892507166520426484e-02
5.067682145839996766e-01,4.889746175051284394e-01
6.991723039175873518e-03,5.109014480416493864e-01
2.993908988410599881e-02,-6.755189120741522668e-02
-8.360754246989456073e-02,-5.869014918149373025e-03
-1.111790004428927581e-03,7.375605147476272869e-04
-8.108780722590682062e-04,1.481396635530750263e-03
-5.841786281649365142e-02,-1.076099234238317576e-01
-6.286486808451620389e-02,-4.023348331945329065e-02
9.439703722711348041e-03,-3.615971171517063515e-02
3.543790886962298750e-05,-2.263554875259888959e-04
1.458718346758615435e-03,-4.792763509513712865e-05
-3.954382846420811254e-02,4.416948572515087823e-03
-1.244510082307685381e-02,1.192901858707401917e-02
3.207583068294676842e-04,-8.002181752736773008e-04
-7.191940720075748993e-03,-1.070858347584729281e-02
-1.103688399563304140e-01,1.376134166553925203e-02
3.946271445593074745e-02,3.754594093948460803e-02
-4.575733502306708611e-03,-1.232333399827766768e-02
3.589713321202161328e-02,-3.746103717794536676e-03
2.397178630704026314e-02,1.403814114688505194e-03
-5.868649856486891914e-02,5.997871715878753084e-03
-3.206044495021440066e-01,6.089643001052847532e-02
-5.949454178876824317e-02,-3.755840063967538778e-02
-5.765714040320064253e-04,-1.492300993086784688e-03
-8.601768472341865535e-02,-1.036237785799738187e-01
2.991165419926572477e-02,3.739002291098825898e-02
-8.552738384137041627e-02,-5.437526869589562328e-02
-4.998974013938203148e-02,-9.541739876545586585e-03
-1.308089440269599897e-02,-8.101546071408786270e-03
1.023040546893596268e-02,5.085013959345873608e-02
6.953366292715351194e-04,4.770123263681726872e-04
-1.164219328954501677e-02,3.105999237586244428e-03
-6.404947639146086236e-05,-7.688289586539998706e-04
2.707969161768515251e-02,1.192160207200583869e-02
1.450480552984110931e-02,3.117254473465536427e-02
-9.597943195512925740e-02,-1.091062335561096275e-01
3.096330859552357678e-02,1.940185940661537725e-02
6.376632846599261661e-02,-5.322789250688603202e-02
9.379028740672147937e-03,-3.275065200574141244e-03
-1.523593255048889643e-02,-4.246552699064574249e-03
8.070450331435827240e-02,-2.144325341911207661e-01
-6.107774307831246446e-02,2.747578568047610165e-02
3.514144903918434864e-04,-2.041606479676755844e-03
-9.898851533263180319e-04,9.922206450999333620e-04
-1.124377974963734587e-02,4.353645019668291906e-03
3.450000289245920993e-03,3.530552761889323501e-03
6.568433042972490407e-03,-1.504010579897221110e-02
-1.206808136894236584e-02,3.430465076395786128e-02
-3.137036086895433288e-03,-3.416956430983117323e-03
1.724915556747020652e-04,-5.648767189217037072e-04
-1.015750530995458874e-02,4.429483950932101843e-03
1.138180936097518865e-03,-3.338987317593911965e-03
-1.212149078966979904e-01,1.851878206956416029e-01
2.160003936757059692e-03,2.394793704067190929e-02
3.487897540071090846e-02,-1.572214611802176185e-02
-3.376341521309952909e-01,-3.932225399366554019e-02
-1.784543786199964269e-03,-7.854175074586135577e-03
-2.866340638126549933e-01,1.960616053870276824e-03
2.530277635971531214e-01,1.047912827426645405e-01
2.488612339996073078e-02,1.533764854686385515e-01
4.761235289003675625e-02,2.659533304004918410e-03
2.228947069729883546e-03,-1.590867129824197332e-03
-7.252043826077392806e-03,3.354143070769242431e-03
-6.702326969142642643e-02,-1.180089743261837978e-02
-2.610663532862235459e-02,3.335992365517222863e-02
-3.136525237436960101e-02,4.423200524605974682e-02
-4.036494022394152698e-02,3.980105623126369702e-02
-9.382606075141318447e-02,-3.708056247592994570e-02
6.027157298628652189e-04,-7.924892098023206526e-04
8.764441514455313664e-02,-3.269547518924865309e-02
-2.201458805408424563e-02,2.362883227598636462e-02
-1.327342837424377586e-01,-1.423638805952526509e-01
-1.267843199348133720e-01,-5.123344418171291159e-02
-8.542052966114783985e-02,-5.365001037572380005e-01
3.882179268251585991e-01,7.588970938168106972e-01
-3.450800606091095624e-01,-5.456746344287442124e-02
4.914527652948625855e-03,1.983306307257658337e-03
9.210644586472625794e-02,-5.817001055965882739e-02
-9.151989281235057075e-03,-1.631896364712269107e-02
1.652028226686650877e-02,1.861765634668120090e-02
9.156683723685078160e-05,3.680794904354009467e-04
-1.367544320638145773e-02,9.964339935493378084e-03
1.897201149225505867e-01,8.782827781900243158e-02
1.501974054891521970e-01,-8.913547175988729195e-04
1.109904839002681665e-02,3.030450953616061205e-01
2.762354887319933006e-02,-1.492829326788737421e-01
1.949583356928535627e-01,4.394656676629214442e-01
-1.608909705523556971e-02,2.445320338263920479e-02
2.135956338325532555e-01,-3.279752336502633203e-01
-1.667108180168866971e-01,-1.364700693409347416e-02
-3.072298987402680148e-02,1.227720855028927721e-01
3.568440235794514276e-02,-1.488882349205659927e-01
-3.606937773170929701e-02,-1.162812339443755338e-01
1.680951403777387054e-01,-6.101321410604791662e-02
-1.539913870408458618e-01,-6.598765438342160117e-01
-9.418679021558766518e-02,9.495051882802682530e-02
8.987370562088903281e-02,5.593719095463805385e-02
1.843698755024827662e-01,-2.286434963030822831e-01
7.657893921271530235e-02,-1.083676187678541403e-01
-3.726411741625607760e-02,1.741325242642853544e-01
-1.169383357478502236e-02,-6.161228024672150971e-03
-2.174072183605635887e-03,1.803389427841095224e-02
-2.778302216952795514e-02,-4.996860923668760418e-02
3.179778779650693082e-02,-2.794848479198771760e-02
1.826854362030164158e-01,-7.364443790604863205e-02
5.270729986644524523e-01,1.194316785665278935e-01
4.157972512899361095e-01,-7.383122196121481851e-02
-2.168370970874385351e-01,-5.166970692513185304e-01
4.908325016762433712e-01,2.244480374138125081e-02
1.180007115736388112e-01,3.156071490468184693e-01
2.439255413478698745e-02,3.840041365530720840e-01
1.469767147995896736e-02,-4.784105364256330956e-02
-6.375067871616164894e-02,-1.362673425625609280e-01
3.662731397967791125e-01,9.497257701110854711e-02
2.438067848016355621e-01,-4.116776233314723976e-01
-1.185486784556033096e-01,-4.176224131392953891e-03
1.080666531291645804e-01,-1.200703419823675733e-01
5.123190232773984221e-01,4.733761776347435862e-02
1.065844257710073517e-01,-1.696542410488672825e-01
-1.179528580672827148e-01,3.968284707419239554e-02
-9.717670093363869888e-02,1.477019859691959536e-01
-2.441639383079635961e-01,8.329015661165879714e-02
-1.006153694296175599e-01,7.594796688395061279e-02
2.458647310974358680e-01,2.637370902800857397e-01
3.873554560863516905e-01,1.786736426157911062e-01
2.369342770700455861e-02,-9.146097571700502471e-02
1.507119081252352166e-01,3.111843135253229420e-01
-9.608787811751587360e-02,-7.343682155054090388e-02
4.502248971918795806e-01,2.443948850878689405e-01
-3.615777252311432877e-01,1.861276536326083864e-01
4.194479209142042142e-02,-3.669069045303303966e-02
7.760592085747770874e-02,4.400355489194182623e-02
-7.127170496693399637e-02,-1.634099846801645994e-01
-1.417766503611698516e-02,8.598940362790641334e-02
-1.236678382529566439e-01,-8.051978812703487753e-02
-1.449755311258598134e-01,-1.202035590032484030e-01
-7.487596073249401518e-02,9.730695771903274949e-02
-1.112341392004858286e-02,-7.760495225523433849e-02
8.350090114846801456e-03,1.338261763790732917e-01
-3.301186985179108691e-01,-9.233775717887852952e-03
-8.822617795843548227e-04,-4.269088671932810136e-02
1.310925897391234350e-02,5.644591600566328804e-02
2.855075597711744136e-03,-6.500554044022199829e-02
-1.402316605401356664e-01,-5.463933782125979244e-02
2.475503912712731167e-02,4.764590064982138218e-02
-3.161466934422283402e-03,-6.474156612892761897e-02
1.017520009460995065e-02,-7.361473695771284659e-03
1.425219329086410969e-01,8.771316559417832726e-02
7.116698155199305265e-02,-4.327108617642032307e-02
5.337874050145567650e-02,8.423829097977991037e-03
7.111838536293788038e-02,-4.692434540260653070e-02
-1.887392817271588141e-02,5.401285686724963814e-02
8.308511822540090574e-02,-8.178913585877775616e-02
1.181017785664462694e-01,-4.344780038617138823e-02
-1.164908022860903919e-01,-1.197563939237124633e-02
-1.386093802938654640e-01,1.156920596733606726e-01
3.795116522281611476e-02,2.968111678090960548e-01
7.711079567434218907e-02,1.123320547050256218e-01
-7.804149528551833186e-03,6.191723848181978317e-03
3.813009843159612892e-03,-9.914199152794686901e-03
7.834519220782312776e-02,1.839866467103631886e-02
-1.293461864157952057e-01,6.610620132217220890e-02
-1.198595289084885551e-01,1.548551588526530243e-01
-1.450489296429343655e-01,-2.022856614854205148e-01
4.740492355078763931e-03,1.647414566439161371e-02
1.861456358018942492e-02,1.042873842720604648e-02
1.469047129249716416e-03,-4.303175267782402167e-04
1.201450757873374214e-01,-8.193983141667024461e-02
2.092269151351539291e-01,1.565959687374988973e-03
1.421688425788680300e-04,8.405021029062769919e-03
1.434480343810332331e-03,6.857887234375321939e-02
-4.975080836053660110e-02,-1.349852965914055125e-01
4.750815710529851998e-04,2.447822807153581491e-03
-8.186413821409095626e-02,-9.740163201297366569e-02
-1.996405062261721094e-03,-1.038128450912883128e-03
1.244455973106036450e-01,4.973854414024319465e-02
2.702676923178001268e-04,-2.405135273769419004e-04
-7.099408614158642106e-02,-5.979029520860622976e-02
-3.069934741128594810e-02,2.736934343491429292e-02
2.521002218288835861e-01,-2.215243108040470255e-01
3.079875825977295561e-02,-5.095978799025215750e-02
-5.955159060789525644e-02,-1.480555285285814308e-02
2.771838820019747462e-01,3.151372951056635036e-02
-1.522970510644205688e-01,2.734569965359285315e-01
3.116708730690780083e-02,1.973949588822612733e-02
5.129671318250486611e-02,-1.414443973508046071e-01
3.791680318614890511e-03,7.039286838175741988e-03
-1.228532209993457858e-01,-6.718366200366554519e-02
-1.917376033485585288e-02,8.330904237128984591e-02
-1.257565458168614925e-02,1.624936483761036526e-02
-2.594709989452085794e-02,-2.794929585331449445e-02
5.482851905870799597e-02,-6.874077044124481117e-03
-2.529372497133658415e-02,-1.390520193867383070e-01
-6.787192197842943251e-04,-2.966390004528963315e-03
8.486311011814602623e-02,8.520320689484546517e-02
-5.396026575334234021e-02,-8.140774247969947974e-02
-9.179013646012514072e-02,1.000721950836697405e-01
-2.148876600948975216e-02,-2.682718146024791125e-02
-6.418954242562194268e-02,2.098643497023411908e-01
-4.829468765511808087e-04,-1.551458503246118913e-02
1.454943860544125923e-02,-9.315519711183467555e-02
1.614107238061055771e-01,-1.272171052214673692e-01
-1.550450413743051717e-02,2.225990856545461555e-02
-1.173095182348569687e-01,1.116033378650114066e-01
2.848681017894127282e-02,7.727850064128117397e-03
-1.614046172582032576e-02,3.380179345160937154e-02
1.235115878560760598e-02,-7.529356559742710064e-02
-5.000943054044532793e-02,5.843809978282461098e-02
-4.485188894997365477e-02,2.509428496927164094e-03
-2.594814534826213239e-03,-4.766173085523420228e-03
8.679614343533459397e-02,-2.194934335050284235e-01
-6.112396128348174078e-03,1.322632079641713327e-04
-3.368700652479006963e-01,-3.998290701444684458e-01
-2.052054439835807043e-01,2.295348276965784862e-02
-9.784284849952229555e-04,-2.491467381656594596e-03
-4.323706406976199346e-02,-1.371735347080106811e-02
-1.728972585957699306e-03,-2.783807827298018841e-03
-2.407922947255629331e-01,2.213442391277483934e-01
2.279787392947250080e-01,4.074639231545318374e-02
-7.022517368467877386e-02,-7.344156701845259982e-02
-8.374565822070934376e-03,-1.867940095762508079e-01
1.393410094579359930e-02,-5.854058194345243549e-02
1.702253706085339324e-01,2.321592062972578294e-02
-3.396553833430084324e-01,-7.064001611327977437e-02
3.895054672459240426e-03,1.240603689165332632e-02
6.332356871131834819e-02,-4.267936947522140562e-02
1.805673730499886276e-01,-8.259418171911703244e-02
2.626961649377389241e-02,6.405986353221686247e-02
-1.318660305583511660e-01,3.533440048949233470e-01
-3.979447163657102299e-02,-2.194799689236229534e-01
6.655967521469829951e-02,3.313496095364461269e-02
8.057858458174554928e-02,1.784904808099207476e-03
1.595322710323074725e-02,1.174341646513738513e-01
1.280896134475751312e-02,4.363941832889700612e-02
-1.095785674042355946e-02,-1.944730906257500884e-03
-6.518669304210752968e-02,5.968472618103955185e-02
-9.569554835259518749e-03,1.071970583763907220e-02
4.952126957945981317e-02,-1.845301396927979953e-01
-1.147234736453979220e-01,8.433835840144973672e-02
4.549205614434748135e-02,-1.587673056983443798e-01
-3.600968317696996712e-02,6.687306783937853327e-02
-5.591887512121246351e-01,-1.569934812197547880e-01
-2.626380171809325134e-02,-3.601101091335749682e-02
1.519267481809677151e-03,-3.517582496204821590e-03
-5.000111193350334667e-03,4.589514816689446719e-02
-9.432415161935181827e-03,9.815372236257776089e-05
1.019956952188343091e-01,-4.285122470339988721e-01
1.002745752994286255e-01,-7.236754186683659607e-02
9.813677838900186981e-03,6.645734224841734136e-03
-1.193759475921163243e-01,-1.079884825642448906e-02
-2.415344864385860491e-01,3.132934812281004677e-02
1.332424444160599519e-01,-2.913676694984762561e-01
1.088961925074772297e-01,3.581209926173121311e-02
8.710020237247101393e-02,-9.071446152583321348e-03
2.244314016665651529e-02,1.049316172630916782e-01
3.496162423184136919e-02,1.225516282052408201e-01
-1.113899033195524420e-02,2.057831543275545072e-01
1.617403727976400307e-01,4.578338722759624918e-02
-1.490252785948880387e-01,4.556156255338494332e-01
1.014336708637762763e-01,3.384832905446066298e-01
1.058902869515040562e-01,7.540853849076624427e-02
-2.521282904710005213e-02,-1.608462013954693737e-02
1.174095112511666233e-01,-1.296122395956575690e-01
3.668077136930553706e-01,-3.993412779968187609e-02
-8.546581481514307910e-02,-9.307599007047005768e-02
2.302970143390755120e-01,1.036713176597122976e-01
-8.922532204337205522e-03,-4.769992689957130300e-02
4.751974014375251465e-02,-1.824599558324497273e-01
-1.558437638902968221e-02,1.925520129364367145e-02
-3.070498870904522087e-02,-9.966180625150794503e-02
-9.477888980384445786e-03,2.859282248487953759e-01
-9.690882683926049790e-02,2.408525323850247424e-01
-2.271674029728906197e-01,-7.057092922583682593e-02
-1.952077556482555709e-01,-9.806817078253010633e-02
7.044726962894124964e-03,-4.519058772281901726e-02
-8.145709354194288765e-02,2.099285424695655766e-01
-1.736548437499123819e-03,1.524516149914147654e-02
4.643967560343517653e-02,-5.544839392862904032e-02
-2.300355133811493591e-01,4.859017632178624924e-02
5.568082045209797604e-02,5.903469265456426536e-03
1.542307426661576331e-01,-3.390072768556427474e-01
2.660345381246168039e-02,-7.706215132353604058e-02
-1.951147991951666383e-01,9.157127417658612878e-02
7.245586483664321308e-03,-3.677624773412464386e-04
2.960393595237015285e-01,2.360580749663421588e-02
-2.055610315502347241e-01,1.857400184646564312e-01
1.414725659384357889e-02,1.097893751254466060e-01
1.038566165606109176e-02,5.976695745936325826e-02
8.360537231345889497e-02,-2.351255618142603643e-01
-1.271092233019703588e-02,1.183516689133208011e-01
-2.610565058948278172e-01,-5.142482330424026638e-02
-2.664968600781150165e-01,-1.582285214492136771e-01
-3.666660345169998197e-02,-6.484183729229674176e-02
1.957461745915577700e-01,1.888090305182998085e-01
9.707893186682396702e-02,6.761029420180869609e-02
-4.163866151553594075e-02,1.674007831891166365e-01
-2.577275134381044538e-02,-1.596015938869419296e-02
7.018017401953031975e-02,5.767792072883384802e-02
1.659396321199061997e-01,2.313478953208464861e-01
-4.489972326574510897e-02,1.526191912677078155e-01
-1.536984094595973405e-01,-5.147038371363082954e-02
1.703188335437197942e-01,-1.224154665522686203e-01
-8.910824616858378788e-02,6.615085165807073342e-02
8.969979114456136382e-02,1.013944419269537378e-01
1.213840550291315767e-01,3.273687726342640048e-01
1.479897102585820551e-02,5.238162646169106269e-03
-9.228828376001283473e-01,4.712618720421439256e-01
-1.531240158130797169e-01,-1.885055322075307183e-01
-1.635186036228007400e-01,3.351554478761876732e-01
-2.218736246822547720e-01,3.401537314731892248e-01
6.495214372936911063e-02,-1.941401395625131157e-02
1.657208360011943882e-01,7.775821510356295541e-02
-2.468723666158742225e-01,-8.924613883257694058e-02
-5.159235127362345186e-02,-1.788735540837270432e-01
-2.633664004999561326e-01,5.341526658491738827e-02
-3.863529186256526304e-01,2.945464836367048811e-01
-2.279595237797235607e-01,-9.822728720514282974e-02
-4.491733595550966018e-02,-1.144255374894556226e-01
4.375554603299171286e-02,-8.085394763832420839e-02
-2.766047612649652487e-01,2.798746492548508380e-01
-2.582683288878899128e-02,-1.840400483074016991e-01
1.743347027890155554e-01,-1.268132242468714421e-01
-3.041198113311892604e-01,9.768454945886244356e-02
-4.604631171718111954e-02,-1.874416006191687370e-02
2.427347055468618078e-02,1.481334312134630071e-01
-5.061802060824485694e-02,-1.538091084105229836e-02
4.100228876784117044e-02,-2.544029318971032239e-01
-1.344590825377085519e-01,-3.047378802249995355e-01
3.119151159250831973e-01,7.327022645616704244e-02
2.067028931538133496e-01,3.874227241971730518e-01
-1.205485607341925253e-01,1.533571920196023231e-01
7.575829302831274537e-02,3.838113420665335562e-01
2.566017996777815169e-01,3.361714817177083869e-01
-3.545975483177854493e-02,2.011801005348104465e-01
4.323196278108612511e-01,-2.364158746474804840e-01
-6.539681023341104016e-01,-3.180048014326529449e-02
-2.335364008867758800e-01,-1.323043110784456744e-01
-6.503204390135762514e-02,-1.692434255440899427e-01
-1.448784911481551529e-01,1.155196396383075148e-02
-3.434712426981492150e-01,2.071133068076801975e-01
-9.060372746681794043e-02,3.662135419203693676e-01
2.083535815288117543e-01,5.675694338035955910e-01
-7.457391569986536461e-02,2.738529909543445662e-01
7.751971112003663844e-02,2.084058317236238134e-01
-2.986079590830345576e-01,-2.590391755684134378e-01
-3.698091670154441957e-01,-3.876300400891172226e-01
-6.889247139571749723e-02,-2.876158132209332696e-01
-2.561680009986728179e-01,-4.096889675504240130e-02
1.571008650584473088e-01,-2.506772050584077927e-01
3.845231317456327402e-01,-3.015110934486965877e-01
-1.533412055189344592e-01,-1.186858924973148606e-02
-2.402917997019298479e-01,4.399211278395353392e-02
3.734688296391584506e-01,6.725670287924435664e-01
4.246449790121045731e-01,-1.857047531893090547e-02
-8.248448663990015639e-02,-4.816995489067356362e-02
-1.586672585130969593e-01,1.493444522294826160e-01
-9.149586357729001806e-02,-1.035968847360519279e-01
7.052060455723157747e-04,-1.429102825109779262e-02
9.038640559858571177e-02,-1.496627003828378821e-01
-5.932059815706648698e-02,1.496217317096815991e-01
2.073070745455989905e-01,4.634492079421960453e-02
7.812016195216932302e-02,-2.589417503087165229e-01
-8.499175957490696931e-02,-7.107287184883355480e-02
6.293400456012816779e-02,3.072446322081432910e-02
-6.308322711512390768e-01,8.615821647716902232e-02
-8.020227332211017635e-02,1.570011214632200947e-01
6.196770613246174036e-02,-7.076895679324191057e-02
7.664718446199998703e-02,-1.346173384831560738e-01
9.637470241095839885e-02,-1.691134775978393179e-01
2.374181892411298678e-01,-2.270728245112537125e-01
-7.217666947403082733e-02,1.808495988835349122e-01
4.035153672857333951e-01,2.658100796206419592e-01
-3.917697306431356524e-02,1.933406592717349659e-01
6.327425769261521560e-02,7.528268041680034710e-03
-2.690552754520110501e-02,1.052781378791867867e-01
1.210865204802035466e-01,-5.110096320267438347e-02
9.260604422894214149e-02,-2.605107264731969588e-02
1.885472438326769307e-01,7.093891148942529923e-02
3.384909259972040951e-01,-6.327699816181699133e-02
4.237787840123332095e-01,-4.570570237023062754e-01
-2.108552358382945191e-02,2.951677821912025712e-02
-5.034263958057836330e-01,-2.231263669530401950e-01
-2.822357119211501564e-01,2.006237795570372240e-01
4.780979784576689373e-01,-2.673428019963907110e-01
1.580409477154180176e-01,7.706901240349335602e-02
3.886823906677360635e-02,8.620081008011580906e-03
1.179913764050995739e-01,-1.186117066173283247e-01
6.996177895570524982e-03,4.419778895236388672e-01
-5.277941762634991802e-04,-1.284163959205279482e-01
3.377129596168582659e-01,-2.646582130127831389e-01
-5.323705916782882630e-01,3.860853657096233182e-01
-1.911922148655070819e-01,1.469737445545994114e-01
4.616099541909421400e-01,-3.696781357390936940e-01
1.400920576414743136e-02,1.337240191922747234e-01
1.450090128653462040e-01,1.805085221585632504e-01
2.942652174965479928e-01,5.077119008714088277e-01
2.707340227824702739e-01,7.796872703701519802e-02
-6.844604479499696859e-02,-1.934005876046286099e-01
3.111159461900030454e-01,1.577267661240596974e-01
4.225651671720780378e-01,3.329312464411144923e-01
5.376581218584669530e-01,1.823171676269762231e-01
4.347530902131001990e-02,-1.348146841638970250e-01
5.245616424495791463e-02,3.301077980975356679e-02
1.897380554175016609e-01,-7.720011156009895688e-03
9.600600026402729414e-02,-2.973410585481073842e-01
-8.948558952306082115e-02,3.937755137601241517e-01
-3.547941374723018737e-01,-9.691827239971617658e-02
2.738201915562231137e-01,-2.429013392423067796e-01
1.628738411293554622e-01,-8.304347138892241575e-02
-3.217790021077603924e-01,-7.962169513407439669e-02
2.450487529489418781e-01,2.179291273029021134e-02
-1.373353310000567651e-01,-9.230339887494849044e-03
-2.804298573634995684e-01,4.073786552026754104e-01
-4.445131764869197227e-02,1.211957858758387074e-01
-2.050239521652885422e-01,1.821082508670242017e-01
2.000350766552554671e-01,1.528260659218811934e-01
-2.930585005139580423e-01,1.722183031468040026e-01
-3.031908739957281038e-02,-1.382641336313198410e-01
5.362371522097030274e-01,-3.104186033411045556e-02
3.769297753065548040e-01,1.383356614586142841e-01
-1.725175037875752715e-01,-3.782255967924524342e-01
5.979574092334934143e-02,2.406847470539960343e-01
-3.316459109702941666e-01,-2.296862836041545664e-03
-1.183137080296729760e-01,-1.882399484438154746e-01
5.745563383076129904e-02,4.957385041721561469e-01
-2.888188797679761555e-01,-1.244743662631874193e-01
3.628496125122478988e-01,1.089372229773278716e-01
-1.474313756389149799e-01,3.851565145752805508e-01
-4.257468752922056315e-02,-3.683851670505041143e-01
1.255530261966469885e-01,-2.716647532842771107e-02
-7.101787843053750104e-02,-2.957250058846589980e-01
-1.144744412661380904e-02,-2.403840450724255007e-01
2.760124908140711431e-01,-3.426301980770629640e-01
2.477525814838543172e-01,-1.142064915665109981e-01
4.548163723252844903e-01,8.908037336434838915e-02
1.435080312923472101e-01,5.170400615599279881e-01
-3.071069201766022938e-01,5.505721794351052800e-01
-2.255519684609653408e-01,-9.976657115909991214e-02
4.372586184874653337e-01,-1.087351594140068684e-01
-3.378602612417921924e-01,1.208803326406603790e-01
2.469531495813822586e-01,-1.117429188941715251e-01
-3.014664653874973843e-01,-1.054830914837135841e-01
-1.271533361980997645e-01,1.154392571082626384e-01
1.783137705521429528e-01,3.246671383629436414e-01
3.975094252378821857e-01,-1.289871437066035242e-01
7.637522253748980638e-01,-1.190380622308625895e-02
1.217997444242948368e-01,2.889266583731989191e-02
-7.293257187812957065e-02,1.468635538556196107e-01
